{"learner":{"attributes":{"best_iteration":"999","best_score":"0.5376992946972529","scikit_learn":"{\"_estimator_type\": \"classifier\"}"},"feature_names":["HOUR","D_OF_W","EMA_S","EMA_M","EMA_L","CLOSE_EMA_S","EMA_S_EMA_M","EMA_M_EMA_L","ATR","RSI","MOM","ADX","ADX_hist","ADX_hist_ema","WILLR","KDJ_K","KDJ_D","KDJ_J","MACD","MACD_signal","MACD_hist","BB_Width","BB_Percent","OBV","VOLUME_CHANGE","log_close","lag_return_1","lag_return_2","lag_return_3","lag_return_4","lag_return_5","volatility"],"feature_types":["int","int","float","float","float","float","float","float","float","float","float","float","float","float","float","float","float","float","float","float","float","float","float","float","float","float","float","float","float","float","float","float"],"gradient_booster":{"model":{"cats":{"enc":[],"feature_segments":[],"sorted_idx":[]},"gbtree_model_param":{"num_parallel_tree":"1","num_trees":"1000"},"iteration_indptr":[0,1,2,3,4,5,6,7,8,9,10,11,12,13,14,15,16,17,18,19,20,21,22,23,24,25,26,27,28,29,30,31,32,33,34,35,36,37,38,39,40,41,42,43,44,45,46,47,48,49,50,51,52,53,54,55,56,57,58,59,60,61,62,63,64,65,66,67,68,69,70,71,72,73,74,75,76,77,78,79,80,81,82,83,84,85,86,87,88,89,90,91,92,93,94,95,96,97,98,99,100,101,102,103,104,105,106,107,108,109,110,111,112,113,114,115,116,117,118,119,120,121,122,123,124,125,126,127,128,129,130,131,132,133,134,135,136,137,138,139,140,141,142,143,144,145,146,147,148,149,150,151,152,153,154,155,156,157,158,159,160,161,162,163,164,165,166,167,168,169,170,171,172,173,174,175,176,177,178,179,180,181,182,183,184,185,186,187,188,189,190,191,192,193,194,195,196,197,198,199,200,201,202,203,204,205,206,207,208,209,210,211,212,213,214,215,216,217,218,219,220,221,222,223,224,225,226,227,228,229,230,231,232,233,234,235,236,237,238,239,240,241,242,243,244,245,246,247,248,249,250,251,252,253,254,255,256,257,258,259,260,261,262,263,264,265,266,267,268,269,270,271,272,273,274,275,276,277,278,279,280,281,282,283,284,285,286,287,288,289,290,291,292,293,294,295,296,297,298,299,300,301,302,303,304,305,306,307,308,309,310,311,312,313,314,315,316,317,318,319,320,321,322,323,324,325,326,327,328,329,330,331,332,333,334,335,336,337,338,339,340,341,342,343,344,345,346,347,348,349,350,351,352,353,354,355,356,357,358,359,360,361,362,363,364,365,366,367,368,369,370,371,372,373,374,375,376,377,378,379,380,381,382,383,384,385,386,387,388,389,390,391,392,393,394,395,396,397,398,399,400,401,402,403,404,405,406,407,408,409,410,411,412,413,414,415,416,417,418,419,420,421,422,423,424,425,426,427,428,429,430,431,432,433,434,435,436,437,438,439,440,441,442,443,444,445,446,447,448,449,450,451,452,453,454,455,456,457,458,459,460,461,462,463,464,465,466,467,468,469,470,471,472,473,474,475,476,477,478,479,480,481,482,483,484,485,486,487,488,489,490,491,492,493,494,495,496,497,498,499,500,501,502,503,504,505,506,507,508,509,510,511,512,513,514,515,516,517,518,519,520,521,522,523,524,525,526,527,528,529,530,531,532,533,534,535,536,537,538,539,540,541,542,543,544,545,546,547,548,549,550,551,552,553,554,555,556,557,558,559,560,561,562,563,564,565,566,567,568,569,570,571,572,573,574,575,576,577,578,579,580,581,582,583,584,585,586,587,588,589,590,591,592,593,594,595,596,597,598,599,600,601,602,603,604,605,606,607,608,609,610,611,612,613,614,615,616,617,618,619,620,621,622,623,624,625,626,627,628,629,630,631,632,633,634,635,636,637,638,639,640,641,642,643,644,645,646,647,648,649,650,651,652,653,654,655,656,657,658,659,660,661,662,663,664,665,666,667,668,669,670,671,672,673,674,675,676,677,678,679,680,681,682,683,684,685,686,687,688,689,690,691,692,693,694,695,696,697,698,699,700,701,702,703,704,705,706,707,708,709,710,711,712,713,714,715,716,717,718,719,720,721,722,723,724,725,726,727,728,729,730,731,732,733,734,735,736,737,738,739,740,741,742,743,744,745,746,747,748,749,750,751,752,753,754,755,756,757,758,759,760,761,762,763,764,765,766,767,768,769,770,771,772,773,774,775,776,777,778,779,780,781,782,783,784,785,786,787,788,789,790,791,792,793,794,795,796,797,798,799,800,801,802,803,804,805,806,807,808,809,810,811,812,813,814,815,816,817,818,819,820,821,822,823,824,825,826,827,828,829,830,831,832,833,834,835,836,837,838,839,840,841,842,843,844,845,846,847,848,849,850,851,852,853,854,855,856,857,858,859,860,861,862,863,864,865,866,867,868,869,870,871,872,873,874,875,876,877,878,879,880,881,882,883,884,885,886,887,888,889,890,891,892,893,894,895,896,897,898,899,900,901,902,903,904,905,906,907,908,909,910,911,912,913,914,915,916,917,918,919,920,921,922,923,924,925,926,927,928,929,930,931,932,933,934,935,936,937,938,939,940,941,942,943,944,945,946,947,948,949,950,951,952,953,954,955,956,957,958,959,960,961,962,963,964,965,966,967,968,969,970,971,972,973,974,975,976,977,978,979,980,981,982,983,984,985,986,987,988,989,990,991,992,993,994,995,996,997,998,999,1000],"tree_info":[0,0,0,0,0,0,0,0,0,0,0,0,0,0,0,0,0,0,0,0,0,0,0,0,0,0,0,0,0,0,0,0,0,0,0,0,0,0,0,0,0,0,0,0,0,0,0,0,0,0,0,0,0,0,0,0,0,0,0,0,0,0,0,0,0,0,0,0,0,0,0,0,0,0,0,0,0,0,0,0,0,0,0,0,0,0,0,0,0,0,0,0,0,0,0,0,0,0,0,0,0,0,0,0,0,0,0,0,0,0,0,0,0,0,0,0,0,0,0,0,0,0,0,0,0,0,0,0,0,0,0,0,0,0,0,0,0,0,0,0,0,0,0,0,0,0,0,0,0,0,0,0,0,0,0,0,0,0,0,0,0,0,0,0,0,0,0,0,0,0,0,0,0,0,0,0,0,0,0,0,0,0,0,0,0,0,0,0,0,0,0,0,0,0,0,0,0,0,0,0,0,0,0,0,0,0,0,0,0,0,0,0,0,0,0,0,0,0,0,0,0,0,0,0,0,0,0,0,0,0,0,0,0,0,0,0,0,0,0,0,0,0,0,0,0,0,0,0,0,0,0,0,0,0,0,0,0,0,0,0,0,0,0,0,0,0,0,0,0,0,0,0,0,0,0,0,0,0,0,0,0,0,0,0,0,0,0,0,0,0,0,0,0,0,0,0,0,0,0,0,0,0,0,0,0,0,0,0,0,0,0,0,0,0,0,0,0,0,0,0,0,0,0,0,0,0,0,0,0,0,0,0,0,0,0,0,0,0,0,0,0,0,0,0,0,0,0,0,0,0,0,0,0,0,0,0,0,0,0,0,0,0,0,0,0,0,0,0,0,0,0,0,0,0,0,0,0,0,0,0,0,0,0,0,0,0,0,0,0,0,0,0,0,0,0,0,0,0,0,0,0,0,0,0,0,0,0,0,0,0,0,0,0,0,0,0,0,0,0,0,0,0,0,0,0,0,0,0,0,0,0,0,0,0,0,0,0,0,0,0,0,0,0,0,0,0,0,0,0,0,0,0,0,0,0,0,0,0,0,0,0,0,0,0,0,0,0,0,0,0,0,0,0,0,0,0,0,0,0,0,0,0,0,0,0,0,0,0,0,0,0,0,0,0,0,0,0,0,0,0,0,0,0,0,0,0,0,0,0,0,0,0,0,0,0,0,0,0,0,0,0,0,0,0,0,0,0,0,0,0,0,0,0,0,0,0,0,0,0,0,0,0,0,0,0,0,0,0,0,0,0,0,0,0,0,0,0,0,0,0,0,0,0,0,0,0,0,0,0,0,0,0,0,0,0,0,0,0,0,0,0,0,0,0,0,0,0,0,0,0,0,0,0,0,0,0,0,0,0,0,0,0,0,0,0,0,0,0,0,0,0,0,0,0,0,0,0,0,0,0,0,0,0,0,0,0,0,0,0,0,0,0,0,0,0,0,0,0,0,0,0,0,0,0,0,0,0,0,0,0,0,0,0,0,0,0,0,0,0,0,0,0,0,0,0,0,0,0,0,0,0,0,0,0,0,0,0,0,0,0,0,0,0,0,0,0,0,0,0,0,0,0,0,0,0,0,0,0,0,0,0,0,0,0,0,0,0,0,0,0,0,0,0,0,0,0,0,0,0,0,0,0,0,0,0,0,0,0,0,0,0,0,0,0,0,0,0,0,0,0,0,0,0,0,0,0,0,0,0,0,0,0,0,0,0,0,0,0,0,0,0,0,0,0,0,0,0,0,0,0,0,0,0,0,0,0,0,0,0,0,0,0,0,0,0,0,0,0,0,0,0,0,0,0,0,0,0,0,0,0,0,0,0,0,0,0,0,0,0,0,0,0,0,0,0,0,0,0,0,0,0,0,0,0,0,0,0,0,0,0,0,0,0,0,0,0,0,0,0,0,0,0,0,0,0,0,0,0,0,0,0,0,0,0,0,0,0,0,0,0,0,0,0,0,0,0,0,0,0,0,0,0,0,0,0,0,0,0,0,0,0,0,0,0,0,0,0,0,0,0,0,0,0,0,0,0,0,0,0,0,0,0,0,0,0,0,0,0,0,0,0,0,0,0,0,0,0,0,0,0,0,0,0,0,0,0,0,0,0,0,0,0,0,0,0,0,0,0,0,0,0,0,0,0,0,0,0,0,0,0,0,0,0,0,0,0,0,0,0,0,0,0,0,0,0,0,0,0,0,0,0,0,0,0,0,0,0,0,0,0,0,0,0,0,0,0,0,0,0,0,0,0,0,0,0,0,0,0,0,0],"trees":[{"base_weights":[-2.283792E-3,-3.5590756E-1,4.3285903E-1,-1.1390421E-1,-7.4771905E-1,8.488106E-1,1.6916586E-1,-3.7992063E-3,5.0523477E-3,-6.3637253E-3,-1.3274811E-2,1.46299405E-2,8.080169E-3,-3.8167892E-3,5.0066356E-3],"categories":[],"categories_nodes":[],"categories_segments":[],"categories_sizes":[],"default_left":[0,0,0,0,0,0,0,0,0,0,0,0,0,0,0],"id":0,"left_children":[1,3,5,7,9,11,13,-1,-1,-1,-1,-1,-1,-1,-1],"loss_changes":[5.298911E2,1.7745052E2,1.6504669E2,1.0399285E2,4.267929E1,2.7697754E1,9.367888E1,0E0,0E0,0E0,0E0,0E0,0E0,0E0,0E0],"parents":[2147483647,0,0,1,1,2,2,3,3,4,4,5,5,6,6],"right_children":[2,4,6,8,10,12,14,-1,-1,-1,-1,-1,-1,-1,-1],"split_conditions":[3.18292E-4,4.6061893E1,6.226165E1,-7.9106126E-4,-4.2909247E-4,1.9052686E-4,1.5340237E-3,-3.7992063E-3,5.0523477E-3,-6.3637253E-3,-1.3274811E-2,1.46299405E-2,8.080169E-3,-3.8167892E-3,5.0066356E-3],"split_indices":[5,16,16,5,26,6,5,0,0,0,0,0,0,0,0],"split_type":[0,0,0,0,0,0,0,0,0,0,0,0,0,0,0],"sum_hessian":[3.435E3,1.8995E3,1.5355E3,1.18325E3,7.1625E2,5.8675E2,9.4875E2,8.8175E2,3.015E2,3.705E2,3.4575E2,2.6025E2,3.265E2,2.94E2,6.5475E2],"tree_param":{"num_deleted":"0","num_feature":"32","num_nodes":"15","size_leaf_vector":"1"}},{"base_weights":[5.6705866E-3,-3.589189E-1,4.2056283E-1,-8.864242E-2,-7.730303E-1,2.0153669E-1,9.466526E-1,1.4919257E-3,-8.917351E-3,-1.4646086E-2,-4.258166E-3,1.0153487E-2,8.865275E-5,6.2383744E-3,1.6394168E-2],"categories":[],"categories_nodes":[],"categories_segments":[],"categories_sizes":[],"default_left":[0,0,0,0,0,0,0,0,0,0,0,0,0,0,0],"id":1,"left_children":[1,3,5,7,9,11,13,-1,-1,-1,-1,-1,-1,-1,-1],"loss_changes":[5.2113074E2,2.0165991E2,1.8149066E2,1.3537036E2,1.03552826E2,1.25526215E2,5.8156616E1,0E0,0E0,0E0,0E0,0E0,0E0,0E0,0E0],"parents":[2147483647,0,0,1,1,2,2,3,3,4,4,5,5,6,6],"right_children":[2,4,6,8,10,12,14,-1,-1,-1,-1,-1,-1,-1,-1],"split_conditions":[2.043081E-4,1.3503037E-1,3.6286476E-1,5.254258E1,-1.4749572E-3,5.424858E1,1.8154874E-3,1.4919257E-3,-8.917351E-3,-1.4646086E-2,-4.258166E-3,1.0153487E-2,8.865275E-5,6.2383744E-3,1.6394168E-2],"split_indices":[5,24,24,16,5,16,5,0,0,0,0,0,0,0,0],"split_type":[0,0,0,0,0,0,0,0,0,0,0,0,0,0,0],"sum_hessian":[3.4337014E3,1.8239775E3,1.6097239E3,1.1119868E3,7.119907E2,1.1457323E3,4.6399164E2,8.2724414E2,2.847427E2,3.9624628E2,3.1574445E2,2.8349075E2,8.622415E2,1.8974574E2,2.7424588E2],"tree_param":{"num_deleted":"0","num_feature":"32","num_nodes":"15","size_leaf_vector":"1"}},{"base_weights":[-1.0786158E-3,-1.0547819E-1,7.9814327E-1,-7.878292E-1,-1.7947175E-2,5.924601E-1,1.1731659E0,-1.4517306E-2,-7.504627E-3,2.9514702E-3,-3.9950567E-3,1.0724617E-2,2.7526305E-3,-0E0,1.5682435E-2],"categories":[],"categories_nodes":[],"categories_segments":[],"categories_sizes":[],"default_left":[0,0,0,0,0,0,0,0,0,0,0,0,0,0,0],"id":2,"left_children":[1,3,5,7,9,11,13,-1,-1,-1,-1,-1,-1,-1,-1],"loss_changes":[2.856476E2,1.7982727E2,2.1388458E1,1.50867E1,1.8902307E2,1.9095268E1,3.6467743E0,0E0,0E0,0E0,0E0,0E0,0E0,0E0,0E0],"parents":[2147483647,0,0,1,1,2,2,3,3,4,4,5,5,6,6],"right_children":[2,4,6,8,10,12,14,-1,-1,-1,-1,-1,-1,-1,-1],"split_conditions":[-1.5379262E1,-8.2390335E1,-6.585366E0,-9.030521E1,5.4793682E1,7.9350876E1,1.8618636E0,-1.4517306E-2,-7.504627E-3,2.9514702E-3,-3.9950567E-3,1.0724617E-2,2.7526305E-3,-0E0,1.5682435E-2],"split_indices":[14,14,14,14,16,16,8,0,0,0,0,0,0,0,0],"split_type":[0,0,0,0,0,0,0,0,0,0,0,0,0,0,0],"sum_hessian":[3.439333E3,3.0493542E3,3.8997876E2,3.3798425E2,2.71137E3,2.657365E2,1.24242226E2,1.229939E2,2.1499036E2,1.4619271E3,1.2494429E3,1.589902E2,1.0674632E2,1.7499566E0,1.2249227E2],"tree_param":{"num_deleted":"0","num_feature":"32","num_nodes":"15","size_leaf_vector":"1"}},{"base_weights":[4.8974873E-3,-3.276496E-1,4.361367E-1,-1.3259E0,-2.6331455E-1,3.2206875E-1,1.1333634E0,-4.7752218E-4,-1.9275317E-2,-2.2352181E-4,-8.061404E-3,1.0598345E-2,9.442155E-4,1.7863795E-2,2.7101452E-3],"categories":[],"categories_nodes":[],"categories_segments":[],"categories_sizes":[],"default_left":[0,0,0,0,0,0,0,0,0,0,0,0,0,0,0],"id":3,"left_children":[1,3,5,7,9,11,13,-1,-1,-1,-1,-1,-1,-1,-1],"loss_changes":[4.9551257E2,1.18170944E2,1.13458496E2,1.5610016E1,1.5634943E2,1.5527898E2,3.6797913E1,0E0,0E0,0E0,0E0,0E0,0E0,0E0,0E0],"parents":[2147483647,0,0,1,1,2,2,3,3,4,4,5,5,6,6],"right_children":[2,4,6,8,10,12,14,-1,-1,-1,-1,-1,-1,-1,-1],"split_conditions":[3.8531143E-4,-9.226482E-2,1.0118324E0,-7.52552E-3,-1.8984785E-4,6.2342815E1,5.416657E-3,-4.7752218E-4,-1.9275317E-2,-2.2352181E-4,-8.061404E-3,1.0598345E-2,9.442155E-4,1.7863795E-2,2.7101452E-3],"split_indices":[5,22,22,26,6,15,26,0,0,0,0,0,0,0,0],"split_type":[0,0,0,0,0,0,0,0,0,0,0,0,0,0,0],"sum_hessian":[3.4427495E3,1.940375E3,1.5023744E3,1.0848504E2,1.8318899E3,1.301405E3,2.0096936E2,1.3498939E1,9.49861E1,1.0836848E3,7.482051E2,4.3519727E2,8.662078E2,1.5697406E2,4.399529E1],"tree_param":{"num_deleted":"0","num_feature":"32","num_nodes":"15","size_leaf_vector":"1"}},{"base_weights":[-0E0,-1.0332261E-1,7.898175E-1,-8.893924E-1,-2.1390773E-2,4.5880166E-1,1.2463646E0,-4.1643004E-3,-1.9787623E-2,3.0036427E-3,-3.865793E-3,2.6502272E-3,1.088014E-2,1.7312901E-2,2.05619E-3],"categories":[],"categories_nodes":[],"categories_segments":[],"categories_sizes":[],"default_left":[0,0,0,0,0,0,0,0,0,0,0,0,0,0,0],"id":4,"left_children":[1,3,5,7,9,11,13,-1,-1,-1,-1,-1,-1,-1,-1],"loss_changes":[2.8227222E2,1.9373135E2,5.221617E1,9.222319E1,1.8968083E2,1.9074924E1,6.783554E0,0E0,0E0,0E0,0E0,0E0,0E0,0E0,0E0],"parents":[2147483647,0,0,1,1,2,2,3,3,4,4,5,5,6,6],"right_children":[2,4,6,8,10,12,14,-1,-1,-1,-1,-1,-1,-1,-1],"split_conditions":[-1.5379262E1,4.2011958E-2,3.4436005E-1,3.3246902E-1,5.2841312E1,9.6977335E-1,1.3339014E5,-4.1643004E-3,-1.9787623E-2,3.0036427E-3,-3.865793E-3,2.6502272E-3,1.088014E-2,1.7312901E-2,2.05619E-3],"split_indices":[14,22,24,24,16,22,23,0,0,0,0,0,0,0,0],"split_type":[0,0,0,0,0,0,0,0,0,0,0,0,0,0,0],"sum_hessian":[3.4440752E3,3.0489297E3,3.9514545E2,2.7943997E2,2.7694897E3,2.389666E2,1.5617885E2,1.5148508E2,1.27954895E2,1.4396099E3,1.32988E3,1.5048561E2,8.848099E1,1.4293375E2,1.3245106E1],"tree_param":{"num_deleted":"0","num_feature":"32","num_nodes":"15","size_leaf_vector":"1"}},{"base_weights":[2.5726E-4,-9.6019715E-2,8.14865E-1,-8.87326E-1,-1.4018037E-2,3.2740405E-1,1.2536033E0,-3.8844815E-3,-1.9504175E-2,3.082827E-3,-3.2144755E-3,8.324922E-3,-0E0,1.6691612E-2,-0E0],"categories":[],"categories_nodes":[],"categories_segments":[],"categories_sizes":[],"default_left":[0,0,0,0,0,0,0,0,0,0,0,0,0,0,0],"id":5,"left_children":[1,3,5,7,9,11,13,-1,-1,-1,-1,-1,-1,-1,-1],"loss_changes":[2.730762E2,1.9726117E2,7.1737076E1,9.314685E1,1.6101494E2,1.9636227E1,3.3789368E0,0E0,0E0,0E0,0E0,0E0,0E0,0E0,0E0],"parents":[2147483647,0,0,1,1,2,2,3,3,4,4,5,5,6,6],"right_children":[2,4,6,8,10,12,14,-1,-1,-1,-1,-1,-1,-1,-1],"split_conditions":[9.121494E-1,4.2011958E-2,1.4114656E-1,3.1315312E-1,5.048872E1,7.899591E1,1.021175E-2,-3.8844815E-3,-1.9504175E-2,3.082827E-3,-3.2144755E-3,8.324922E-3,-0E0,1.6691612E-2,-0E0],"split_indices":[22,22,24,24,16,16,27,0,0,0,0,0,0,0,0],"split_type":[0,0,0,0,0,0,0,0,0,0,0,0,0,0,0],"sum_hessian":[3.4429004E3,3.07956E3,3.6334024E2,2.8087442E2,2.7986858E3,1.7971428E2,1.8362596E2,1.474808E2,1.3339363E2,1.3401134E3,1.4585723E3,9.322969E1,8.648458E1,1.8087714E2,2.7488306E0],"tree_param":{"num_deleted":"0","num_feature":"32","num_nodes":"15","size_leaf_vector":"1"}},{"base_weights":[1.196445E-3,-3.5151157E-1,4.0131462E-1,-8.6907834E-2,-7.549939E-1,1.9212586E-1,9.0869385E-1,1.9455532E-3,-6.9657033E-3,-1.4236166E-2,-4.3096077E-3,1.0013767E-2,-0E0,6.530576E-3,1.5819779E-2],"categories":[],"categories_nodes":[],"categories_segments":[],"categories_sizes":[],"default_left":[0,0,0,0,0,0,0,0,0,0,0,0,0,0,0],"id":6,"left_children":[1,3,5,7,9,11,13,-1,-1,-1,-1,-1,-1,-1,-1],"loss_changes":[4.867691E2,1.9223117E2,1.6755746E2,1.1764119E2,9.451129E1,1.2676759E2,4.8349792E1,0E0,0E0,0E0,0E0,0E0,0E0,0E0,0E0],"parents":[2147483647,0,0,1,1,2,2,3,3,4,4,5,5,6,6],"right_children":[2,4,6,8,10,12,14,-1,-1,-1,-1,-1,-1,-1,-1],"split_conditions":[2.043081E-4,1.3503037E-1,3.6286476E-1,4.5793903E1,-1.4749572E-3,5.424858E1,1.9324269E-3,1.9455532E-3,-6.9657033E-3,-1.4236166E-2,-4.3096077E-3,1.0013767E-2,-0E0,6.530576E-3,1.5819779E-2],"split_indices":[5,24,24,16,5,16,5,0,0,0,0,0,0,0,0],"split_type":[0,0,0,0,0,0,0,0,0,0,0,0,0,0,0],"sum_hessian":[3.4379294E3,1.8233713E3,1.6145581E3,1.1096409E3,7.137304E2,1.1525693E3,4.619888E2,7.22724E2,3.8691696E2,3.9501642E2,3.18714E2,2.8689676E2,8.656726E2,2.029587E2,2.5903012E2],"tree_param":{"num_deleted":"0","num_feature":"32","num_nodes":"15","size_leaf_vector":"1"}},{"base_weights":[-5.308159E-4,-1.0157545E-1,7.6180923E-1,-8.730066E-1,-2.054234E-2,4.563789E-1,1.2225971E0,-0E0,-1.3667988E-2,2.8886918E-3,-3.7338983E-3,9.324212E-3,3.5601668E-4,1.833144E-2,6.498926E-3],"categories":[],"categories_nodes":[],"categories_segments":[],"categories_sizes":[],"default_left":[0,0,0,0,0,0,0,0,0,0,0,0,0,0,0],"id":7,"left_children":[1,3,5,7,9,11,13,-1,-1,-1,-1,-1,-1,-1,-1],"loss_changes":[2.640832E2,1.8804007E2,4.8283615E1,4.232614E1,1.7616753E2,2.5095978E1,9.68573E0,0E0,0E0,0E0,0E0,0E0,0E0,0E0,0E0],"parents":[2147483647,0,0,1,1,2,2,3,3,4,4,5,5,6,6],"right_children":[2,4,6,8,10,12,14,-1,-1,-1,-1,-1,-1,-1,-1],"split_conditions":[-1.5379262E1,4.2011958E-2,1.0118324E0,-5.6265173E-3,5.2841312E1,7.969444E1,4.9320958E-3,-0E0,-1.3667988E-2,2.8886918E-3,-3.7338983E-3,9.324212E-3,3.5601668E-4,1.833144E-2,6.498926E-3],"split_indices":[14,22,22,26,16,16,26,0,0,0,0,0,0,0,0],"split_type":[0,0,0,0,0,0,0,0,0,0,0,0,0,0,0],"sum_hessian":[3.445049E3,3.0493972E3,3.956518E2,2.814556E2,2.7679417E3,2.481272E2,1.4752461E2,4.5476612E1,2.3597899E2,1.4419609E3,1.3259807E3,1.494086E2,9.87186E1,1.1205318E2,3.5471428E1],"tree_param":{"num_deleted":"0","num_feature":"32","num_nodes":"15","size_leaf_vector":"1"}},{"base_weights":[8.189118E-4,-3.0410165E-1,4.4866848E-1,-1.2194651E-1,-6.358656E-1,3.4044018E-1,1.0506061E0,-1.090183E-2,6.927633E-4,-5.013923E-3,-1.23314E-2,1.0048766E-2,1.4518091E-3,1.6804095E-2,1.9414452E-3],"categories":[],"categories_nodes":[],"categories_segments":[],"categories_sizes":[],"default_left":[0,0,0,0,0,0,0,0,0,0,0,0,0,0,0],"id":8,"left_children":[1,3,5,7,9,11,13,-1,-1,-1,-1,-1,-1,-1,-1],"loss_changes":[4.726635E2,1.2129582E2,8.53298E1,1.679822E2,4.9441864E1,1.1413371E2,3.7209274E1,0E0,0E0,0E0,0E0,0E0,0E0,0E0,0E0],"parents":[2147483647,0,0,1,1,2,2,3,3,4,4,5,5,6,6],"right_children":[2,4,6,8,10,12,14,-1,-1,-1,-1,-1,-1,-1,-1],"split_conditions":[5.646583E-4,-2.7353286E-5,1.0118324E0,4.2011958E-2,-1.7939658E-4,1.406443E-4,5.416657E-3,-1.090183E-2,6.927633E-4,-5.013923E-3,-1.23314E-2,1.0048766E-2,1.4518091E-3,1.6804095E-2,1.9414452E-3],"split_indices":[5,6,22,22,26,6,26,0,0,0,0,0,0,0,0],"split_type":[0,0,0,0,0,0,0,0,0,0,0,0,0,0,0],"sum_hessian":[3.447757E3,2.0479878E3,1.3997694E3,1.3326992E3,7.1528864E2,1.1976216E3,2.0214774E2,2.6363602E2,1.0690631E3,4.003808E2,3.1490784E2,4.1210452E2,7.855171E2,1.5692873E2,4.5219006E1],"tree_param":{"num_deleted":"0","num_feature":"32","num_nodes":"15","size_leaf_vector":"1"}},{"base_weights":[-0E0,-8.9539714E-2,7.5458395E-1,-8.354118E-1,-1.1512269E-2,2.740112E-1,1.1837935E0,-3.560242E-3,-1.8821329E-2,2.8967734E-3,-3.292035E-3,9.121538E-3,-5.212082E-4,-0E0,1.5892666E-2],"categories":[],"categories_nodes":[],"categories_segments":[],"categories_sizes":[],"default_left":[0,0,0,0,0,0,0,0,0,0,0,0,0,0,0],"id":9,"left_children":[1,3,5,7,9,11,13,-1,-1,-1,-1,-1,-1,-1,-1],"loss_changes":[2.3335791E2,1.7639923E2,6.936423E1,8.9534454E1,1.5528151E2,2.6303415E1,2.7230835E0,0E0,0E0,0E0,0E0,0E0,0E0,0E0,0E0],"parents":[2147483647,0,0,1,1,2,2,3,3,4,4,5,5,6,6],"right_children":[2,4,6,8,10,12,14,-1,-1,-1,-1,-1,-1,-1,-1],"split_conditions":[9.121494E-1,4.2011958E-2,1.4114656E-1,3.3246902E-1,-2.7353286E-5,1.6032388E-3,2.4866188E0,-3.560242E-3,-1.8821329E-2,2.8967734E-3,-3.292035E-3,9.121538E-3,-5.212082E-4,-0E0,1.5892666E-2],"split_indices":[22,22,24,24,6,26,8,0,0,0,0,0,0,0,0],"split_type":[0,0,0,0,0,0,0,0,0,0,0,0,0,0,0],"sum_hessian":[3.4339077E3,3.0724937E3,3.6141403E2,2.8249008E2,2.7900037E3,1.7789122E2,1.8352281E2,1.516583E2,1.3083179E2,1.4094108E3,1.3805928E3,7.770102E1,1.0019019E2,5.985806E0,1.77537E2],"tree_param":{"num_deleted":"0","num_feature":"32","num_nodes":"15","size_leaf_vector":"1"}},{"base_weights":[2.9463808E-3,-3.7896678E-1,3.5115525E-1,-1.4841291E-1,-8.309437E-1,7.266074E-1,1.0378657E-1,-1.5401211E-2,-6.5524405E-4,-5.6071575E-3,-1.3047647E-2,7.2545E-3,1.5333073E-2,-1.8927985E-3,9.060131E-3],"categories":[],"categories_nodes":[],"categories_segments":[],"categories_sizes":[],"default_left":[0,0,0,0,0,0,0,0,0,0,0,0,0,0,0],"id":10,"left_children":[1,3,5,7,9,11,13,-1,-1,-1,-1,-1,-1,-1,-1],"loss_changes":[4.5711566E2,1.667064E2,1.644257E2,1.0618288E2,2.914975E1,4.5888336E1,1.6149474E2,0E0,0E0,0E0,0E0,0E0,0E0,0E0,0E0],"parents":[2147483647,0,0,1,1,2,2,3,3,4,4,5,5,6,6],"right_children":[2,4,6,8,10,12,14,-1,-1,-1,-1,-1,-1,-1,-1],"split_conditions":[-8.904042E-5,4.6336235E1,6.084654E1,-9.226482E-2,-1.0325026E-3,1.9324269E-3,-1.5379262E1,-1.5401211E-2,-6.5524405E-4,-5.6071575E-3,-1.3047647E-2,7.2545E-3,1.5333073E-2,-1.8927985E-3,9.060131E-3],"split_indices":[5,16,16,22,6,5,14,0,0,0,0,0,0,0,0],"split_type":[0,0,0,0,0,0,0,0,0,0,0,0,0,0,0],"sum_hessian":[3.427816E3,1.6302699E3,1.797546E3,1.0886561E3,5.416138E2,7.049793E2,1.0925668E3,8.79644E1,1.0006918E3,1.6564162E2,3.7597214E2,5.180063E2,1.8697307E2,7.666142E2,3.2595255E2],"tree_param":{"num_deleted":"0","num_feature":"32","num_nodes":"15","size_leaf_vector":"1"}},{"base_weights":[-0E0,-7.775267E-2,8.877122E-1,-8.4355557E-1,-1.1137381E-4,-0E0,1.0794386E0,-3.630989E-3,-1.8592617E-2,3.030862E-3,-2.9374815E-3,4.2048413E-3,-5.2596256E-3,6.247961E-3,1.61905E-2],"categories":[],"categories_nodes":[],"categories_segments":[],"categories_sizes":[],"default_left":[0,0,0,0,0,0,0,0,0,0,0,0,0,0,0],"id":11,"left_children":[1,3,5,7,9,11,13,-1,-1,-1,-1,-1,-1,-1,-1],"loss_changes":[2.3553473E2,1.8597261E2,4.8539017E1,8.609891E1,1.4915134E2,7.481444E0,1.2588989E1,0E0,0E0,0E0,0E0,0E0,0E0,0E0,0E0],"parents":[2147483647,0,0,1,1,2,2,3,3,4,4,5,5,6,6],"right_children":[2,4,6,8,10,12,14,-1,-1,-1,-1,-1,-1,-1,-1],"split_conditions":[9.609153E-1,4.2011958E-2,-4.0267053E-1,3.1315312E-1,-2.7353286E-5,2.136068E1,1.0118324E0,-3.630989E-3,-1.8592617E-2,3.030862E-3,-2.9374815E-3,4.2048413E-3,-5.2596256E-3,6.247961E-3,1.61905E-2],"split_indices":[22,22,24,24,6,12,22,0,0,0,0,0,0,0,0],"split_type":[0,0,0,0,0,0,0,0,0,0,0,0,0,0,0],"sum_hessian":[3.436795E3,3.1673286E3,2.6946622E2,2.8321582E2,2.8841128E3,4.721087E1,2.2225536E2,1.4862856E2,1.3458727E2,1.4117836E3,1.4723293E3,2.4473331E1,2.2737535E1,5.316296E1,1.6909239E2],"tree_param":{"num_deleted":"0","num_feature":"32","num_nodes":"15","size_leaf_vector":"1"}},{"base_weights":[2.6053752E-4,-9.412714E-2,7.420065E-1,-8.215358E-1,-1.687445E-2,4.6668154E-1,1.153271E0,-1.6827134E-2,-7.160462E-3,2.9241536E-3,-3.6575121E-3,8.666774E-3,-0E0,1.534677E-2,-0E0],"categories":[],"categories_nodes":[],"categories_segments":[],"categories_sizes":[],"default_left":[0,0,0,0,0,0,0,0,0,0,0,0,0,0,0],"id":12,"left_children":[1,3,5,7,9,11,13,-1,-1,-1,-1,-1,-1,-1,-1],"loss_changes":[2.4349359E2,1.6900906E2,3.667955E1,2.7450455E1,1.7390872E2,2.1040222E1,1.6051788E0,0E0,0E0,0E0,0E0,0E0,0E0,0E0,0E0],"parents":[2147483647,0,0,1,1,2,2,3,3,4,4,5,5,6,6],"right_children":[2,4,6,8,10,12,14,-1,-1,-1,-1,-1,-1,-1,-1],"split_conditions":[-1.5379262E1,4.2011958E-2,1.0118324E0,-1.0886143E-1,5.2841312E1,8.4776764E1,2.605262E1,-1.6827134E-2,-7.160462E-3,2.9241536E-3,-3.6575121E-3,8.666774E-3,-0E0,1.534677E-2,-0E0],"split_indices":[14,22,22,22,16,15,8,0,0,0,0,0,0,0,0],"split_type":[0,0,0,0,0,0,0,0,0,0,0,0,0,0,0],"sum_hessian":[3.4386506E3,3.050655E3,3.8799567E2,2.8427182E2,2.7663833E3,2.434896E2,1.4450607E2,9.573881E1,1.88533E2,1.4382133E3,1.3281699E3,1.6779977E2,7.568982E1,1.4201334E2,2.49274E0],"tree_param":{"num_deleted":"0","num_feature":"32","num_nodes":"15","size_leaf_vector":"1"}},{"base_weights":[5.872383E-3,-8.767262E-2,7.334648E-1,-8.2551223E-1,-1.4785222E-2,4.5392963E-1,1.156808E0,-1.416532E-3,-1.343844E-2,3.4491897E-3,-2.5269852E-3,1.0161273E-2,1.4941888E-3,1.7259918E-2,5.180748E-3],"categories":[],"categories_nodes":[],"categories_segments":[],"categories_sizes":[],"default_left":[0,0,0,0,0,0,0,0,0,0,0,0,0,0,0],"id":13,"left_children":[1,3,5,7,9,11,13,-1,-1,-1,-1,-1,-1,-1,-1],"loss_changes":[2.3700598E2,1.6161926E2,3.926088E1,3.4160904E1,1.3730476E2,2.4137302E1,9.91687E0,0E0,0E0,0E0,0E0,0E0,0E0,0E0,0E0],"parents":[2147483647,0,0,1,1,2,2,3,3,4,4,5,5,6,6],"right_children":[2,4,6,8,10,12,14,-1,-1,-1,-1,-1,-1,-1,-1],"split_conditions":[-1.5379262E1,3.4212053E-2,1.0118324E0,-4.194429E-3,-1.0339957E0,7.8333115E1,5.416657E-3,-1.416532E-3,-1.343844E-2,3.4491897E-3,-2.5269852E-3,1.0161273E-2,1.4941888E-3,1.7259918E-2,5.180748E-3],"split_indices":[14,22,22,26,18,15,26,0,0,0,0,0,0,0,0],"split_type":[0,0,0,0,0,0,0,0,0,0,0,0,0,0,0],"sum_hessian":[3.442457E3,3.050423E3,3.92034E2,2.656458E2,2.7847773E3,2.4694179E2,1.4509222E2,6.2335327E1,2.0331049E2,1.0791111E3,1.7056663E3,1.1930385E2,1.2763794E2,1.1392766E2,3.1164555E1],"tree_param":{"num_deleted":"0","num_feature":"32","num_nodes":"15","size_leaf_vector":"1"}},{"base_weights":[1.0214283E-3,-7.658194E-2,8.299472E-1,-7.829996E-1,-5.084199E-3,3.2793555E-1,1.1833874E0,-3.2240862E-3,-1.7864503E-2,2.8809411E-3,-2.9949837E-3,1.1086544E-2,-0E0,1.5853615E-2,-0E0],"categories":[],"categories_nodes":[],"categories_segments":[],"categories_sizes":[],"default_left":[0,0,0,0,0,0,0,0,0,0,0,0,0,0,0],"id":14,"left_children":[1,3,5,7,9,11,13,-1,-1,-1,-1,-1,-1,-1,-1],"loss_changes":[2.236953E2,1.5623111E2,4.6150314E1,8.149397E1,1.4334409E2,2.3656048E1,4.545105E0,0E0,0E0,0E0,0E0,0E0,0E0,0E0,0E0],"parents":[2147483647,0,0,1,1,2,2,3,3,4,4,5,5,6,6],"right_children":[2,4,6,8,10,12,14,-1,-1,-1,-1,-1,-1,-1,-1],"split_conditions":[9.4477266E-1,4.2011958E-2,6.5241955E-2,3.3246902E-1,-2.7353286E-5,1.6032388E-3,8.664228E-3,-3.2240862E-3,-1.7864503E-2,2.8809411E-3,-2.9949837E-3,1.1086544E-2,-0E0,1.5853615E-2,-0E0],"split_indices":[22,22,24,24,6,26,30,0,0,0,0,0,0,0,0],"split_type":[0,0,0,0,0,0,0,0,0,0,0,0,0,0,0],"sum_hessian":[3.4305222E3,3.1376055E3,2.9291663E2,2.7968292E2,2.8579226E3,1.2874757E2,1.6416905E2,1.5125505E2,1.2842787E2,1.4172043E3,1.4407183E3,4.838688E1,8.0360695E1,1.6093823E2,3.230807E0],"tree_param":{"num_deleted":"0","num_feature":"32","num_nodes":"15","size_leaf_vector":"1"}},{"base_weights":[2.5804332E-3,-3.978484E-1,3.0461454E-1,-1.0721517E-1,-8.617041E-1,7.375572E-1,9.222753E-2,1.2599926E-3,-8.147028E-3,-1.411331E-2,-5.8593247E-3,5.876109E-3,1.2789472E-2,-1.4266155E-3,8.602152E-3],"categories":[],"categories_nodes":[],"categories_segments":[],"categories_sizes":[],"default_left":[0,0,0,0,0,0,0,0,0,0,0,0,0,0,0],"id":15,"left_children":[1,3,5,7,9,11,13,-1,-1,-1,-1,-1,-1,-1,-1],"loss_changes":[4.1532462E2,1.9507562E2,1.7757936E2,9.7279076E1,4.2418213E1,3.7150055E1,1.5198318E2,0E0,0E0,0E0,0E0,0E0,0E0,0E0,0E0],"parents":[2147483647,0,0,1,1,2,2,3,3,4,4,5,5,6,6],"right_children":[2,4,6,8,10,12,14,-1,-1,-1,-1,-1,-1,-1,-1],"split_conditions":[-3.4560074E-4,1.8662888E-1,5.4793682E1,4.5793903E1,-1.5691372E-3,5.646583E-4,-1.5379262E1,1.2599926E-3,-8.147028E-3,-1.411331E-2,-5.8593247E-3,5.876109E-3,1.2789472E-2,-1.4266155E-3,8.602152E-3],"split_indices":[5,24,16,16,5,5,14,0,0,0,0,0,0,0,0],"split_type":[0,0,0,0,0,0,0,0,0,0,0,0,0,0,0],"sum_hessian":[3.4262893E3,1.4680139E3,1.9582753E3,9.1054285E2,5.5747107E2,6.354858E2,1.3227896E3,6.5075836E2,2.597845E2,3.5883682E2,1.9863425E2,2.9714807E2,3.3833768E2,9.736435E2,3.49146E2],"tree_param":{"num_deleted":"0","num_feature":"32","num_nodes":"15","size_leaf_vector":"1"}},{"base_weights":[-3.233761E-4,-3.3196804E-1,3.731017E-1,-7.996943E-2,-7.1531427E-1,1.7594974E-1,8.4837687E-1,1.8638908E-3,-6.011048E-3,-1.3352757E-2,-4.236923E-3,7.552806E-3,2.1470494E-4,5.3303405E-3,1.44194625E-2],"categories":[],"categories_nodes":[],"categories_segments":[],"categories_sizes":[],"default_left":[0,0,0,0,0,0,0,0,0,0,0,0,0,0,0],"id":16,"left_children":[1,3,5,7,9,11,13,-1,-1,-1,-1,-1,-1,-1,-1],"loss_changes":[4.2669635E2,1.7397296E2,1.4750444E2,9.4623795E1,7.920715E1,7.152036E1,4.4562164E1,0E0,0E0,0E0,0E0,0E0,0E0,0E0,0E0],"parents":[2147483647,0,0,1,1,2,2,3,3,4,4,5,5,6,6],"right_children":[2,4,6,8,10,12,14,-1,-1,-1,-1,-1,-1,-1,-1],"split_conditions":[2.043081E-4,1.3503037E-1,3.6286476E-1,-3.9042377E0,-1.4749572E-3,2.6751155E-1,1.6809044E-3,1.8638908E-3,-6.011048E-3,-1.3352757E-2,-4.236923E-3,7.552806E-3,2.1470494E-4,5.3303405E-3,1.44194625E-2],"split_indices":[5,24,24,12,5,12,5,0,0,0,0,0,0,0,0],"split_type":[0,0,0,0,0,0,0,0,0,0,0,0,0,0,0],"sum_hessian":[3.4362942E3,1.8247172E3,1.611577E3,1.1096309E3,7.1508624E2,1.1486718E3,4.629053E2,6.956521E2,4.139788E2,3.9601724E2,3.19069E2,3.1896695E2,8.297048E2,1.758623E2,2.8704303E2],"tree_param":{"num_deleted":"0","num_feature":"32","num_nodes":"15","size_leaf_vector":"1"}},{"base_weights":[-9.849372E-4,-3.795405E-1,9.459211E-2,-1.936966E-2,-8.3557975E-1,2.991033E-1,-7.6539546E-2,1.9272118E-3,-5.3528785E-3,-8.0829775E-3,-1.4994227E-2,7.377015E-3,1.7035183E-3,-2.7196489E-3,3.6176844E-3],"categories":[],"categories_nodes":[],"categories_segments":[],"categories_sizes":[],"default_left":[0,0,0,0,0,0,0,0,0,0,0,0,0,0,0],"id":17,"left_children":[1,3,5,7,9,11,13,-1,-1,-1,-1,-1,-1,-1,-1],"loss_changes":[1.251611E2,1.1203723E2,9.655737E1,2.6854902E1,1.14135895E1,5.3257057E1,6.819361E1,0E0,0E0,0E0,0E0,0E0,0E0,0E0,0E0],"parents":[2147483647,0,0,1,1,2,2,3,3,4,4,5,5,6,6],"right_children":[2,4,6,8,10,12,14,-1,-1,-1,-1,-1,-1,-1,-1],"split_conditions":[2.0576424E1,9.810033E-2,1.3930575E-4,-3.0739454E-4,1.0425708E0,5.1709976E1,8.8720985E1,1.9272118E-3,-5.3528785E-3,-8.0829775E-3,-1.4994227E-2,7.377015E-3,1.7035183E-3,-2.7196489E-3,3.6176844E-3],"split_indices":[17,24,26,26,24,16,17,0,0,0,0,0,0,0,0],"split_type":[0,0,0,0,0,0,0,0,0,0,0,0,0,0,0],"sum_hessian":[3.4243938E3,6.938836E2,2.73051E3,3.9450568E2,2.9937793E2,1.2505748E3,1.4799353E3,2.7281555E2,1.21690125E2,1.886799E2,1.1069804E2,4.7911212E2,7.714627E2,1.0877893E3,3.9214606E2],"tree_param":{"num_deleted":"0","num_feature":"32","num_nodes":"15","size_leaf_vector":"1"}},{"base_weights":[2.1561226E-3,-3.998838E-1,3.077982E-1,-2.1321563E-1,-9.135227E-1,6.5446603E-1,5.5933952E-2,-1.4768194E-2,-1.573075E-3,-6.423583E-3,-1.4258638E-2,6.6610174E-3,1.4678799E-2,-2.231439E-3,8.183053E-3],"categories":[],"categories_nodes":[],"categories_segments":[],"categories_sizes":[],"default_left":[0,0,0,0,0,0,0,0,0,0,0,0,0,0,0],"id":18,"left_children":[1,3,5,7,9,11,13,-1,-1,-1,-1,-1,-1,-1,-1],"loss_changes":[4.236804E2,1.3791756E2,1.6911151E2,8.914201E1,2.0744446E1,4.8066864E1,1.4888844E2,0E0,0E0,0E0,0E0,0E0,0E0,0E0,0E0],"parents":[2147483647,0,0,1,1,2,2,3,3,4,4,5,5,6,6],"right_children":[2,4,6,8,10,12,14,-1,-1,-1,-1,-1,-1,-1,-1],"split_conditions":[-3.4560074E-4,4.9859684E1,6.084654E1,-9.226482E-2,-1.0325026E-3,1.9324269E-3,-1.5379262E1,-1.4768194E-2,-1.573075E-3,-6.423583E-3,-1.4258638E-2,6.6610174E-3,1.4678799E-2,-2.231439E-3,8.183053E-3],"split_indices":[5,16,16,22,6,5,14,0,0,0,0,0,0,0,0],"split_type":[0,0,0,0,0,0,0,0,0,0,0,0,0,0,0],"sum_hessian":[3.4400867E3,1.480626E3,1.9594606E3,1.0957297E3,3.8489633E2,8.158744E2,1.1435862E3,9.372411E1,1.0020056E3,1.2154787E2,2.6334845E2,6.316379E2,1.8423651E2,8.164152E2,3.27171E2],"tree_param":{"num_deleted":"0","num_feature":"32","num_nodes":"15","size_leaf_vector":"1"}},{"base_weights":[-2.2159808E-3,-2.8226337E-1,4.0641508E-1,-5.207752E-2,-6.2423974E-1,1.4453247E-1,8.315734E-1,2.2926605E-3,-6.444312E-3,-5.397873E-3,-1.2878715E-2,5.8801733E-3,-2.3744632E-3,1.4064915E-2,7.4053807E-3],"categories":[],"categories_nodes":[],"categories_segments":[],"categories_sizes":[],"default_left":[0,0,0,0,0,0,0,0,0,0,0,0,0,0,0],"id":19,"left_children":[1,3,5,7,9,11,13,-1,-1,-1,-1,-1,-1,-1,-1],"loss_changes":[3.9270477E2,1.5851038E2,1.5134077E2,1.2372809E2,5.5542328E1,8.716649E1,2.5385468E1,0E0,0E0,0E0,0E0,0E0,0E0,0E0,0E0],"parents":[2147483647,0,0,1,1,2,2,3,3,4,4,5,5,6,6],"right_children":[2,4,6,8,10,12,14,-1,-1,-1,-1,-1,-1,-1,-1],"split_conditions":[5.646583E-4,4.6061893E1,1.7911518E-1,1.8662888E-1,1.3930575E-4,8.790447E-4,6.753546E1,2.2926605E-3,-6.444312E-3,-5.397873E-3,-1.2878715E-2,5.8801733E-3,-2.3744632E-3,1.4064915E-2,7.4053807E-3],"split_indices":[5,16,24,24,26,26,16,0,0,0,0,0,0,0,0],"split_type":[0,0,0,0,0,0,0,0,0,0,0,0,0,0,0],"sum_hessian":[3.4248787E3,2.0376681E3,1.3872107E3,1.2268933E3,8.1077484E2,8.6723364E2,5.1997705E2,8.0612054E2,4.2077277E2,5.189806E2,2.917942E2,4.530472E2,4.1418643E2,2.6089426E2,2.5908276E2],"tree_param":{"num_deleted":"0","num_feature":"32","num_nodes":"15","size_leaf_vector":"1"}},{"base_weights":[5.604507E-4,-3.1867242E-1,3.643565E-1,-7.194708E-2,-6.939405E-1,1.340095E-1,7.6882607E-1,2.4261707E-3,-4.9213357E-3,-1.3115791E-2,-3.9163856E-3,7.265456E-3,-3.3321852E-4,4.2711804E-3,1.2679521E-2],"categories":[],"categories_nodes":[],"categories_segments":[],"categories_sizes":[],"default_left":[0,0,0,0,0,0,0,0,0,0,0,0,0,0,0],"id":20,"left_children":[1,3,5,7,9,11,13,-1,-1,-1,-1,-1,-1,-1,-1],"loss_changes":[4.001262E2,1.6675662E2,1.4703911E2,8.7455505E1,8.11015E1,7.11159E1,4.4762604E1,0E0,0E0,0E0,0E0,0E0,0E0,0E0,0E0],"parents":[2147483647,0,0,1,1,2,2,3,3,4,4,5,5,6,6],"right_children":[2,4,6,8,10,12,14,-1,-1,-1,-1,-1,-1,-1,-1],"split_conditions":[2.043081E-4,1.3503037E-1,1.9620727E-1,-6.6925316E0,-1.4749572E-3,2.6751155E-1,1.3583509E-3,2.4261707E-3,-4.9213357E-3,-1.3115791E-2,-3.9163856E-3,7.265456E-3,-3.3321852E-4,4.2711804E-3,1.2679521E-2],"split_indices":[5,24,24,12,5,12,5,0,0,0,0,0,0,0,0],"split_type":[0,0,0,0,0,0,0,0,0,0,0,0,0,0,0],"sum_hessian":[3.4339275E3,1.8247179E3,1.6092095E3,1.10962E3,7.150979E2,1.034564E3,5.7464545E2,5.958657E2,5.1375433E2,3.9565927E2,3.1943863E2,2.87143E2,7.47421E2,1.8502928E2,3.8961618E2],"tree_param":{"num_deleted":"0","num_feature":"32","num_nodes":"15","size_leaf_vector":"1"}},{"base_weights":[-2.1160296E-3,-8.603067E-2,7.153512E-1,-6.778009E-1,-1.1667963E-2,9.273396E-1,4.3160328E-1,-1.2738552E-2,-6.2814164E-3,3.2602276E-3,-3.2229773E-3,2.0507106E-3,1.2804388E-2,1.0829803E-2,2.7103042E-3],"categories":[],"categories_nodes":[],"categories_segments":[],"categories_sizes":[],"default_left":[0,0,0,0,0,0,0,0,0,0,0,0,0,0,0],"id":21,"left_children":[1,3,5,7,9,11,13,-1,-1,-1,-1,-1,-1,-1,-1],"loss_changes":[2.0500084E2,1.334033E2,1.5110321E1,1.2853302E1,1.669703E2,2.6571045E0,1.0765638E1,0E0,0E0,0E0,0E0,0E0,0E0,0E0,0E0],"parents":[2147483647,0,0,1,1,2,2,3,3,4,4,5,5,6,6],"right_children":[2,4,6,8,10,12,14,-1,-1,-1,-1,-1,-1,-1,-1],"split_conditions":[-1.4398783E1,-8.2390335E1,7.831498E1,-9.030521E1,5.048872E1,-9.224321E0,0E0,-1.2738552E-2,-6.2814164E-3,3.2602276E-3,-3.2229773E-3,2.0507106E-3,1.2804388E-2,1.0829803E-2,2.7103042E-3],"split_indices":[14,14,16,14,16,13,26,0,0,0,0,0,0,0,0],"split_type":[0,0,0,0,0,0,0,0,0,0,0,0,0,0,0],"sum_hessian":[3.4275647E3,3.076586E3,3.5097873E2,3.341237E2,2.7424622E3,1.8794832E2,1.6303041E2,1.2156431E2,2.1255939E2,1.2919612E3,1.4505011E3,1.5877233E1,1.7207109E2,4.9461754E1,1.1356866E2],"tree_param":{"num_deleted":"0","num_feature":"32","num_nodes":"15","size_leaf_vector":"1"}},{"base_weights":[-5.218819E-3,-3.192975E-1,3.4811524E-1,-7.584769E-2,-6.945191E-1,1.5255049E-1,8.200216E-1,1.8304392E-3,-5.7492005E-3,-1.2797339E-2,-4.2014285E-3,7.8015146E-3,-6.365998E-4,6.039826E-3,1.4262781E-2],"categories":[],"categories_nodes":[],"categories_segments":[],"categories_sizes":[],"default_left":[0,0,0,0,0,0,0,0,0,0,0,0,0,0,0],"id":22,"left_children":[1,3,5,7,9,11,13,-1,-1,-1,-1,-1,-1,-1,-1],"loss_changes":[3.824143E2,1.6442345E2,1.4556876E2,8.839159E1,6.9091705E1,1.0419296E2,3.7344635E1,0E0,0E0,0E0,0E0,0E0,0E0,0E0,0E0],"parents":[2147483647,0,0,1,1,2,2,3,3,4,4,5,5,6,6],"right_children":[2,4,6,8,10,12,14,-1,-1,-1,-1,-1,-1,-1,-1],"split_conditions":[2.043081E-4,1.3503037E-1,3.6286476E-1,-3.9042377E0,-1.441525E-3,6.2073185E1,1.9324269E-3,1.8304392E-3,-5.7492005E-3,-1.2797339E-2,-4.2014285E-3,7.8015146E-3,-6.365998E-4,6.039826E-3,1.4262781E-2],"split_indices":[5,24,24,12,5,15,5,0,0,0,0,0,0,0,0],"split_type":[0,0,0,0,0,0,0,0,0,0,0,0,0,0,0],"sum_hessian":[3.4365964E3,1.8243331E3,1.6122633E3,1.1152395E3,7.090937E2,1.1493481E3,4.629151E2,6.95751E2,4.1948846E2,3.9694016E2,3.1215353E2,3.6159073E2,7.8775745E2,2.0712227E2,2.5579283E2],"tree_param":{"num_deleted":"0","num_feature":"32","num_nodes":"15","size_leaf_vector":"1"}},{"base_weights":[-3.191935E-3,-8.958672E-2,6.584413E-1,-6.6511786E-1,-1.6104283E-2,3.5712373E-1,1.0842211E0,-4.244342E-3,-1.2938395E-2,2.9705754E-3,-3.5420037E-3,2.0851817E-3,1.03321E-2,1.5133077E-2,6.690481E-4],"categories":[],"categories_nodes":[],"categories_segments":[],"categories_sizes":[],"default_left":[0,0,0,0,0,0,0,0,0,0,0,0,0,0,0],"id":23,"left_children":[1,3,5,7,9,11,13,-1,-1,-1,-1,-1,-1,-1,-1],"loss_changes":[1.9476144E2,1.2659801E2,4.3911392E1,3.1405487E1,1.6675322E2,1.7001316E1,6.7563477E0,0E0,0E0,0E0,0E0,0E0,0E0,0E0,0E0],"parents":[2147483647,0,0,1,1,2,2,3,3,4,4,5,5,6,6],"right_children":[2,4,6,8,10,12,14,-1,-1,-1,-1,-1,-1,-1,-1],"split_conditions":[-1.5379262E1,-8.2390335E1,3.4436005E-1,1.7070499E-1,5.2841312E1,-6.585366E0,1.3339014E5,-4.244342E-3,-1.2938395E-2,2.9705754E-3,-3.5420037E-3,2.0851817E-3,1.03321E-2,1.5133077E-2,6.690481E-4],"split_indices":[14,14,24,24,16,14,23,0,0,0,0,0,0,0,0],"split_type":[0,0,0,0,0,0,0,0,0,0,0,0,0,0,0],"sum_hessian":[3.428154E3,3.0403052E3,3.8784885E2,3.347489E2,2.7055562E3,2.369193E2,1.5092955E2,1.7128041E2,1.634685E2,1.377481E3,1.3280753E3,1.7175552E2,6.516378E1,1.3831079E2,1.2618762E1],"tree_param":{"num_deleted":"0","num_feature":"32","num_nodes":"15","size_leaf_vector":"1"}},{"base_weights":[-5.222046E-3,-2.758579E-1,3.886141E-1,-6.505013E-2,-6.1048377E-1,1.3943702E-1,7.9104686E-1,1.9005692E-3,-6.007188E-3,-1.1941715E-2,-2.0501802E-3,8.183314E-3,-4.9576856E-4,5.863912E-3,1.2614016E-2],"categories":[],"categories_nodes":[],"categories_segments":[],"categories_sizes":[],"default_left":[0,0,0,0,0,0,0,0,0,0,0,0,0,0,0],"id":24,"left_children":[1,3,5,7,9,11,13,-1,-1,-1,-1,-1,-1,-1,-1],"loss_changes":[3.6698605E2,1.4210048E2,1.3680203E2,1.0549623E2,1.02286285E2,7.686303E1,2.4186737E1,0E0,0E0,0E0,0E0,0E0,0E0,0E0,0E0],"parents":[2147483647,0,0,1,1,2,2,3,3,4,4,5,5,6,6],"right_children":[2,4,6,8,10,12,14,-1,-1,-1,-1,-1,-1,-1,-1],"split_conditions":[5.646583E-4,1.3503037E-1,1.7911518E-1,4.571443E1,-1.0405257E-3,6.2342815E1,1.7483863E-3,1.9005692E-3,-6.007188E-3,-1.1941715E-2,-2.0501802E-3,8.183314E-3,-4.9576856E-4,5.863912E-3,1.2614016E-2],"split_indices":[5,24,24,15,5,15,5,0,0,0,0,0,0,0,0],"split_type":[0,0,0,0,0,0,0,0,0,0,0,0,0,0,0],"sum_hessian":[3.4362173E3,2.0422983E3,1.3939188E3,1.2624489E3,7.7984955E2,8.6993463E2,5.239842E2,8.194055E2,4.4304327E2,4.6369464E2,3.1615488E2,2.3471094E2,6.352237E2,1.8433374E2,3.3965045E2],"tree_param":{"num_deleted":"0","num_feature":"32","num_nodes":"15","size_leaf_vector":"1"}},{"base_weights":[-0E0,-7.802126E-2,6.819571E-1,-6.4547193E-1,-6.5603377E-3,4.9479252E-1,9.704532E-1,-1.2398689E-2,-5.855258E-3,2.908068E-3,-3.0495352E-3,8.084588E-3,-0E0,-0E0,1.3014135E-2],"categories":[],"categories_nodes":[],"categories_segments":[],"categories_sizes":[],"default_left":[0,0,0,0,0,0,0,0,0,0,0,0,0,0,0],"id":25,"left_children":[1,3,5,7,9,11,13,-1,-1,-1,-1,-1,-1,-1,-1],"loss_changes":[1.8321274E2,1.2303902E2,1.2043152E1,1.3756973E1,1.4156903E2,1.2859974E1,2.0177002E0,0E0,0E0,0E0,0E0,0E0,0E0,0E0,0E0],"parents":[2147483647,0,0,1,1,2,2,3,3,4,4,5,5,6,6],"right_children":[2,4,6,8,10,12,14,-1,-1,-1,-1,-1,-1,-1,-1],"split_conditions":[-1.4398783E1,-8.2390335E1,-6.585366E0,-9.030521E1,-2.7353286E-5,3.1331037E-3,-8.048863E0,-1.2398689E-2,-5.855258E-3,2.908068E-3,-3.0495352E-3,8.084588E-3,-0E0,-0E0,1.3014135E-2],"split_indices":[14,14,14,14,6,26,19,0,0,0,0,0,0,0,0],"split_type":[0,0,0,0,0,0,0,0,0,0,0,0,0,0,0],"sum_hessian":[3.428686E3,3.0802053E3,3.4848077E2,3.3502524E2,2.7451802E3,2.2634299E2,1.2213778E2,1.20652756E2,2.1437248E2,1.3585654E3,1.3866146E3,1.7863866E2,4.7704323E1,2.9661329E0,1.19171646E2],"tree_param":{"num_deleted":"0","num_feature":"32","num_nodes":"15","size_leaf_vector":"1"}},{"base_weights":[-0E0,-3.6029074E-1,8.8548586E-2,-1.3967711E-2,-8.0004406E-1,3.5405114E-1,-4.3582026E-2,2.3201779E-3,-4.0259548E-3,-1.121707E-2,-0E0,9.053171E-3,2.481669E-3,-2.4363599E-3,4.9772514E-3],"categories":[],"categories_nodes":[],"categories_segments":[],"categories_sizes":[],"default_left":[0,0,0,0,0,0,0,0,0,0,0,0,0,0,0],"id":26,"left_children":[1,3,5,7,9,11,13,-1,-1,-1,-1,-1,-1,-1,-1],"loss_changes":[1.105099E2,1.0171729E2,9.761572E1,2.253841E1,1.3588058E1,4.764071E1,1.0959311E2,0E0,0E0,0E0,0E0,0E0,0E0,0E0,0E0],"parents":[2147483647,0,0,1,1,2,2,3,3,4,4,5,5,6,6],"right_children":[2,4,6,8,10,12,14,-1,-1,-1,-1,-1,-1,-1,-1],"split_conditions":[2.007525E1,9.810033E-2,4.6842335E1,-8.119222E-4,2.94E0,-4.6943553E-4,9.016611E1,2.3201779E-3,-4.0259548E-3,-1.121707E-2,-0E0,9.053171E-3,2.481669E-3,-2.4363599E-3,4.9772514E-3],"split_indices":[17,24,16,26,10,26,17,0,0,0,0,0,0,0,0],"split_type":[0,0,0,0,0,0,0,0,0,0,0,0,0,0,0],"sum_hessian":[3.427415E3,6.799786E2,2.7474365E3,3.8733374E2,2.9264484E2,9.180205E2,1.8294159E3,2.292276E2,1.5810616E2,2.7519177E2,1.7453064E1,2.9175314E2,6.2626733E2,1.3772632E3,4.5215274E2],"tree_param":{"num_deleted":"0","num_feature":"32","num_nodes":"15","size_leaf_vector":"1"}},{"base_weights":[8.695994E-4,-3.6327878E-1,2.7675286E-1,-1.0115485E-1,-7.821122E-1,6.3753706E-1,3.7484936E-2,2.0419385E-3,-6.248608E-3,-1.2914404E-2,-5.028038E-3,6.587073E-3,1.4169759E-2,-5.7084532E-3,3.6102466E-3],"categories":[],"categories_nodes":[],"categories_segments":[],"categories_sizes":[],"default_left":[0,0,0,0,0,0,0,0,0,0,0,0,0,0,0],"id":27,"left_children":[1,3,5,7,9,11,13,-1,-1,-1,-1,-1,-1,-1,-1],"loss_changes":[3.454147E2,1.5911855E2,1.6718015E2,8.968341E1,3.8952576E1,3.8967346E1,1.3336627E2,0E0,0E0,0E0,0E0,0E0,0E0,0E0,0E0],"parents":[2147483647,0,0,1,1,2,2,3,3,4,4,5,5,6,6],"right_children":[2,4,6,8,10,12,14,-1,-1,-1,-1,-1,-1,-1,-1],"split_conditions":[-3.4560074E-4,1.8662888E-1,5.954573E1,-6.6925316E0,-1.5691372E-3,1.9324269E-3,1.1669288E-3,2.0419385E-3,-6.248608E-3,-1.2914404E-2,-5.028038E-3,6.587073E-3,1.4169759E-2,-5.7084532E-3,3.6102466E-3],"split_indices":[5,24,16,12,5,5,5,0,0,0,0,0,0,0,0],"split_type":[0,0,0,0,0,0,0,0,0,0,0,0,0,0,0],"sum_hessian":[3.4307798E3,1.4732189E3,1.9575609E3,9.146261E2,5.585928E2,7.719537E2,1.1856072E3,5.3946857E2,3.751575E2,3.6176266E2,1.9683008E2,6.032675E2,1.686862E2,3.907991E2,7.948081E2],"tree_param":{"num_deleted":"0","num_feature":"32","num_nodes":"15","size_leaf_vector":"1"}},{"base_weights":[1.7860217E-3,-7.693483E-2,6.954172E-1,-7.521716E-1,-1.0418671E-2,4.299339E-1,1.0550052E0,-1.5400171E-2,-6.356554E-3,3.4683878E-3,-2.2015471E-3,8.23722E-3,-9.217965E-4,1.4534558E-2,-0E0],"categories":[],"categories_nodes":[],"categories_segments":[],"categories_sizes":[],"default_left":[0,0,0,0,0,0,0,0,0,0,0,0,0,0,0],"id":28,"left_children":[1,3,5,7,9,11,13,-1,-1,-1,-1,-1,-1,-1,-1],"loss_changes":[1.8916254E2,1.356861E2,2.6775253E1,2.2498611E1,1.209634E2,2.3329224E1,5.876892E0,0E0,0E0,0E0,0E0,0E0,0E0,0E0,0E0],"parents":[2147483647,0,0,1,1,2,2,3,3,4,4,5,5,6,6],"right_children":[2,4,6,8,10,12,14,-1,-1,-1,-1,-1,-1,-1,-1],"split_conditions":[-1.4398783E1,3.4212053E-2,1.0118324E0,-1.0886143E-1,-1.2964193E0,8.6415146E1,8.570286E-3,-1.5400171E-2,-6.356554E-3,3.4683878E-3,-2.2015471E-3,8.23722E-3,-9.217965E-4,1.4534558E-2,-0E0],"split_indices":[14,22,22,22,18,15,27,0,0,0,0,0,0,0,0],"split_type":[0,0,0,0,0,0,0,0,0,0,0,0,0,0,0],"sum_hessian":[3.4186345E3,3.0701858E3,3.4844867E2,2.6637762E2,2.803808E3,2.1190668E2,1.3654198E2,9.270685E1,1.7367076E2,1.0124157E3,1.7913925E3,1.5564775E2,5.625893E1,1.2861505E2,7.926916E0],"tree_param":{"num_deleted":"0","num_feature":"32","num_nodes":"15","size_leaf_vector":"1"}},{"base_weights":[-0E0,-3.0277798E-1,3.4030327E-1,-6.949949E-2,-6.61405E-1,7.105039E-1,9.9548236E-2,1.42243E-3,-7.8143E-3,-1.2607222E-2,-3.8760405E-3,7.0438366E-3,1.4280782E-2,-1.4497562E-3,7.1466244E-3],"categories":[],"categories_nodes":[],"categories_segments":[],"categories_sizes":[],"default_left":[0,0,0,0,0,0,0,0,0,0,0,0,0,0,0],"id":29,"left_children":[1,3,5,7,9,11,13,-1,-1,-1,-1,-1,-1,-1,-1],"loss_changes":[3.5426306E2,1.5005864E2,1.4105644E2,1.0600743E2,7.2437836E1,3.3331146E1,9.393685E1,0E0,0E0,0E0,0E0,0E0,0E0,0E0,0E0],"parents":[2147483647,0,0,1,1,2,2,3,3,4,4,5,5,6,6],"right_children":[2,4,6,8,10,12,14,-1,-1,-1,-1,-1,-1,-1,-1],"split_conditions":[2.043081E-4,1.3503037E-1,6.226165E1,5.254258E1,-1.5691372E-3,4.288966E-1,-1.5379262E1,1.42243E-3,-7.8143E-3,-1.2607222E-2,-3.8760405E-3,7.0438366E-3,1.4280782E-2,-1.4497562E-3,7.1466244E-3],"split_indices":[5,24,16,16,5,24,14,0,0,0,0,0,0,0,0],"split_type":[0,0,0,0,0,0,0,0,0,0,0,0,0,0,0],"sum_hessian":[3.4290005E3,1.8188458E3,1.6101547E3,1.111002E3,7.0784393E2,6.2544684E2,9.847078E2,8.285866E2,2.8241537E2,3.8122818E2,3.2661572E2,4.4129993E2,1.8414688E2,6.6655884E2,3.18149E2],"tree_param":{"num_deleted":"0","num_feature":"32","num_nodes":"15","size_leaf_vector":"1"}},{"base_weights":[-5.88104E-4,-3.68288E-1,2.7490216E-1,-8.779355E-2,-7.529494E-1,6.958057E-1,7.189804E-2,1.4611424E-3,-6.8414602E-3,-1.2452757E-2,-5.0604306E-3,6.7223315E-3,1.3503816E-2,-4.3327357E-3,3.993313E-3],"categories":[],"categories_nodes":[],"categories_segments":[],"categories_sizes":[],"default_left":[0,0,0,0,0,0,0,0,0,0,0,0,0,0,0],"id":30,"left_children":[1,3,5,7,9,11,13,-1,-1,-1,-1,-1,-1,-1,-1],"loss_changes":[3.4856436E2,1.5643437E2,1.6485701E2,7.6052864E1,3.816391E1,3.1144287E1,1.2461714E2,0E0,0E0,0E0,0E0,0E0,0E0,0E0,0E0],"parents":[2147483647,0,0,1,1,2,2,3,3,4,4,5,5,6,6],"right_children":[2,4,6,8,10,12,14,-1,-1,-1,-1,-1,-1,-1,-1],"split_conditions":[-3.4560074E-4,1.1678181E-1,5.453242E1,-3.9042377E0,-1.5691372E-3,1.2228824E-3,1.2228824E-3,1.4611424E-3,-6.8414602E-3,-1.2452757E-2,-5.0604306E-3,6.7223315E-3,1.3503816E-2,-4.3327357E-3,3.993313E-3],"split_indices":[5,24,16,12,5,5,5,0,0,0,0,0,0,0,0],"split_type":[0,0,0,0,0,0,0,0,0,0,0,0,0,0,0],"sum_hessian":[3.4279219E3,1.4723961E3,1.9555256E3,8.5982904E2,6.1256714E2,6.272242E2,1.3283015E3,5.8662805E2,2.7320096E2,3.8986746E2,2.2269968E2,4.175602E2,2.0966397E2,4.8057578E2,8.477257E2],"tree_param":{"num_deleted":"0","num_feature":"32","num_nodes":"15","size_leaf_vector":"1"}},{"base_weights":[8.284114E-4,-2.9153466E-1,3.346505E-1,-7.534443E-2,-6.6158146E-1,6.279284E-1,5.046339E-2,1.7988839E-3,-6.3382466E-3,-1.7891496E-3,-1.0011252E-2,5.4357024E-3,1.2386E-2,-2.4886734E-3,6.720144E-3],"categories":[],"categories_nodes":[],"categories_segments":[],"categories_sizes":[],"default_left":[0,0,0,0,0,0,0,0,0,0,0,0,0,0,0],"id":31,"left_children":[1,3,5,7,9,11,13,-1,-1,-1,-1,-1,-1,-1,-1],"loss_changes":[3.360823E2,1.4383293E2,1.3207222E2,1.0213106E2,3.1844604E1,4.6837982E1,9.320724E1,0E0,0E0,0E0,0E0,0E0,0E0,0E0,0E0],"parents":[2147483647,0,0,1,1,2,2,3,3,4,4,5,5,6,6],"right_children":[2,4,6,8,10,12,14,-1,-1,-1,-1,-1,-1,-1,-1],"split_conditions":[2.043081E-4,4.6061893E1,6.753546E1,1.8662888E-1,-4.2126814E-1,1.7911518E-1,-1.5379262E1,1.7988839E-3,-6.3382466E-3,-1.7891496E-3,-1.0011252E-2,5.4357024E-3,1.2386E-2,-2.4886734E-3,6.720144E-3],"split_indices":[5,16,16,24,24,24,14,0,0,0,0,0,0,0,0],"split_type":[0,0,0,0,0,0,0,0,0,0,0,0,0,0,0],"sum_hessian":[3.4320046E3,1.8249401E3,1.6070645E3,1.1611718E3,6.637683E2,7.8241156E2,8.246529E2,7.603027E2,4.0086908E2,1.1319744E2,5.5057086E2,4.7822913E2,3.0418246E2,5.398823E2,2.8477057E2],"tree_param":{"num_deleted":"0","num_feature":"32","num_nodes":"15","size_leaf_vector":"1"}},{"base_weights":[-1.3748399E-3,-3.574325E-1,2.6505387E-1,-1.0596574E-1,-7.588586E-1,6.1422336E-1,3.4474824E-2,1.060289E-3,-7.5941277E-3,-1.2472316E-2,-4.5226207E-3,6.236881E-3,1.4084766E-2,-5.513707E-3,3.4531313E-3],"categories":[],"categories_nodes":[],"categories_segments":[],"categories_sizes":[],"default_left":[0,0,0,0,0,0,0,0,0,0,0,0,0,0,0],"id":32,"left_children":[1,3,5,7,9,11,13,-1,-1,-1,-1,-1,-1,-1,-1],"loss_changes":[3.2534888E2,1.4542763E2,1.5524765E2,8.242803E1,3.8523346E1,4.186731E1,1.23203316E2,0E0,0E0,0E0,0E0,0E0,0E0,0E0,0E0],"parents":[2147483647,0,0,1,1,2,2,3,3,4,4,5,5,6,6],"right_children":[2,4,6,8,10,12,14,-1,-1,-1,-1,-1,-1,-1,-1],"split_conditions":[-3.4560074E-4,1.8662888E-1,5.954573E1,4.5793903E1,-1.4749572E-3,1.9324269E-3,1.1669288E-3,1.060289E-3,-7.5941277E-3,-1.2472316E-2,-4.5226207E-3,6.236881E-3,1.4084766E-2,-5.513707E-3,3.4531313E-3],"split_indices":[5,24,16,16,5,5,5,0,0,0,0,0,0,0,0],"split_type":[0,0,0,0,0,0,0,0,0,0,0,0,0,0,0],"sum_hessian":[3.4164097E3,1.4665548E3,1.9498549E3,9.104669E2,5.560878E2,7.667135E2,1.1831414E3,6.506535E2,2.5981342E2,3.7161282E2,1.8447502E2,6.0056335E2,1.6615018E2,3.8980988E2,7.9333154E2],"tree_param":{"num_deleted":"0","num_feature":"32","num_nodes":"15","size_leaf_vector":"1"}},{"base_weights":[-3.92679E-3,-6.1988186E-2,8.985152E-1,-7.224843E-1,3.548405E-4,-7.9297565E-2,1.1050155E0,-3.3631048E-3,-1.6097672E-2,2.610111E-3,-2.7574399E-3,2.1378486E-3,-5.9423135E-3,1.590374E-2,5.4852013E-3],"categories":[],"categories_nodes":[],"categories_segments":[],"categories_sizes":[],"default_left":[0,0,0,0,0,0,0,0,0,0,0,0,0,0,0],"id":33,"left_children":[1,3,5,7,9,11,13,-1,-1,-1,-1,-1,-1,-1,-1],"loss_changes":[1.7706525E2,1.3507352E2,4.4868988E1,5.996817E1,1.2298347E2,4.681977E0,4.701111E0,0E0,0E0,0E0,0E0,0E0,0E0,0E0,0E0],"parents":[2147483647,0,0,1,1,2,2,3,3,4,4,5,5,6,6],"right_children":[2,4,6,8,10,12,14,-1,-1,-1,-1,-1,-1,-1,-1],"split_conditions":[1.0118324E0,4.2011958E-2,-4.0267053E-1,3.3246902E-1,1.3930575E-4,4.9320958E-3,5.416657E-3,-3.3631048E-3,-1.6097672E-2,2.610111E-3,-2.7574399E-3,2.1378486E-3,-5.9423135E-3,1.590374E-2,5.4852013E-3],"split_indices":[22,22,24,24,26,26,26,0,0,0,0,0,0,0,0],"split_type":[0,0,0,0,0,0,0,0,0,0,0,0,0,0,0],"sum_hessian":[3.4189941E3,3.2200425E3,1.9895163E2,2.7742477E2,2.9426177E3,3.2581696E1,1.6636993E2,1.5105243E2,1.2637233E2,1.5220914E3,1.4205262E3,1.6384136E1,1.6197561E1,1.370064E2,2.9363544E1],"tree_param":{"num_deleted":"0","num_feature":"32","num_nodes":"15","size_leaf_vector":"1"}},{"base_weights":[-1.529075E-3,-3.4917867E-1,2.5923994E-1,-9.6749045E-2,-7.5299716E-1,6.533377E-1,6.431243E-2,1.1177363E-3,-7.3572635E-3,-1.2374391E-2,-4.973803E-3,1.0263926E-2,3.2434121E-3,-6.4591796E-4,1.0753961E-2],"categories":[],"categories_nodes":[],"categories_segments":[],"categories_sizes":[],"default_left":[0,0,0,0,0,0,0,0,0,0,0,0,0,0,0],"id":34,"left_children":[1,3,5,7,9,11,13,-1,-1,-1,-1,-1,-1,-1,-1],"loss_changes":[3.107226E2,1.4709367E2,1.4744762E2,7.891982E1,3.365323E1,2.8989197E1,1.1524894E2,0E0,0E0,0E0,0E0,0E0,0E0,0E0,0E0],"parents":[2147483647,0,0,1,1,2,2,3,3,4,4,5,5,6,6],"right_children":[2,4,6,8,10,12,14,-1,-1,-1,-1,-1,-1,-1,-1],"split_conditions":[-3.4560074E-4,1.8662888E-1,5.4793682E1,4.5793903E1,-1.5691372E-3,9.6432737E-4,1.0118324E0,1.1177363E-3,-7.3572635E-3,-1.2374391E-2,-4.973803E-3,1.0263926E-2,3.2434121E-3,-6.4591796E-4,1.0753961E-2],"split_indices":[5,24,16,16,5,6,22,0,0,0,0,0,0,0,0],"split_type":[0,0,0,0,0,0,0,0,0,0,0,0,0,0,0],"sum_hessian":[3.4141992E3,1.467758E3,1.9464412E3,9.1184595E2,5.559121E2,6.3484546E2,1.3115958E3,6.5288135E2,2.5896454E2,3.5908224E2,1.968299E2,4.7373492E2,1.6111052E2,1.1405394E3,1.710563E2],"tree_param":{"num_deleted":"0","num_feature":"32","num_nodes":"15","size_leaf_vector":"1"}},{"base_weights":[-0E0,-3.4812352E-1,2.6077408E-1,-1.7296883E-1,-8.3365816E-1,6.571817E-1,6.976753E-2,-1.4469573E-2,-1.1894247E-3,-8.0138986E-4,-1.2842858E-2,6.2682256E-3,1.2923206E-2,-3.0055132E-3,4.726804E-3],"categories":[],"categories_nodes":[],"categories_segments":[],"categories_sizes":[],"default_left":[0,0,0,0,0,0,0,0,0,0,0,0,0,0,0],"id":35,"left_children":[1,3,5,7,9,11,13,-1,-1,-1,-1,-1,-1,-1,-1],"loss_changes":[3.125661E2,1.2169035E2,1.4623425E2,7.9656624E1,3.9171112E1,3.0225128E1,1.1648313E2,0E0,0E0,0E0,0E0,0E0,0E0,0E0,0E0],"parents":[2147483647,0,0,1,1,2,2,3,3,4,4,5,5,6,6],"right_children":[2,4,6,8,10,12,14,-1,-1,-1,-1,-1,-1,-1,-1],"split_conditions":[-3.4560074E-4,4.9859684E1,5.453242E1,-1.0886143E-1,-2.9500965E-3,1.2228824E-3,1.8154874E-3,-1.4469573E-2,-1.1894247E-3,-8.0138986E-4,-1.2842858E-2,6.2682256E-3,1.2923206E-2,-3.0055132E-3,4.726804E-3],"split_indices":[5,16,16,22,26,5,5,0,0,0,0,0,0,0,0],"split_type":[0,0,0,0,0,0,0,0,0,0,0,0,0,0,0],"sum_hessian":[3.431178E3,1.4716624E3,1.9595157E3,1.0913383E3,3.8032404E2,6.2777844E2,1.3317373E3,8.083495E1,1.01050336E3,6.4139565E1,3.1618445E2,4.1857367E2,2.0920477E2,6.5135724E2,6.8038E2],"tree_param":{"num_deleted":"0","num_feature":"32","num_nodes":"15","size_leaf_vector":"1"}},{"base_weights":[-0E0,-3.4414065E-1,2.589685E-1,-7.54911E-2,-7.160188E-1,7.597763E-1,1.1567953E-1,1.5108397E-3,-6.4881626E-3,-1.1852857E-2,-4.9005505E-3,6.9844746E-3,1.3733252E-2,-2.9080457E-3,4.386785E-3],"categories":[],"categories_nodes":[],"categories_segments":[],"categories_sizes":[],"default_left":[0,0,0,0,0,0,0,0,0,0,0,0,0,0,0],"id":36,"left_children":[1,3,5,7,9,11,13,-1,-1,-1,-1,-1,-1,-1,-1],"loss_changes":[3.052854E2,1.4437257E2,1.3682608E2,7.041832E1,3.33201E1,2.010817E1,1.1302136E2,0E0,0E0,0E0,0E0,0E0,0E0,0E0,0E0],"parents":[2147483647,0,0,1,1,2,2,3,3,4,4,5,5,6,6],"right_children":[2,4,6,8,10,12,14,-1,-1,-1,-1,-1,-1,-1,-1],"split_conditions":[-3.4560074E-4,1.1678181E-1,4.6842335E1,-3.9042377E0,-1.5691372E-3,7.802408E-4,1.2228824E-3,1.5108397E-3,-6.4881626E-3,-1.1852857E-2,-4.9005505E-3,6.9844746E-3,1.3733252E-2,-2.9080457E-3,4.386785E-3],"split_indices":[5,24,16,12,5,5,5,0,0,0,0,0,0,0,0],"split_type":[0,0,0,0,0,0,0,0,0,0,0,0,0,0,0],"sum_hessian":[3.4138765E3,1.467671E3,1.9462053E3,8.6056165E2,6.0710944E2,4.232143E2,1.5229911E3,5.886471E2,2.7191458E2,3.825235E2,2.2458592E2,2.4921889E2,1.739954E2,5.927488E2,9.302423E2],"tree_param":{"num_deleted":"0","num_feature":"32","num_nodes":"15","size_leaf_vector":"1"}},{"base_weights":[-0E0,-2.3897848E-1,3.4954742E-1,-5.7864238E-2,-6.056283E-1,1.09882824E-1,7.385744E-1,-7.4740215E-3,1.1303339E-3,-5.075058E-3,-1.3290438E-2,5.3451927E-3,-2.72847E-3,1.2801816E-2,6.224059E-3],"categories":[],"categories_nodes":[],"categories_segments":[],"categories_sizes":[],"default_left":[0,0,0,0,0,0,0,0,0,0,0,0,0,0,0],"id":37,"left_children":[1,3,5,7,9,11,13,-1,-1,-1,-1,-1,-1,-1,-1],"loss_changes":[2.8623022E2,1.3260567E2,1.2682591E2,1.0250641E2,5.2844177E1,8.333376E1,2.5880219E1,0E0,0E0,0E0,0E0,0E0,0E0,0E0,0E0],"parents":[2147483647,0,0,1,1,2,2,3,3,4,4,5,5,6,6],"right_children":[2,4,6,8,10,12,14,-1,-1,-1,-1,-1,-1,-1,-1],"split_conditions":[5.646583E-4,5.114784E1,1.7911518E-1,-8.2390335E1,1.8390214E-4,8.790447E-4,6.753546E1,-7.4740215E-3,1.1303339E-3,-5.075058E-3,-1.3290438E-2,5.3451927E-3,-2.72847E-3,1.2801816E-2,6.224059E-3],"split_indices":[5,16,24,14,26,26,16,0,0,0,0,0,0,0,0],"split_type":[0,0,0,0,0,0,0,0,0,0,0,0,0,0,0],"sum_hessian":[3.4141309E3,2.0259149E3,1.388216E3,1.3657411E3,6.601739E2,8.680478E2,5.2016815E2,3.0162833E2,1.0641127E3,4.3983783E2,2.2033606E2,4.5300537E2,4.1504242E2,2.619462E2,2.5822195E2],"tree_param":{"num_deleted":"0","num_feature":"32","num_nodes":"15","size_leaf_vector":"1"}},{"base_weights":[-7.868303E-5,-3.3335558E-1,2.4993515E-1,-7.817689E-2,-6.827628E-1,5.806764E-1,3.05946E-2,2.453893E-3,-5.2066734E-3,-1.1415927E-2,-4.4174134E-3,5.9321634E-3,1.3246461E-2,-4.4709397E-3,3.829693E-3],"categories":[],"categories_nodes":[],"categories_segments":[],"categories_sizes":[],"default_left":[0,0,0,0,0,0,0,0,0,0,0,0,0,0,0],"id":38,"left_children":[1,3,5,7,9,11,13,-1,-1,-1,-1,-1,-1,-1,-1],"loss_changes":[2.8613577E2,1.2893425E2,1.3980785E2,7.380275E1,3.4482697E1,3.583188E1,1.150794E2,0E0,0E0,0E0,0E0,0E0,0E0,0E0,0E0],"parents":[2147483647,0,0,1,1,2,2,3,3,4,4,5,5,6,6],"right_children":[2,4,6,8,10,12,14,-1,-1,-1,-1,-1,-1,-1,-1],"split_conditions":[-3.4560074E-4,1.1678181E-1,5.954573E1,-8.407779E0,-1.5691372E-3,1.9324269E-3,1.5340237E-3,2.453893E-3,-5.2066734E-3,-1.1415927E-2,-4.4174134E-3,5.9321634E-3,1.3246461E-2,-4.4709397E-3,3.829693E-3],"split_indices":[5,24,16,12,5,5,5,0,0,0,0,0,0,0,0],"split_type":[0,0,0,0,0,0,0,0,0,0,0,0,0,0,0],"sum_hessian":[3.420703E3,1.4708665E3,1.9498364E3,8.5885144E2,6.12015E2,7.684257E2,1.1814108E3,4.6429617E2,3.9455527E2,3.8753772E2,2.2447726E2,6.035444E2,1.6488136E2,4.8222476E2,6.991859E2],"tree_param":{"num_deleted":"0","num_feature":"32","num_nodes":"15","size_leaf_vector":"1"}},{"base_weights":[-3.5052997E-4,-6.7939445E-2,6.985806E-1,-6.630472E-1,-8.381453E-3,2.908034E-1,1.0448653E0,-2.6353796E-3,-1.5501275E-2,2.8827537E-3,-3.0694E-3,-0E0,6.3547026E-3,1.4186153E-2,-0E0],"categories":[],"categories_nodes":[],"categories_segments":[],"categories_sizes":[],"default_left":[0,0,0,0,0,0,0,0,0,0,0,0,0,0,0],"id":39,"left_children":[1,3,5,7,9,11,13,-1,-1,-1,-1,-1,-1,-1,-1],"loss_changes":[1.5963142E2,1.08569954E2,3.627368E1,6.1168243E1,1.4639948E2,9.271361E0,3.3693237E0,0E0,0E0,0E0,0E0,0E0,0E0,0E0,0E0],"parents":[2147483647,0,0,1,1,2,2,3,3,4,4,5,5,6,6],"right_children":[2,4,6,8,10,12,14,-1,-1,-1,-1,-1,-1,-1,-1],"split_conditions":[9.4477266E-1,4.2011958E-2,1.4114656E-1,3.3246902E-1,-2.7353286E-5,-4.0267053E-1,6.439514E-3,-2.6353796E-3,-1.5501275E-2,2.8827537E-3,-3.0694E-3,-0E0,6.3547026E-3,1.4186153E-2,-0E0],"split_indices":[22,22,24,24,6,24,27,0,0,0,0,0,0,0,0],"split_type":[0,0,0,0,0,0,0,0,0,0,0,0,0,0,0],"sum_hessian":[3.4109287E3,3.1184531E3,2.9247552E2,2.742103E2,2.844243E3,1.4277792E2,1.496976E2,1.5158464E2,1.2262564E2,1.4072015E3,1.4370413E3,5.4717453E1,8.806047E1,1.4285007E2,6.8475432E0],"tree_param":{"num_deleted":"0","num_feature":"32","num_nodes":"15","size_leaf_vector":"1"}},{"base_weights":[-8.665409E-4,-2.6083025E-1,3.1615517E-1,-7.29548E-2,-6.4618564E-1,6.687983E-1,9.4019696E-2,-1.3388247E-2,1.3833267E-5,-5.0955103E-3,-1.1879291E-2,1.1016698E-2,4.958479E-3,-1.5047552E-3,6.9057816E-3],"categories":[],"categories_nodes":[],"categories_segments":[],"categories_sizes":[],"default_left":[0,0,0,0,0,0,0,0,0,0,0,0,0,0,0],"id":40,"left_children":[1,3,5,7,9,11,13,-1,-1,-1,-1,-1,-1,-1,-1],"loss_changes":[2.817193E2,1.3395589E2,1.1757732E2,9.2669785E1,3.489293E1,2.3572723E1,8.737548E1,0E0,0E0,0E0,0E0,0E0,0E0,0E0,0E0],"parents":[2147483647,0,0,1,1,2,2,3,3,4,4,5,5,6,6],"right_children":[2,4,6,8,10,12,14,-1,-1,-1,-1,-1,-1,-1,-1],"split_conditions":[3.18292E-4,4.9859684E1,6.226165E1,-9.226482E-2,-4.2909247E-4,6.0183115E0,-1.5379262E1,-1.3388247E-2,1.3833267E-5,-5.0955103E-3,-1.1879291E-2,1.1016698E-2,4.958479E-3,-1.5047552E-3,6.9057816E-3],"split_indices":[5,16,16,22,26,13,14,0,0,0,0,0,0,0,0],"split_type":[0,0,0,0,0,0,0,0,0,0,0,0,0,0,0],"sum_hessian":[3.4102725E3,1.8797004E3,1.530572E3,1.2731818E3,6.065186E2,5.82101E2,9.4847107E2,9.077412E1,1.1824076E3,3.1522888E2,2.9128976E2,3.552946E2,2.2680641E2,6.370322E2,3.1143884E2],"tree_param":{"num_deleted":"0","num_feature":"32","num_nodes":"15","size_leaf_vector":"1"}},{"base_weights":[-6.915398E-4,-7.5784415E-2,5.7569957E-1,-5.7532275E-1,-1.2460627E-2,2.8710058E-1,9.895973E-1,-4.912416E-3,-1.3228318E-2,2.990897E-3,-3.0768283E-3,1.5246556E-3,8.67288E-3,-0E0,1.3331955E-2],"categories":[],"categories_nodes":[],"categories_segments":[],"categories_sizes":[],"default_left":[0,0,0,0,0,0,0,0,0,0,0,0,0,0,0],"id":41,"left_children":[1,3,5,7,9,11,13,-1,-1,-1,-1,-1,-1,-1,-1],"loss_changes":[1.4625356E2,9.3850296E1,4.0988937E1,2.2842445E1,1.4376067E2,1.2526339E1,4.603943E0,0E0,0E0,0E0,0E0,0E0,0E0,0E0,0E0],"parents":[2147483647,0,0,1,1,2,2,3,3,4,4,5,5,6,6],"right_children":[2,4,6,8,10,12,14,-1,-1,-1,-1,-1,-1,-1,-1],"split_conditions":[-1.5379262E1,-8.2390335E1,3.4436005E-1,7.4442464E-1,5.048872E1,-6.585366E0,5.057631E1,-4.912416E-3,-1.3228318E-2,2.990897E-3,-3.0768283E-3,1.5246556E-3,8.67288E-3,-0E0,1.3331955E-2],"split_indices":[14,14,24,24,16,14,9,0,0,0,0,0,0,0,0],"split_type":[0,0,0,0,0,0,0,0,0,0,0,0,0,0,0],"sum_hessian":[3.4051133E3,3.0213584E3,3.8375504E2,3.297014E2,2.691657E3,2.3565088E2,1.4810414E2,2.3611424E2,9.358714E1,1.2853655E3,1.4062914E3,1.718704E2,6.378048E1,2.9204311E0,1.4518372E2],"tree_param":{"num_deleted":"0","num_feature":"32","num_nodes":"15","size_leaf_vector":"1"}},{"base_weights":[-0E0,-3.3015236E-1,2.493873E-1,-1.6364768E-1,-7.9294425E-1,5.849696E-1,2.6113432E-2,-1.3060499E-2,-1.0496157E-3,-1.3014998E-3,-1.2107829E-2,9.783883E-3,3.4354383E-3,-5.091036E-3,3.2419637E-3],"categories":[],"categories_nodes":[],"categories_segments":[],"categories_sizes":[],"default_left":[0,0,0,0,0,0,0,0,0,0,0,0,0,0,0],"id":42,"left_children":[1,3,5,7,9,11,13,-1,-1,-1,-1,-1,-1,-1,-1],"loss_changes":[2.814236E2,1.0965756E2,1.4391882E2,7.223481E1,3.0409271E1,3.5690033E1,1.0768616E2,0E0,0E0,0E0,0E0,0E0,0E0,0E0,0E0],"parents":[2147483647,0,0,1,1,2,2,3,3,4,4,5,5,6,6],"right_children":[2,4,6,8,10,12,14,-1,-1,-1,-1,-1,-1,-1,-1],"split_conditions":[-3.4560074E-4,4.9859684E1,5.954573E1,-9.226482E-2,-2.9500965E-3,7.698948E0,1.2228824E-3,-1.3060499E-2,-1.0496157E-3,-1.3014998E-3,-1.2107829E-2,9.783883E-3,3.4354383E-3,-5.091036E-3,3.2419637E-3],"split_indices":[5,16,16,22,26,12,5,0,0,0,0,0,0,0,0],"split_type":[0,0,0,0,0,0,0,0,0,0,0,0,0,0,0],"sum_hessian":[3.4079563E3,1.4655735E3,1.9423828E3,1.0878575E3,3.77716E2,7.6710315E2,1.1752797E3,9.123421E1,9.9662335E2,6.416843E1,3.1354758E2,5.0293695E2,2.641662E2,4.0254236E2,7.7273737E2],"tree_param":{"num_deleted":"0","num_feature":"32","num_nodes":"15","size_leaf_vector":"1"}},{"base_weights":[-2.4964585E-4,-2.907482E-1,2.6122773E-1,-4.685271E-2,-6.559607E-1,5.889444E-1,3.239042E-2,1.780222E-3,-6.0107675E-3,-1.1192055E-2,-4.6925084E-3,1.1621333E-2,5.3454917E-3,-2.1313608E-3,6.4653973E-3],"categories":[],"categories_nodes":[],"categories_segments":[],"categories_sizes":[],"default_left":[0,0,0,0,0,0,0,0,0,0,0,0,0,0,0],"id":43,"left_children":[1,3,5,7,9,11,13,-1,-1,-1,-1,-1,-1,-1,-1],"loss_changes":[2.601278E2,1.4259134E2,1.326377E2,7.514187E1,3.2431E1,3.3527466E1,9.697982E1,0E0,0E0,0E0,0E0,0E0,0E0,0E0,0E0],"parents":[2147483647,0,0,1,1,2,2,3,3,4,4,5,5,6,6],"right_children":[2,4,6,8,10,12,14,-1,-1,-1,-1,-1,-1,-1,-1],"split_conditions":[-8.904042E-5,1.3503037E-1,6.1639652E1,4.5793903E1,-1.5691372E-3,-2.1358695E0,-1.5379262E1,1.780222E-3,-6.0107675E-3,-1.1192055E-2,-4.6925084E-3,1.1621333E-2,5.3454917E-3,-2.1313608E-3,6.4653973E-3],"split_indices":[5,24,16,16,5,13,14,0,0,0,0,0,0,0,0],"split_type":[0,0,0,0,0,0,0,0,0,0,0,0,0,0,0],"sum_hessian":[3.4131985E3,1.6222969E3,1.7909016E3,9.8130756E2,6.4098926E2,7.274229E2,1.0634786E3,6.765776E2,3.0472998E2,3.7541367E2,2.6557562E2,2.635356E2,4.638873E2,7.446581E2,3.188206E2],"tree_param":{"num_deleted":"0","num_feature":"32","num_nodes":"15","size_leaf_vector":"1"}},{"base_weights":[-6.103929E-4,-3.295604E-1,2.4543734E-1,-2.2297358E-2,-5.6932503E-1,6.168945E-1,6.52011E-2,-1.2198052E-2,1.1820237E-3,-4.9846605E-3,-1.2447508E-2,9.7819455E-3,2.739538E-3,-5.570161E-4,1.02185365E-2],"categories":[],"categories_nodes":[],"categories_segments":[],"categories_sizes":[],"default_left":[0,0,0,0,0,0,0,0,0,0,0,0,0,0,0],"id":44,"left_children":[1,3,5,7,9,11,13,-1,-1,-1,-1,-1,-1,-1,-1],"loss_changes":[2.7714624E2,1.06321625E2,1.2831238E2,6.965317E1,5.283142E1,2.9061325E1,1.04045654E2,0E0,0E0,0E0,0E0,0E0,0E0,0E0,0E0],"parents":[2147483647,0,0,1,1,2,2,3,3,4,4,5,5,6,6],"right_children":[2,4,6,8,10,12,14,-1,-1,-1,-1,-1,-1,-1,-1],"split_conditions":[-3.4560074E-4,-1.0325026E-3,5.453242E1,-9.226482E-2,4.156304E1,9.6432737E-4,1.0118324E0,-1.2198052E-2,1.1820237E-3,-4.9846605E-3,-1.2447508E-2,9.7819455E-3,2.739538E-3,-5.570161E-4,1.02185365E-2],"split_indices":[5,6,16,22,15,6,22,0,0,0,0,0,0,0,0],"split_type":[0,0,0,0,0,0,0,0,0,0,0,0,0,0,0],"sum_hessian":[3.4107698E3,1.4642335E3,1.9465361E3,6.499631E2,8.142705E2,6.26203E2,1.3203331E3,7.0666756E1,5.792963E2,5.540379E2,2.6023257E2,4.6828525E2,1.5791772E2,1.1474026E3,1.729305E2],"tree_param":{"num_deleted":"0","num_feature":"32","num_nodes":"15","size_leaf_vector":"1"}},{"base_weights":[-0E0,-5.0791323E-2,8.2074535E-1,1.2095192E-1,-2.5388053E-1,1.0350671E0,-0E0,-1.3037468E-2,2.3143431E-3,-7.1514345E-4,-5.8589634E-3,-0E0,1.3749788E-2,-3.9053636E-3,7.4366117E-3],"categories":[],"categories_nodes":[],"categories_segments":[],"categories_sizes":[],"default_left":[0,0,0,0,0,0,0,0,0,0,0,0,0,0,0],"id":45,"left_children":[1,3,5,7,9,11,13,-1,-1,-1,-1,-1,-1,-1,-1],"loss_changes":[1.4317014E2,1.1293288E2,3.248317E1,1.05126175E2,5.518815E1,1.2770844E0,9.818149E0,0E0,0E0,0E0,0E0,0E0,0E0,0E0,0E0],"parents":[2147483647,0,0,1,1,2,2,3,3,4,4,5,5,6,6],"right_children":[2,4,6,8,10,12,14,-1,-1,-1,-1,-1,-1,-1,-1],"split_conditions":[1.0118324E0,1.3930575E-4,5.416657E-3,-1.0886143E-1,-1.8793297E-1,-8.647697E-3,1.1586939E0,-1.3037468E-2,2.3143431E-3,-7.1514345E-4,-5.8589634E-3,-0E0,1.3749788E-2,-3.9053636E-3,7.4366117E-3],"split_indices":[22,26,26,22,18,7,22,0,0,0,0,0,0,0,0],"split_type":[0,0,0,0,0,0,0,0,0,0,0,0,0,0,0],"sum_hessian":[3.4114001E3,3.2162852E3,1.9511497E2,1.7353539E3,1.4809312E3,1.5111046E2,4.4004517E1,7.514714E1,1.6602068E3,7.3739606E2,7.4353516E2,2.1323206E0,1.4897813E2,2.7376423E1,1.6628094E1],"tree_param":{"num_deleted":"0","num_feature":"32","num_nodes":"15","size_leaf_vector":"1"}},{"base_weights":[8.836959E-5,-2.4772583E-1,3.0684286E-1,-1.1266973E-2,-4.3749017E-1,6.61147E-1,1.4118604E-1,-7.7851694E-3,1.7075829E-3,-3.387668E-3,-1.0271399E-2,1.12915635E-2,5.2525583E-3,3.6119163E-4,1.1716382E-2],"categories":[],"categories_nodes":[],"categories_segments":[],"categories_sizes":[],"default_left":[0,0,0,0,0,0,0,0,0,0,0,0,0,0,0],"id":46,"left_children":[1,3,5,7,9,11,13,-1,-1,-1,-1,-1,-1,-1,-1],"loss_changes":[2.5952573E2,8.298547E1,8.6812195E1,7.16015E1,5.9783066E1,1.9151901E1,8.700213E1,0E0,0E0,0E0,0E0,0E0,0E0,0E0,0E0],"parents":[2147483647,0,0,1,1,2,2,3,3,4,4,5,5,6,6],"right_children":[2,4,6,8,10,12,14,-1,-1,-1,-1,-1,-1,-1,-1],"split_conditions":[3.18292E-4,-1.5399526E0,6.2342815E1,2.6752532E-2,4.571443E1,1.743291E0,1.0547814E0,-7.7851694E-3,1.7075829E-3,-3.387668E-3,-1.0271399E-2,1.12915635E-2,5.2525583E-3,3.6119163E-4,1.1716382E-2],"split_indices":[5,18,15,22,15,18,22,0,0,0,0,0,0,0,0],"split_type":[0,0,0,0,0,0,0,0,0,0,0,0,0,0,0],"sum_hessian":[3.401383E3,1.8763162E3,1.525067E3,8.451531E2,1.0311631E3,4.749861E2,1.0500808E3,1.6638797E2,6.787651E2,6.8915314E2,3.4200992E2,2.568619E2,2.181242E2,9.201011E2,1.2997975E2],"tree_param":{"num_deleted":"0","num_feature":"32","num_nodes":"15","size_leaf_vector":"1"}},{"base_weights":[2.7031144E-3,-3.1374618E-1,2.4270527E-1,5.2307602E-2,-4.7321317E-1,5.5264974E-1,6.400767E-2,-1.0039833E-2,2.2501242E-3,-0E0,-7.41965E-3,9.196636E-3,2.5527924E-3,-2.879923E-4,1.1395545E-2],"categories":[],"categories_nodes":[],"categories_segments":[],"categories_sizes":[],"default_left":[0,0,0,0,0,0,0,0,0,0,0,0,0,0,0],"id":47,"left_children":[1,3,5,7,9,11,13,-1,-1,-1,-1,-1,-1,-1,-1],"loss_changes":[2.5898724E2,8.70488E1,1.0569379E2,4.184826E1,4.4886063E1,3.3653275E1,8.878442E1,0E0,0E0,0E0,0E0,0E0,0E0,0E0,0E0],"parents":[2147483647,0,0,1,1,2,2,3,3,4,4,5,5,6,6],"right_children":[2,4,6,8,10,12,14,-1,-1,-1,-1,-1,-1,-1,-1],"split_conditions":[-3.4560074E-4,-1.6897649E-3,-1.2562814E-4,-1.0886143E-1,-2.8056514E-3,1.7233376E-3,1.0547814E0,-1.0039833E-2,2.2501242E-3,-0E0,-7.41965E-3,9.196636E-3,2.5527924E-3,-2.879923E-4,1.1395545E-2],"split_indices":[5,26,26,22,27,27,22,0,0,0,0,0,0,0,0],"split_type":[0,0,0,0,0,0,0,0,0,0,0,0,0,0,0],"sum_hessian":[3.4027927E3,1.4613296E3,1.941463E3,4.3848932E2,1.0228403E3,6.9967255E2,1.2417905E3,4.8883583E1,3.896057E2,1.6482742E2,8.580129E2,4.864313E2,2.1324121E2,1.1227013E3,1.1908924E2],"tree_param":{"num_deleted":"0","num_feature":"32","num_nodes":"15","size_leaf_vector":"1"}},{"base_weights":[1.0982458E-3,-2.1765624E-1,3.2185054E-1,-4.449218E-2,-5.2975756E-1,8.365579E-2,7.0652807E-1,1.168441E-3,-7.7756247E-3,-3.8289453E-3,-1.1243101E-2,5.079834E-3,-2.9746962E-3,6.5590553E-3,1.2961005E-2],"categories":[],"categories_nodes":[],"categories_segments":[],"categories_sizes":[],"default_left":[0,0,0,0,0,0,0,0,0,0,0,0,0,0,0],"id":48,"left_children":[1,3,5,7,9,11,13,-1,-1,-1,-1,-1,-1,-1,-1],"loss_changes":[2.401324E2,1.0757478E2,1.2472429E2,9.7831215E1,5.073181E1,8.264773E1,2.3369476E1,0E0,0E0,0E0,0E0,0E0,0E0,0E0,0E0],"parents":[2147483647,0,0,1,1,2,2,3,3,4,4,5,5,6,6],"right_children":[2,4,6,8,10,12,14,-1,-1,-1,-1,-1,-1,-1,-1],"split_conditions":[5.646583E-4,-2.7353286E-5,1.7911518E-1,6.52403E-1,4.571443E1,7.9773867E-4,3.1633654E-3,1.168441E-3,-7.7756247E-3,-3.8289453E-3,-1.1243101E-2,5.079834E-3,-2.9746962E-3,6.5590553E-3,1.2961005E-2],"split_indices":[5,6,24,24,15,26,5,0,0,0,0,0,0,0,0],"split_type":[0,0,0,0,0,0,0,0,0,0,0,0,0,0,0],"sum_hessian":[3.4075156E3,2.0210111E3,1.3865045E3,1.3100405E3,7.109705E2,8.6515735E2,5.2134717E2,1.0520541E3,2.5798648E2,4.216119E2,2.8935864E2,4.4211212E2,4.230452E2,3.138732E2,2.07474E2],"tree_param":{"num_deleted":"0","num_feature":"32","num_nodes":"15","size_leaf_vector":"1"}},{"base_weights":[2.7483213E-3,-6.0902912E-2,5.967915E-1,1.0758105E-1,-2.6181078E-1,3.2855546E-1,9.556368E-1,-5.3580827E-3,2.5622924E-3,-1.5342388E-3,-7.442429E-3,1.0240576E-2,1.9699805E-3,1.2891093E-2,-0E0],"categories":[],"categories_nodes":[],"categories_segments":[],"categories_sizes":[],"default_left":[0,0,0,0,0,0,0,0,0,0,0,0,0,0,0],"id":49,"left_children":[1,3,5,7,9,11,13,-1,-1,-1,-1,-1,-1,-1,-1],"loss_changes":[1.3088632E2,1.0494333E2,2.6657135E1,7.49744E1,6.0043015E1,1.2968712E1,4.5370483E0,0E0,0E0,0E0,0E0,0E0,0E0,0E0,0E0],"parents":[2147483647,0,0,1,1,2,2,3,3,4,4,5,5,6,6],"right_children":[2,4,6,8,10,12,14,-1,-1,-1,-1,-1,-1,-1,-1],"split_conditions":[-1.3992466E1,1.3930575E-4,3.4436005E-1,-8.2390335E1,6.3143513E1,-2.9004813E-4,5.6442528E1,-5.3580827E-3,2.5622924E-3,-1.5342388E-3,-7.442429E-3,1.0240576E-2,1.9699805E-3,1.2891093E-2,-0E0],"split_indices":[14,26,24,14,16,26,11,0,0,0,0,0,0,0,0],"split_type":[0,0,0,0,0,0,0,0,0,0,0,0,0,0,0],"sum_hessian":[3.4070137E3,3.076628E3,3.3038562E2,1.6661166E3,1.4105114E3,1.9965002E2,1.307356E2,2.3364833E2,1.4324683E3,9.670625E2,4.4344888E2,4.6836258E1,1.5281377E2,1.2856146E2,2.1741407E0],"tree_param":{"num_deleted":"0","num_feature":"32","num_nodes":"15","size_leaf_vector":"1"}},{"base_weights":[4.4701458E-4,-2.1667647E-1,3.2049474E-1,-4.615572E-2,-5.2590346E-1,4.9770525E-1,-2.9080672E-2,-1.36208935E-2,3.1062213E-4,-3.6991234E-3,-1.07473135E-2,1.0994504E-2,4.265797E-3,7.294966E-3,-2.6217925E-3],"categories":[],"categories_nodes":[],"categories_segments":[],"categories_sizes":[],"default_left":[0,0,0,0,0,0,0,0,0,0,0,0,0,0,0],"id":50,"left_children":[1,3,5,7,9,11,13,-1,-1,-1,-1,-1,-1,-1,-1],"loss_changes":[2.3733385E2,1.0492124E2,8.73105E1,9.4402336E1,4.6248383E1,4.923044E1,4.5686543E1,0E0,0E0,0E0,0E0,0E0,0E0,0E0,0E0],"parents":[2147483647,0,0,1,1,2,2,3,3,4,4,5,5,6,6],"right_children":[2,4,6,8,10,12,14,-1,-1,-1,-1,-1,-1,-1,-1],"split_conditions":[5.646583E-4,-2.7353286E-5,1.6685792E-3,-1.0886143E-1,-1.7939658E-4,1.9052686E-4,6.1122887E1,-1.36208935E-2,3.1062213E-4,-3.6991234E-3,-1.07473135E-2,1.0994504E-2,4.265797E-3,7.294966E-3,-2.6217925E-3],"split_indices":[5,6,26,22,26,6,15,0,0,0,0,0,0,0,0],"split_type":[0,0,0,0,0,0,0,0,0,0,0,0,0,0,0],"sum_hessian":[3.4005085E3,2.0211566E3,1.3793518E3,1.31308E3,7.080768E2,9.19876E2,4.594759E2,8.478057E1,1.2282993E3,3.9661197E2,3.1146478E2,2.9835184E2,6.215241E2,9.700859E1,3.624673E2],"tree_param":{"num_deleted":"0","num_feature":"32","num_nodes":"15","size_leaf_vector":"1"}},{"base_weights":[2.2634564E-3,-4.65595E-2,8.080827E-1,1.2524876E-1,-2.4925958E-1,1.0176996E0,8.54016E-3,-1.1346482E-2,2.3694583E-3,-6.379069E-4,-5.7044867E-3,-0E0,1.34779755E-2,-4.8096827E-3,6.4562494E-3],"categories":[],"categories_nodes":[],"categories_segments":[],"categories_sizes":[],"default_left":[0,0,0,0,0,0,0,0,0,0,0,0,0,0,0],"id":51,"left_children":[1,3,5,7,9,11,13,-1,-1,-1,-1,-1,-1,-1,-1],"loss_changes":[1.3636142E2,1.12240456E2,2.9948166E1,9.281319E1,5.3319557E1,1.1826019E0,1.0240316E1,0E0,0E0,0E0,0E0,0E0,0E0,0E0,0E0],"parents":[2147483647,0,0,1,1,2,2,3,3,4,4,5,5,6,6],"right_children":[2,4,6,8,10,12,14,-1,-1,-1,-1,-1,-1,-1,-1],"split_conditions":[1.0118324E0,1.3930575E-4,5.416657E-3,-9.226482E-2,-2.7314088E-1,-4.0496895E1,-1.066771E1,-1.1346482E-2,2.3694583E-3,-6.379069E-4,-5.7044867E-3,-0E0,1.34779755E-2,-4.8096827E-3,6.4562494E-3],"split_indices":[22,26,26,22,18,14,14,0,0,0,0,0,0,0,0],"split_type":[0,0,0,0,0,0,0,0,0,0,0,0,0,0,0],"sum_hessian":[3.3952134E3,3.2020957E3,1.931177E2,1.7257704E3,1.4763253E3,1.4878996E2,4.4327747E1,8.4059105E1,1.6417112E3,7.1885754E2,7.574677E2,1.2054895E0,1.4758447E2,2.1986917E1,2.2340832E1],"tree_param":{"num_deleted":"0","num_feature":"32","num_nodes":"15","size_leaf_vector":"1"}},{"base_weights":[-3.8294387E-3,-3.075178E-1,2.2366565E-1,-1.4752366E-1,-7.5413555E-1,6.114214E-1,3.733234E-2,1.2962143E-3,-4.9311076E-3,-4.2841342E-4,-1.1680724E-2,1.22191645E-2,5.7448233E-3,-1.6460943E-3,6.6591897E-3],"categories":[],"categories_nodes":[],"categories_segments":[],"categories_sizes":[],"default_left":[0,0,0,0,0,0,0,0,0,0,0,0,0,0,0],"id":52,"left_children":[1,3,5,7,9,11,13,-1,-1,-1,-1,-1,-1,-1,-1],"loss_changes":[2.3619182E2,1.015282E2,1.3848317E2,6.2288803E1,3.3950104E1,2.8368256E1,1.0267278E2,0E0,0E0,0E0,0E0,0E0,0E0,0E0,0E0],"parents":[2147483647,0,0,1,1,2,2,3,3,4,4,5,5,6,6],"right_children":[2,4,6,8,10,12,14,-1,-1,-1,-1,-1,-1,-1,-1],"split_conditions":[-3.4560074E-4,4.9859684E1,5.453242E1,-5.874056E-4,-2.9500965E-3,-1.2562814E-4,-1.5379262E1,1.2962143E-3,-4.9311076E-3,-4.2841342E-4,-1.1680724E-2,1.22191645E-2,5.7448233E-3,-1.6460943E-3,6.6591897E-3],"split_indices":[5,16,16,26,26,26,14,0,0,0,0,0,0,0,0],"split_type":[0,0,0,0,0,0,0,0,0,0,0,0,0,0,0],"sum_hessian":[3.4047646E3,1.4633435E3,1.9414213E3,1.0875493E3,3.7579416E2,6.208897E2,1.3205315E3,5.1731586E2,5.7023346E2,6.375048E1,3.1204367E2,2.055306E2,4.1535913E2,9.7858514E2,3.4194635E2],"tree_param":{"num_deleted":"0","num_feature":"32","num_nodes":"15","size_leaf_vector":"1"}},{"base_weights":[-4.0750564E-3,-3.073945E-1,2.1879333E-1,-1.4607108E-1,-7.5741893E-1,5.381901E-1,2.7441138E-3,1.5492775E-3,-5.178766E-3,-6.073247E-4,-1.1657633E-2,9.09663E-3,2.9098513E-3,-5.2155764E-3,2.803009E-3],"categories":[],"categories_nodes":[],"categories_segments":[],"categories_sizes":[],"default_left":[0,0,0,0,0,0,0,0,0,0,0,0,0,0,0],"id":53,"left_children":[1,3,5,7,9,11,13,-1,-1,-1,-1,-1,-1,-1,-1],"loss_changes":[2.3083173E2,1.0190181E2,1.335477E2,7.1736336E1,3.1543945E1,3.463008E1,9.9132805E1,0E0,0E0,0E0,0E0,0E0,0E0,0E0,0E0],"parents":[2147483647,0,0,1,1,2,2,3,3,4,4,5,5,6,6],"right_children":[2,4,6,8,10,12,14,-1,-1,-1,-1,-1,-1,-1,-1],"split_conditions":[-3.6914766E-4,4.9859684E1,5.954573E1,-5.874056E-4,-2.9500965E-3,7.698948E0,1.1933433E-3,1.5492775E-3,-5.178766E-3,-6.073247E-4,-1.1657633E-2,9.09663E-3,2.9098513E-3,-5.2155764E-3,2.803009E-3],"split_indices":[5,16,16,26,26,12,5,0,0,0,0,0,0,0,0],"split_type":[0,0,0,0,0,0,0,0,0,0,0,0,0,0,0],"sum_hessian":[3.400389E3,1.4454019E3,1.9549872E3,1.0740879E3,3.7131406E2,7.798948E2,1.1750923E3,5.1542395E2,5.586639E2,6.2024452E1,3.092896E2,5.141153E2,2.6577948E2,3.9877924E2,7.763131E2],"tree_param":{"num_deleted":"0","num_feature":"32","num_nodes":"15","size_leaf_vector":"1"}},{"base_weights":[2.397422E-3,-2.1032901E-1,3.178677E-1,-3.3268E-2,-4.9571592E-1,8.888365E-2,6.9222623E-1,3.1622874E-3,-3.8218556E-3,-1.0608143E-2,-2.2630286E-3,5.036213E-3,-2.72128E-3,6.37369E-3,1.2486858E-2],"categories":[],"categories_nodes":[],"categories_segments":[],"categories_sizes":[],"default_left":[0,0,0,0,0,0,0,0,0,0,0,0,0,0,0],"id":54,"left_children":[1,3,5,7,9,11,13,-1,-1,-1,-1,-1,-1,-1,-1],"loss_changes":[2.2894637E2,1.0076341E2,1.1534685E2,8.967584E1,7.375166E1,7.638081E1,2.0776794E1,0E0,0E0,0E0,0E0,0E0,0E0,0E0,0E0],"parents":[2147483647,0,0,1,1,2,2,3,3,4,4,5,5,6,6],"right_children":[2,4,6,8,10,12,14,-1,-1,-1,-1,-1,-1,-1,-1],"split_conditions":[5.646583E-4,1.3503037E-1,1.7911518E-1,-4.2909247E-4,-1.4749572E-3,7.9773867E-4,8.98658E-1,3.1622874E-3,-3.8218556E-3,-1.0608143E-2,-2.2630286E-3,5.036213E-3,-2.72128E-3,6.37369E-3,1.2486858E-2],"split_indices":[5,24,24,26,5,26,24,0,0,0,0,0,0,0,0],"split_type":[0,0,0,0,0,0,0,0,0,0,0,0,0,0,0],"sum_hessian":[3.396377E3,2.0235778E3,1.3727991E3,1.2590969E3,7.6448083E2,8.6090155E2,5.1189758E2,6.044229E2,6.54674E2,3.8070514E2,3.837757E2,4.36215E2,4.2468652E2,2.986633E2,2.1323428E2],"tree_param":{"num_deleted":"0","num_feature":"32","num_nodes":"15","size_leaf_vector":"1"}},{"base_weights":[-5.7364996E-3,-2.1665639E-1,3.0121148E-1,-8.2022855E-3,-5.275789E-1,1.3794172E-1,8.196816E-1,-7.0168157E-3,1.4803115E-3,-1.1173587E-2,-4.8597436E-3,1.0838945E-2,4.1651676E-4,5.718751E-3,1.3402838E-2],"categories":[],"categories_nodes":[],"categories_segments":[],"categories_sizes":[],"default_left":[0,0,0,0,0,0,0,0,0,0,0,0,0,0,0],"id":55,"left_children":[1,3,5,7,9,11,13,-1,-1,-1,-1,-1,-1,-1,-1],"loss_changes":[2.2005139E2,1.2941174E2,1.13230095E2,7.9270485E1,3.5589554E1,7.4536545E1,1.8166565E1,0E0,0E0,0E0,0E0,0E0,0E0,0E0,0E0],"parents":[2147483647,0,0,1,1,2,2,3,3,4,4,5,5,6,6],"right_children":[2,4,6,8,10,12,14,-1,-1,-1,-1,-1,-1,-1,-1],"split_conditions":[5.646583E-4,4.6061893E1,5.437355E-1,4.2011958E-2,-1.2326577E-3,4.6061893E1,1.9324269E-3,-7.0168157E-3,1.4803115E-3,-1.1173587E-2,-4.8597436E-3,1.0838945E-2,4.1651676E-4,5.718751E-3,1.3402838E-2],"split_indices":[5,16,24,22,5,16,5,0,0,0,0,0,0,0,0],"split_type":[0,0,0,0,0,0,0,0,0,0,0,0,0,0,0],"sum_hessian":[3.3928203E3,2.0179319E3,1.3748884E3,1.2172034E3,8.0072845E2,1.0551244E3,3.1976395E2,2.2910849E2,9.88095E2,2.4917705E2,5.515514E2,1.3279826E2,9.223262E2,1.20339455E2,1.994245E2],"tree_param":{"num_deleted":"0","num_feature":"32","num_nodes":"15","size_leaf_vector":"1"}},{"base_weights":[-0E0,-2.2835861E-1,2.795927E-1,-3.566549E-2,-5.277508E-1,7.713394E-2,6.281908E-1,3.0182044E-3,-3.9700367E-3,-1.05126E-2,-2.689609E-3,4.371851E-3,-3.3210428E-3,2.548718E-3,1.0042872E-2],"categories":[],"categories_nodes":[],"categories_segments":[],"categories_sizes":[],"default_left":[0,0,0,0,0,0,0,0,0,0,0,0,0,0,0],"id":56,"left_children":[1,3,5,7,9,11,13,-1,-1,-1,-1,-1,-1,-1,-1],"loss_changes":[2.1776114E2,1.06561386E2,1.05652245E2,8.223881E1,6.012468E1,8.331287E1,2.9080826E1,0E0,0E0,0E0,0E0,0E0,0E0,0E0,0E0],"parents":[2147483647,0,0,1,1,2,2,3,3,4,4,5,5,6,6],"right_children":[2,4,6,8,10,12,14,-1,-1,-1,-1,-1,-1,-1,-1],"split_conditions":[3.18292E-4,1.3503037E-1,1.7911518E-1,-4.2909247E-4,-1.4749572E-3,1.0064375E-3,1.1669288E-3,3.0182044E-3,-3.9700367E-3,-1.05126E-2,-2.689609E-3,4.371851E-3,-3.3210428E-3,2.548718E-3,1.0042872E-2],"split_indices":[5,24,24,26,5,26,5,0,0,0,0,0,0,0,0],"split_type":[0,0,0,0,0,0,0,0,0,0,0,0,0,0,0],"sum_hessian":[3.4011914E3,1.8743857E3,1.5268057E3,1.1502559E3,7.241299E2,9.7548975E2,5.51316E2,5.707471E2,5.795088E2,3.8372665E2,3.4040323E2,5.550171E2,4.2047266E2,1.3988919E2,4.1142676E2],"tree_param":{"num_deleted":"0","num_feature":"32","num_nodes":"15","size_leaf_vector":"1"}},{"base_weights":[-4.7617294E-3,-3.1894103E-1,1.8557833E-1,-4.9374238E-2,-6.846916E-1,5.063314E-1,8.761549E-3,4.1276044E-3,-3.978378E-3,-4.0161004E-3,-1.1558706E-2,4.6315985E-3,1.1402769E-2,-3.7167207E-3,3.4016932E-3],"categories":[],"categories_nodes":[],"categories_segments":[],"categories_sizes":[],"default_left":[0,0,0,0,0,0,0,0,0,0,0,0,0,0,0],"id":57,"left_children":[1,3,5,7,9,11,13,-1,-1,-1,-1,-1,-1,-1,-1],"loss_changes":[2.0378665E2,1.2462819E2,1.1811619E2,6.973875E1,3.4905685E1,3.5981567E1,1.0037634E2,0E0,0E0,0E0,0E0,0E0,0E0,0E0,0E0],"parents":[2147483647,0,0,1,1,2,2,3,3,4,4,5,5,6,6],"right_children":[2,4,6,8,10,12,14,-1,-1,-1,-1,-1,-1,-1,-1],"split_conditions":[-6.4440584E-4,1.1678181E-1,5.4793682E1,-1.3334013E-3,-1.3513453E-3,1.2228824E-3,1.5340237E-3,4.1276044E-3,-3.978378E-3,-4.0161004E-3,-1.1558706E-2,4.6315985E-3,1.1402769E-2,-3.7167207E-3,3.4016932E-3],"split_indices":[5,24,16,26,6,5,5,0,0,0,0,0,0,0,0],"split_type":[0,0,0,0,0,0,0,0,0,0,0,0,0,0,0],"sum_hessian":[3.3906218E3,1.2841147E3,2.106507E3,7.475326E2,5.365821E2,7.3888416E2,1.367623E3,3.0144437E2,4.4608826E2,1.9202039E2,3.445617E2,5.312688E2,2.0761534E2,6.253142E2,7.423088E2],"tree_param":{"num_deleted":"0","num_feature":"32","num_nodes":"15","size_leaf_vector":"1"}},{"base_weights":[2.147429E-3,-2.6063687E-1,2.4177471E-1,-9.3706995E-2,-6.833681E-1,5.5792165E-1,3.457987E-2,-1.0354507E-2,-2.1272068E-4,-5.4669776E-3,-1.1664931E-2,5.4788925E-3,1.2096507E-2,-1.7106958E-3,6.4551495E-3],"categories":[],"categories_nodes":[],"categories_segments":[],"categories_sizes":[],"default_left":[0,0,0,0,0,0,0,0,0,0,0,0,0,0,0],"id":58,"left_children":[1,3,5,7,9,11,13,-1,-1,-1,-1,-1,-1,-1,-1],"loss_changes":[2.140209E2,1.1121507E2,1.1492684E2,6.0323673E1,1.865564E1,2.9639389E1,8.3399414E1,0E0,0E0,0E0,0E0,0E0,0E0,0E0,0E0],"parents":[2147483647,0,0,1,1,2,2,3,3,4,4,5,5,6,6],"right_children":[2,4,6,8,10,12,14,-1,-1,-1,-1,-1,-1,-1,-1],"split_conditions":[-8.904042E-5,5.017838E1,6.084654E1,-9.030521E1,-5.3434563E0,1.9324269E-3,-1.4398783E1,-1.0354507E-2,-2.1272068E-4,-5.4669776E-3,-1.1664931E-2,5.4788925E-3,1.2096507E-2,-1.7106958E-3,6.4551495E-3],"split_indices":[5,16,16,14,13,5,14,0,0,0,0,0,0,0,0],"split_type":[0,0,0,0,0,0,0,0,0,0,0,0,0,0,0],"sum_hessian":[3.3895266E3,1.6101791E3,1.7793475E3,1.1641315E3,4.4604773E2,6.950417E2,1.0843058E3,1.08195564E2,1.0559358E3,2.0647565E2,2.3957207E2,5.14451E2,1.8059071E2,7.9441406E2,2.8989175E2],"tree_param":{"num_deleted":"0","num_feature":"32","num_nodes":"15","size_leaf_vector":"1"}},{"base_weights":[-0E0,-2.8109396E-1,2.1258932E-1,-3.0888375E-2,-5.630357E-1,5.136156E-1,-1.3751846E-3,-1.126278E-2,6.6410884E-4,-2.820721E-3,-1.0003312E-2,5.0786906E-3,1.2040443E-2,-1.5456247E-3,9.048804E-3],"categories":[],"categories_nodes":[],"categories_segments":[],"categories_sizes":[],"default_left":[0,0,0,0,0,0,0,0,0,0,0,0,0,0,0],"id":59,"left_children":[1,3,5,7,9,11,13,-1,-1,-1,-1,-1,-1,-1,-1],"loss_changes":[2.0309454E2,1.01028824E2,1.26663765E2,5.5534897E1,4.304619E1,3.5715134E1,8.952823E1,0E0,0E0,0E0,0E0,0E0,0E0,0E0,0E0],"parents":[2147483647,0,0,1,1,2,2,3,3,4,4,5,5,6,6],"right_children":[2,4,6,8,10,12,14,-1,-1,-1,-1,-1,-1,-1,-1],"split_conditions":[-3.4560074E-4,3.663625E1,6.084654E1,-9.226482E-2,-1.0325026E-3,1.9324269E-3,1.0118324E0,-1.126278E-2,6.6410884E-4,-2.820721E-3,-1.0003312E-2,5.0786906E-3,1.2040443E-2,-1.5456247E-3,9.048804E-3],"split_indices":[5,16,16,22,6,5,22,0,0,0,0,0,0,0,0],"split_type":[0,0,0,0,0,0,0,0,0,0,0,0,0,0,0],"sum_hessian":[3.3911992E3,1.454786E3,1.9364132E3,7.796702E2,6.751157E2,8.076714E2,1.128742E3,6.90693E1,7.106009E2,2.542931E2,4.2082263E2,6.2723535E2,1.8043599E2,9.735052E2,1.552367E2],"tree_param":{"num_deleted":"0","num_feature":"32","num_nodes":"15","size_leaf_vector":"1"}},{"base_weights":[-0E0,-1.5786538E-1,3.5741612E-1,2.3678798E-2,-4.2187768E-1,6.987824E-1,1.1740925E-1,-1.1713087E-2,1.0378473E-3,-2.3455825E-3,-9.477166E-3,1.3577901E-2,6.752483E-3,4.20693E-3,-4.6788654E-3],"categories":[],"categories_nodes":[],"categories_segments":[],"categories_sizes":[],"default_left":[0,0,0,0,0,0,0,0,0,0,0,0,0,0,0],"id":60,"left_children":[1,3,5,7,9,11,13,-1,-1,-1,-1,-1,-1,-1,-1],"loss_changes":[1.9232954E2,1.1418646E2,8.272383E1,6.8281006E1,6.69415E1,1.8750793E1,6.0508907E1,0E0,0E0,0E0,0E0,0E0,0E0,0E0,0E0],"parents":[2147483647,0,0,1,1,2,2,3,3,4,4,5,5,6,6],"right_children":[2,4,6,8,10,12,14,-1,-1,-1,-1,-1,-1,-1,-1],"split_conditions":[1.2228824E-3,1.3930575E-4,6.753546E1,-1.0886143E-1,4.5793903E1,1.5418703E-4,2.1982556E-3,-1.1713087E-2,1.0378473E-3,-2.3455825E-3,-9.477166E-3,1.3577901E-2,6.752483E-3,4.20693E-3,-4.6788654E-3],"split_indices":[5,26,16,22,16,26,26,0,0,0,0,0,0,0,0],"split_type":[0,0,0,0,0,0,0,0,0,0,0,0,0,0,0],"sum_hessian":[3.3911113E3,2.3501018E3,1.0410095E3,1.3882292E3,9.618726E2,4.2033707E2,6.206725E2,7.148903E1,1.3167402E3,5.406613E2,4.212113E2,1.3538672E2,2.8495038E2,4.4040698E2,1.802655E2],"tree_param":{"num_deleted":"0","num_feature":"32","num_nodes":"15","size_leaf_vector":"1"}},{"base_weights":[-0E0,1.7079265E-1,-1.4501916E-1,-3.2764164E-1,2.775898E-1,-2.4568145E-1,1.8705149E-1,1.5835384E-3,-8.583599E-3,5.724411E-3,2.7436175E-4,9.3130313E-4,-4.5104595E-3,-3.98462E-4,9.330199E-3],"categories":[],"categories_nodes":[],"categories_segments":[],"categories_sizes":[],"default_left":[0,0,0,0,0,0,0,0,0,0,0,0,0,0,0],"id":61,"left_children":[1,3,5,7,9,11,13,-1,-1,-1,-1,-1,-1,-1,-1],"loss_changes":[8.400287E1,8.300204E1,6.1907482E1,4.1638046E1,5.0722244E1,4.483973E1,5.0380806E1,0E0,0E0,0E0,0E0,0E0,0E0,0E0,0E0],"parents":[2147483647,0,0,1,1,2,2,3,3,4,4,5,5,6,6],"right_children":[2,4,6,8,10,12,14,-1,-1,-1,-1,-1,-1,-1,-1],"split_conditions":[-1.461819E-4,8.590497E0,8.8720985E1,-1.7479631E-1,1.0571787E-3,-1.9479133E-3,3.6286476E-1,1.5835384E-3,-8.583599E-3,5.724411E-3,2.7436175E-4,9.3130313E-4,-4.5104595E-3,-3.98462E-4,9.330199E-3],"split_indices":[26,17,17,24,27,27,24,0,0,0,0,0,0,0,0],"split_type":[0,0,0,0,0,0,0,0,0,0,0,0,0,0,0],"sum_hessian":[3.3828796E3,1.5484501E3,1.8344296E3,2.661847E2,1.2822654E3,1.4159845E3,4.184451E2,1.0927083E2,1.5691386E2,7.840418E2,4.982236E2,3.261871E2,1.0897974E3,2.94704E2,1.2374108E2],"tree_param":{"num_deleted":"0","num_feature":"32","num_nodes":"15","size_leaf_vector":"1"}},{"base_weights":[4.0687306E-4,-4.4634655E-2,7.457552E-1,1.23055264E-1,-2.4237068E-1,-9.176278E-2,9.299214E-1,-1.18602095E-2,2.2659576E-3,-6.0455565E-4,-5.6642117E-3,1.7144321E-3,-5.675209E-3,1.3710754E-2,3.3830092E-3],"categories":[],"categories_nodes":[],"categories_segments":[],"categories_sizes":[],"default_left":[0,0,0,0,0,0,0,0,0,0,0,0,0,0,0],"id":62,"left_children":[1,3,5,7,9,11,13,-1,-1,-1,-1,-1,-1,-1,-1],"loss_changes":[1.1610388E2,1.06483154E2,3.350351E1,8.5742065E1,5.3089767E1,4.0386276E0,7.13797E0,0E0,0E0,0E0,0E0,0E0,0E0,0E0,0E0],"parents":[2147483647,0,0,1,1,2,2,3,3,4,4,5,5,6,6],"right_children":[2,4,6,8,10,12,14,-1,-1,-1,-1,-1,-1,-1,-1],"split_conditions":[1.0118324E0,1.3930575E-4,-4.0267053E-1,-1.0886143E-1,-1.8793297E-1,4.6631442E-3,5.416657E-3,-1.18602095E-2,2.2659576E-3,-6.0455565E-4,-5.6642117E-3,1.7144321E-3,-5.675209E-3,1.3710754E-2,3.3830092E-3],"split_indices":[22,26,24,22,18,26,26,0,0,0,0,0,0,0,0],"split_type":[0,0,0,0,0,0,0,0,0,0,0,0,0,0,0],"sum_hessian":[3.3826135E3,3.1903818E3,1.9223175E2,1.7187878E3,1.471594E3,3.2034325E1,1.6019742E2,7.1963E1,1.6468248E3,7.32207E2,7.39387E2,1.5678893E1,1.635543E1,1.3070345E2,2.9493977E1],"tree_param":{"num_deleted":"0","num_feature":"32","num_nodes":"15","size_leaf_vector":"1"}},{"base_weights":[1.8299788E-3,-2.2181013E-1,2.5622487E-1,-2.7677877E-2,-5.561314E-1,5.2990276E-1,-0E0,2.0164216E-3,-4.93414E-3,-4.7638547E-3,-1.0492786E-2,4.513814E-3,1.0589889E-2,-1.4675141E-3,9.366811E-3],"categories":[],"categories_nodes":[],"categories_segments":[],"categories_sizes":[],"default_left":[0,0,0,0,0,0,0,0,0,0,0,0,0,0,0],"id":63,"left_children":[1,3,5,7,9,11,13,-1,-1,-1,-1,-1,-1,-1,-1],"loss_changes":[1.932403E2,1.1490951E2,1.1288967E2,7.34164E1,2.5607285E1,3.483571E1,6.484013E1,0E0,0E0,0E0,0E0,0E0,0E0,0E0,0E0],"parents":[2147483647,0,0,1,1,2,2,3,3,4,4,5,5,6,6],"right_children":[2,4,6,8,10,12,14,-1,-1,-1,-1,-1,-1,-1,-1],"split_conditions":[2.043081E-4,4.6061893E1,6.753546E1,1.8662888E-1,2.7645692E-7,1.7911518E-1,1.0432787E0,2.0164216E-3,-4.93414E-3,-4.7638547E-3,-1.0492786E-2,4.513814E-3,1.0589889E-2,-1.4675141E-3,9.366811E-3],"split_indices":[5,16,16,24,6,24,22,0,0,0,0,0,0,0,0],"split_type":[0,0,0,0,0,0,0,0,0,0,0,0,0,0,0],"sum_hessian":[3.3844949E3,1.7948903E3,1.5896046E3,1.1449534E3,6.4993695E2,7.6979095E2,8.198136E2,7.487936E2,3.961598E2,3.7544006E2,2.744969E2,4.7292462E2,2.9686633E2,7.149157E2,1.0489791E2],"tree_param":{"num_deleted":"0","num_feature":"32","num_nodes":"15","size_leaf_vector":"1"}},{"base_weights":[-0E0,-2.8095043E-1,2.0745715E-1,-1.24041095E-1,-7.256064E-1,5.0873893E-1,1.5316423E-2,-1.2344283E-2,-7.0194755E-4,-5.771288E-3,-1.1931718E-2,8.846206E-3,2.214081E-3,-4.735797E-3,2.7534077E-3],"categories":[],"categories_nodes":[],"categories_segments":[],"categories_sizes":[],"default_left":[0,0,0,0,0,0,0,0,0,0,0,0,0,0,0],"id":64,"left_children":[1,3,5,7,9,11,13,-1,-1,-1,-1,-1,-1,-1,-1],"loss_changes":[1.9808255E2,9.7577515E1,1.1149996E2,5.870969E1,1.3066742E1,3.8990067E1,8.784229E1,0E0,0E0,0E0,0E0,0E0,0E0,0E0,0E0],"parents":[2147483647,0,0,1,1,2,2,3,3,4,4,5,5,6,6],"right_children":[2,4,6,8,10,12,14,-1,-1,-1,-1,-1,-1,-1,-1],"split_conditions":[-3.6914766E-4,4.9859684E1,5.8678623E1,-1.0886143E-1,-1.6342194E0,7.698948E0,1.1669288E-3,-1.2344283E-2,-7.0194755E-4,-5.771288E-3,-1.1931718E-2,8.846206E-3,2.214081E-3,-4.735797E-3,2.7534077E-3],"split_indices":[5,16,16,22,18,12,5,0,0,0,0,0,0,0,0],"split_type":[0,0,0,0,0,0,0,0,0,0,0,0,0,0,0],"sum_hessian":[3.3884758E3,1.4383027E3,1.950173E3,1.0731764E3,3.6512634E2,7.497712E2,1.2004017E3,7.703535E1,9.9614105E2,1.5540695E2,2.0971939E2,4.960086E2,2.5376259E2,4.0206274E2,7.98339E2],"tree_param":{"num_deleted":"0","num_feature":"32","num_nodes":"15","size_leaf_vector":"1"}},{"base_weights":[6.292662E-4,-5.219744E-2,6.466015E-1,1.3303189E-1,-2.2587298E-1,8.195475E-1,-0E0,-1.0908083E-2,2.4099872E-3,-4.232597E-4,-5.5284393E-3,4.486314E-3,1.2642104E-2,-3.4054033E-3,5.8447593E-3],"categories":[],"categories_nodes":[],"categories_segments":[],"categories_sizes":[],"default_left":[0,0,0,0,0,0,0,0,0,0,0,0,0,0,0],"id":65,"left_children":[1,3,5,7,9,11,13,-1,-1,-1,-1,-1,-1,-1,-1],"loss_changes":[1.1804856E2,1.01546844E2,3.0554527E1,7.218954E1,6.0090187E1,8.426102E0,7.034115E0,0E0,0E0,0E0,0E0,0E0,0E0,0E0,0E0],"parents":[2147483647,0,0,1,1,2,2,3,3,4,4,5,5,6,6],"right_children":[2,4,6,8,10,12,14,-1,-1,-1,-1,-1,-1,-1,-1],"split_conditions":[9.609153E-1,-1.2562814E-4,5.416657E-3,-1.0886143E-1,-1.8793297E-1,1.0118324E0,1.1586939E0,-1.0908083E-2,2.4099872E-3,-4.232597E-4,-5.5284393E-3,4.486314E-3,1.2642104E-2,-3.4054033E-3,5.8447593E-3],"split_indices":[22,26,26,22,18,22,22,0,0,0,0,0,0,0,0],"split_type":[0,0,0,0,0,0,0,0,0,0,0,0,0,0,0],"sum_hessian":[3.3944675E3,3.1376807E3,2.567868E2,1.5101538E3,1.627527E3,2.0341583E2,5.3370964E1,6.8000175E1,1.4421536E3,8.2712964E2,8.003974E2,5.569154E1,1.4772429E2,3.726578E1,1.6105185E1],"tree_param":{"num_deleted":"0","num_feature":"32","num_nodes":"15","size_leaf_vector":"1"}},{"base_weights":[-0E0,-2.4887408E-1,2.2659072E-1,-1.0826073E-1,-7.526666E-1,5.082548E-1,1.9293109E-2,1.6013001E-3,-5.328328E-3,-1.27747515E-2,-3.6721476E-3,1.0477752E-2,4.3839794E-3,-9.216728E-4,1.0382985E-2],"categories":[],"categories_nodes":[],"categories_segments":[],"categories_sizes":[],"default_left":[0,0,0,0,0,0,0,0,0,0,0,0,0,0,0],"id":66,"left_children":[1,3,5,7,9,11,13,-1,-1,-1,-1,-1,-1,-1,-1],"loss_changes":[1.91234E2,1.11304565E2,1.0199095E2,8.822601E1,3.0674377E1,3.276706E1,7.385938E1,0E0,0E0,0E0,0E0,0E0,0E0,0E0,0E0],"parents":[2147483647,0,0,1,1,2,2,3,3,4,4,5,5,6,6],"right_children":[2,4,6,8,10,12,14,-1,-1,-1,-1,-1,-1,-1,-1],"split_conditions":[-8.904042E-5,6.52403E-1,6.226165E1,-6.6925316E0,-1.4749572E-3,-2.1358695E0,1.0547814E0,1.6013001E-3,-5.328328E-3,-1.27747515E-2,-3.6721476E-3,1.0477752E-2,4.3839794E-3,-9.216728E-4,1.0382985E-2],"split_indices":[5,24,16,12,5,13,22,0,0,0,0,0,0,0,0],"split_type":[0,0,0,0,0,0,0,0,0,0,0,0,0,0,0],"sum_hessian":[3.381121E3,1.6101799E3,1.7709412E3,1.2685374E3,3.4164264E2,7.4123944E2,1.0297017E3,7.1066327E2,5.578741E2,2.2525385E2,1.1638878E2,2.6567114E2,4.7556827E2,9.2314075E2,1.0656093E2],"tree_param":{"num_deleted":"0","num_feature":"32","num_nodes":"15","size_leaf_vector":"1"}},{"base_weights":[-0E0,-2.722316E-1,2.040044E-1,-6.464636E-2,-6.377922E-1,4.9705318E-1,9.037044E-3,1.6108523E-3,-5.8931815E-3,-1.0563156E-2,-3.7536817E-3,4.897523E-3,1.202037E-2,-2.0422176E-3,5.8015995E-3],"categories":[],"categories_nodes":[],"categories_segments":[],"categories_sizes":[],"default_left":[0,0,0,0,0,0,0,0,0,0,0,0,0,0,0],"id":67,"left_children":[1,3,5,7,9,11,13,-1,-1,-1,-1,-1,-1,-1,-1],"loss_changes":[1.8885306E2,1.083748E2,1.0910906E2,6.900393E1,2.5954681E1,3.4100327E1,8.480646E1,0E0,0E0,0E0,0E0,0E0,0E0,0E0,0E0],"parents":[2147483647,0,0,1,1,2,2,3,3,4,4,5,5,6,6],"right_children":[2,4,6,8,10,12,14,-1,-1,-1,-1,-1,-1,-1,-1],"split_conditions":[-3.4560074E-4,2.2143742E-1,5.954573E1,-2.34489E-4,-1.4749572E-3,1.9324269E-3,-1.5379262E1,1.6108523E-3,-5.8931815E-3,-1.0563156E-2,-3.7536817E-3,4.897523E-3,1.202037E-2,-2.0422176E-3,5.8015995E-3],"split_indices":[5,24,16,6,5,5,14,0,0,0,0,0,0,0,0],"split_type":[0,0,0,0,0,0,0,0,0,0,0,0,0,0,0],"sum_hessian":[3.3877532E3,1.4549213E3,1.9328319E3,9.372717E2,5.176496E2,7.6259625E2,1.1702356E3,6.2677075E2,3.1050095E2,3.4137506E2,1.7627454E2,6.0074097E2,1.6185532E2,8.44926E2,3.253096E2],"tree_param":{"num_deleted":"0","num_feature":"32","num_nodes":"15","size_leaf_vector":"1"}},{"base_weights":[2.420934E-3,-2.0390195E-1,2.5858724E-1,-2.0597786E-2,-4.8953164E-1,1.1749257E-1,7.307545E-1,2.2367684E-3,-4.668712E-3,-9.746313E-3,-2.4035384E-3,4.9186186E-3,-2.4319692E-3,4.831953E-3,1.2897858E-2],"categories":[],"categories_nodes":[],"categories_segments":[],"categories_sizes":[],"default_left":[0,0,0,0,0,0,0,0,0,0,0,0,0,0,0],"id":68,"left_children":[1,3,5,7,9,11,13,-1,-1,-1,-1,-1,-1,-1,-1],"loss_changes":[1.7909207E2,9.6162605E1,9.7958496E1,7.430713E1,5.231151E1,9.2537285E1,2.51279E1,0E0,0E0,0E0,0E0,0E0,0E0,0E0,0E0],"parents":[2147483647,0,0,1,1,2,2,3,3,4,4,5,5,6,6],"right_children":[2,4,6,8,10,12,14,-1,-1,-1,-1,-1,-1,-1,-1],"split_conditions":[3.18292E-4,1.3503037E-1,5.437355E-1,2.1416682E-4,-1.441525E-3,8.60328E-4,2.0787318E-3,2.2367684E-3,-4.668712E-3,-9.746313E-3,-2.4035384E-3,4.9186186E-3,-2.4319692E-3,4.831953E-3,1.2897858E-2],"split_indices":[5,24,24,26,5,26,5,0,0,0,0,0,0,0,0],"split_type":[0,0,0,0,0,0,0,0,0,0,0,0,0,0,0],"sum_hessian":[3.3750842E3,1.8631897E3,1.5118945E3,1.1449019E3,7.1828784E2,1.1740652E3,3.378293E2,7.247796E2,4.201223E2,3.8467145E2,3.336164E2,6.400575E2,5.340077E2,1.4819395E2,1.8963536E2],"tree_param":{"num_deleted":"0","num_feature":"32","num_nodes":"15","size_leaf_vector":"1"}},{"base_weights":[-0E0,-4.416473E-2,7.217482E-1,-5.853063E-1,5.3772847E-3,3.1908202E-1,8.4854317E-1,-1.3608569E-2,-5.432859E-3,3.3496243E-3,-2.427538E-3,8.257591E-3,-1.0660863E-3,1.1889071E-2,-0E0],"categories":[],"categories_nodes":[],"categories_segments":[],"categories_sizes":[],"default_left":[0,0,0,0,0,0,0,0,0,0,0,0,0,0,0],"id":69,"left_children":[1,3,5,7,9,11,13,-1,-1,-1,-1,-1,-1,-1,-1],"loss_changes":[1.0759239E2,8.737313E1,4.887848E0,1.4394241E1,1.3905545E2,9.489321E0,6.1791763E0,0E0,0E0,0E0,0E0,0E0,0E0,0E0,0E0],"parents":[2147483647,0,0,1,1,2,2,3,3,4,4,5,5,6,6],"right_children":[2,4,6,8,10,12,14,-1,-1,-1,-1,-1,-1,-1,-1],"split_conditions":[1.0118324E0,4.2011958E-2,-1.5077898E1,-1.4832357E-1,-1.7739974E-4,2.078864E0,8.570286E-3,-1.3608569E-2,-5.432859E-3,3.3496243E-3,-2.427538E-3,8.257591E-3,-1.0660863E-3,1.1889071E-2,-0E0],"split_indices":[22,22,14,22,6,20,27,0,0,0,0,0,0,0,0],"split_type":[0,0,0,0,0,0,0,0,0,0,0,0,0,0,0],"sum_hessian":[3.3748948E3,3.185384E3,1.8951083E2,2.6787466E2,2.9175093E3,5.560405E1,1.3390678E2,6.1927807E1,2.0594685E2,1.268017E3,1.6494924E3,3.4163895E1,2.1440157E1,1.2476568E2,9.141103E0],"tree_param":{"num_deleted":"0","num_feature":"32","num_nodes":"15","size_leaf_vector":"1"}},{"base_weights":[-9.950245E-4,-2.6645267E-1,1.9610488E-1,-3.1892065E-2,-5.529837E-1,6.4822257E-1,6.822683E-2,-1.1876434E-2,5.252464E-4,-3.8890324E-3,-9.9159805E-3,6.3622734E-3,1.3088596E-2,-1.9497366E-3,4.035576E-3],"categories":[],"categories_nodes":[],"categories_segments":[],"categories_sizes":[],"default_left":[0,0,0,0,0,0,0,0,0,0,0,0,0,0,0],"id":70,"left_children":[1,3,5,7,9,11,13,-1,-1,-1,-1,-1,-1,-1,-1],"loss_changes":[1.7724544E2,9.542232E1,1.09391624E2,5.3505814E1,2.9007446E1,1.6895782E1,7.932022E1,0E0,0E0,0E0,0E0,0E0,0E0,0E0,0E0],"parents":[2147483647,0,0,1,1,2,2,3,3,4,4,5,5,6,6],"right_children":[2,4,6,8,10,12,14,-1,-1,-1,-1,-1,-1,-1,-1],"split_conditions":[-3.4560074E-4,3.7531868E1,4.6842335E1,-1.0886143E-1,-1.5399526E0,1.2228824E-3,1.8154874E-3,-1.1876434E-2,5.252464E-4,-3.8890324E-3,-9.9159805E-3,6.3622734E-3,1.3088596E-2,-1.9497366E-3,4.035576E-3],"split_indices":[5,16,16,22,18,5,5,0,0,0,0,0,0,0,0],"split_type":[0,0,0,0,0,0,0,0,0,0,0,0,0,0,0],"sum_hessian":[3.3732185E3,1.4433921E3,1.9298264E3,8.0281384E2,6.405782E2,4.155075E2,1.5143188E3,5.9983547E1,7.428303E2,2.9383292E2,3.4674527E2,2.966536E2,1.188539E2,7.882615E2,7.260574E2],"tree_param":{"num_deleted":"0","num_feature":"32","num_nodes":"15","size_leaf_vector":"1"}},{"base_weights":[1.1205426E-3,-2.611109E-1,1.9650419E-1,-3.8012654E-2,-5.6418985E-1,6.616148E-1,6.991771E-2,2.7972434E-3,-3.5971953E-3,4.7321827E-4,-9.06171E-3,1.0347828E-2,2.3341225E-3,4.99727E-3,-1.4336455E-3],"categories":[],"categories_nodes":[],"categories_segments":[],"categories_sizes":[],"default_left":[0,0,0,0,0,0,0,0,0,0,0,0,0,0,0],"id":71,"left_children":[1,3,5,7,9,11,13,-1,-1,-1,-1,-1,-1,-1,-1],"loss_changes":[1.7286737E2,9.505315E1,1.118353E2,5.004309E1,4.7467453E1,2.1183578E1,8.648851E1,0E0,0E0,0E0,0E0,0E0,0E0,0E0,0E0],"parents":[2147483647,0,0,1,1,2,2,3,3,4,4,5,5,6,6],"right_children":[2,4,6,8,10,12,14,-1,-1,-1,-1,-1,-1,-1,-1],"split_conditions":[-3.6914766E-4,3.911739E1,4.6061893E1,-5.874056E-4,-2.8689618E-3,9.6432737E-4,-1.461819E-4,2.7972434E-3,-3.5971953E-3,4.7321827E-4,-9.06171E-3,1.0347828E-2,2.3341225E-3,4.99727E-3,-1.4336455E-3],"split_indices":[5,16,16,26,26,6,26,0,0,0,0,0,0,0,0],"split_type":[0,0,0,0,0,0,0,0,0,0,0,0,0,0,0],"sum_hessian":[3.3677463E3,1.4302953E3,1.937451E3,8.331236E2,5.971717E2,4.0458295E2,1.532868E3,3.9736E2,4.3576364E2,9.941971E1,4.9775195E2,3.1347986E2,9.1103096E1,5.6508936E2,9.677787E2],"tree_param":{"num_deleted":"0","num_feature":"32","num_nodes":"15","size_leaf_vector":"1"}},{"base_weights":[-0E0,-2.0608903E-1,2.3239692E-1,7.499516E-2,-3.945417E-1,4.1958526E-1,-3.2093354E-2,-4.0388084E-3,3.6774548E-3,-2.770687E-3,-9.35623E-3,1.0050882E-2,3.5431758E-3,-2.9702024E-3,3.7742897E-3],"categories":[],"categories_nodes":[],"categories_segments":[],"categories_sizes":[],"default_left":[0,0,0,0,0,0,0,0,0,0,0,0,0,0,0],"id":72,"left_children":[1,3,5,7,9,11,13,-1,-1,-1,-1,-1,-1,-1,-1],"loss_changes":[1.6206546E2,9.633651E1,7.989194E1,5.6628326E1,5.949121E1,4.4211426E1,4.073194E1,0E0,0E0,0E0,0E0,0E0,0E0,0E0,0E0],"parents":[2147483647,0,0,1,1,2,2,3,3,4,4,5,5,6,6],"right_children":[2,4,6,8,10,12,14,-1,-1,-1,-1,-1,-1,-1,-1],"split_conditions":[2.043081E-4,-1.0325026E-3,1.0064375E-3,-4.0768823E-3,1.2350983E-4,2.7645692E-7,3.6786722E-3,-4.0388084E-3,3.6774548E-3,-2.770687E-3,-9.35623E-3,1.0050882E-2,3.5431758E-3,-2.9702024E-3,3.7742897E-3],"split_indices":[5,6,26,5,26,6,5,0,0,0,0,0,0,0,0],"split_type":[0,0,0,0,0,0,0,0,0,0,0,0,0,0,0],"sum_hessian":[3.3743691E3,1.7917726E3,1.5825966E3,7.136773E2,1.0780953E3,9.319374E2,6.5065924E2,2.4272243E2,4.7095483E2,6.944208E2,3.836745E2,2.696519E2,6.622855E2,4.1185828E2,2.3880096E2],"tree_param":{"num_deleted":"0","num_feature":"32","num_nodes":"15","size_leaf_vector":"1"}},{"base_weights":[-4.286491E-4,-2.8581098E-1,1.7234276E-1,-0E0,-5.442898E-1,5.829099E-1,4.465001E-2,-1.0933664E-2,1.4283657E-3,-4.5125526E-3,-1.1286229E-2,9.17292E-3,1.5594044E-3,-2.8838422E-3,3.2187605E-3],"categories":[],"categories_nodes":[],"categories_segments":[],"categories_sizes":[],"default_left":[0,0,0,0,0,0,0,0,0,0,0,0,0,0,0],"id":73,"left_children":[1,3,5,7,9,11,13,-1,-1,-1,-1,-1,-1,-1,-1],"loss_changes":[1.6684634E2,9.44704E1,1.0780484E2,5.6060364E1,3.717531E1,2.3236954E1,8.5517044E1,0E0,0E0,0E0,0E0,0E0,0E0,0E0,0E0],"parents":[2147483647,0,0,1,1,2,2,3,3,4,4,5,5,6,6],"right_children":[2,4,6,8,10,12,14,-1,-1,-1,-1,-1,-1,-1,-1],"split_conditions":[-6.4440584E-4,-1.0325026E-3,4.6061893E1,-9.226482E-2,3.6266113E1,9.393465E-4,1.2228824E-3,-1.0933664E-2,1.4283657E-3,-4.5125526E-3,-1.1286229E-2,9.17292E-3,1.5594044E-3,-2.8838422E-3,3.2187605E-3],"split_indices":[5,6,16,22,15,6,5,0,0,0,0,0,0,0,0],"split_type":[0,0,0,0,0,0,0,0,0,0,0,0,0,0,0],"sum_hessian":[3.3665012E3,1.2751261E3,2.091375E3,6.0832227E2,6.668039E2,4.8600085E2,1.6053741E3,6.658622E1,5.41736E2,4.1941248E2,2.4739139E2,3.8201962E2,1.0398122E2,6.8538525E2,9.199889E2],"tree_param":{"num_deleted":"0","num_feature":"32","num_nodes":"15","size_leaf_vector":"1"}},{"base_weights":[2.2235932E-3,-1.8586989E-1,2.810482E-1,3.968081E-2,-3.795441E-1,7.1284585E-2,6.2676173E-1,2.3816868E-3,-6.919084E-3,-2.772269E-3,-8.340984E-3,4.4474616E-3,-2.785099E-3,5.2861185E-3,1.0995421E-2],"categories":[],"categories_nodes":[],"categories_segments":[],"categories_sizes":[],"default_left":[0,0,0,0,0,0,0,0,0,0,0,0,0,0,0],"id":74,"left_children":[1,3,5,7,9,11,13,-1,-1,-1,-1,-1,-1,-1,-1],"loss_changes":[1.7713039E2,8.880744E1,9.6564896E1,7.3452576E1,4.3443085E1,6.588564E1,1.838646E1,0E0,0E0,0E0,0E0,0E0,0E0,0E0,0E0],"parents":[2147483647,0,0,1,1,2,2,3,3,4,4,5,5,6,6],"right_children":[2,4,6,8,10,12,14,-1,-1,-1,-1,-1,-1,-1,-1],"split_conditions":[5.646583E-4,-5.090297E-4,1.7911518E-1,6.8278104E-1,-1.5920947E-1,8.790447E-4,7.4442464E-1,2.3816868E-3,-6.919084E-3,-2.772269E-3,-8.340984E-3,4.4474616E-3,-2.785099E-3,5.2861185E-3,1.0995421E-2],"split_indices":[5,26,24,24,18,26,24,0,0,0,0,0,0,0,0],"split_type":[0,0,0,0,0,0,0,0,0,0,0,0,0,0,0],"sum_hessian":[3.3615881E3,2.0016846E3,1.3599037E3,9.1911115E2,1.0825734E3,8.558433E2,5.040604E2,7.424963E2,1.7661491E2,6.647804E2,4.177929E2,4.456324E2,4.1021094E2,2.57894E2,2.4616637E2],