{"learner":{"attributes":{"best_iteration":"288","best_score":"0.9779335214894693","scikit_learn":"{\"_estimator_type\": \"classifier\"}"},"feature_names":["CLOSE_EMA_L","RSI","MOM","MACD","MACD_signal","MACD_hist","BB_Width","BB_Percent"],"feature_types":["float","float","float","float","float","float","float","float"],"gradient_booster":{"model":{"cats":{"enc":[],"feature_segments":[],"sorted_idx":[]},"gbtree_model_param":{"num_parallel_tree":"1","num_trees":"900"},"iteration_indptr":[0,3,6,9,12,15,18,21,24,27,30,33,36,39,42,45,48,51,54,57,60,63,66,69,72,75,78,81,84,87,90,93,96,99,102,105,108,111,114,117,120,123,126,129,132,135,138,141,144,147,150,153,156,159,162,165,168,171,174,177,180,183,186,189,192,195,198,201,204,207,210,213,216,219,222,225,228,231,234,237,240,243,246,249,252,255,258,261,264,267,270,273,276,279,282,285,288,291,294,297,300,303,306,309,312,315,318,321,324,327,330,333,336,339,342,345,348,351,354,357,360,363,366,369,372,375,378,381,384,387,390,393,396,399,402,405,408,411,414,417,420,423,426,429,432,435,438,441,444,447,450,453,456,459,462,465,468,471,474,477,480,483,486,489,492,495,498,501,504,507,510,513,516,519,522,525,528,531,534,537,540,543,546,549,552,555,558,561,564,567,570,573,576,579,582,585,588,591,594,597,600,603,606,609,612,615,618,621,624,627,630,633,636,639,642,645,648,651,654,657,660,663,666,669,672,675,678,681,684,687,690,693,696,699,702,705,708,711,714,717,720,723,726,729,732,735,738,741,744,747,750,753,756,759,762,765,768,771,774,777,780,783,786,789,792,795,798,801,804,807,810,813,816,819,822,825,828,831,834,837,840,843,846,849,852,855,858,861,864,867,870,873,876,879,882,885,888,891,894,897,900],"tree_info":[0,1,2,0,1,2,0,1,2,0,1,2,0,1,2,0,1,2,0,1,2,0,1,2,0,1,2,0,1,2,0,1,2,0,1,2,0,1,2,0,1,2,0,1,2,0,1,2,0,1,2,0,1,2,0,1,2,0,1,2,0,1,2,0,1,2,0,1,2,0,1,2,0,1,2,0,1,2,0,1,2,0,1,2,0,1,2,0,1,2,0,1,2,0,1,2,0,1,2,0,1,2,0,1,2,0,1,2,0,1,2,0,1,2,0,1,2,0,1,2,0,1,2,0,1,2,0,1,2,0,1,2,0,1,2,0,1,2,0,1,2,0,1,2,0,1,2,0,1,2,0,1,2,0,1,2,0,1,2,0,1,2,0,1,2,0,1,2,0,1,2,0,1,2,0,1,2,0,1,2,0,1,2,0,1,2,0,1,2,0,1,2,0,1,2,0,1,2,0,1,2,0,1,2,0,1,2,0,1,2,0,1,2,0,1,2,0,1,2,0,1,2,0,1,2,0,1,2,0,1,2,0,1,2,0,1,2,0,1,2,0,1,2,0,1,2,0,1,2,0,1,2,0,1,2,0,1,2,0,1,2,0,1,2,0,1,2,0,1,2,0,1,2,0,1,2,0,1,2,0,1,2,0,1,2,0,1,2,0,1,2,0,1,2,0,1,2,0,1,2,0,1,2,0,1,2,0,1,2,0,1,2,0,1,2,0,1,2,0,1,2,0,1,2,0,1,2,0,1,2,0,1,2,0,1,2,0,1,2,0,1,2,0,1,2,0,1,2,0,1,2,0,1,2,0,1,2,0,1,2,0,1,2,0,1,2,0,1,2,0,1,2,0,1,2,0,1,2,0,1,2,0,1,2,0,1,2,0,1,2,0,1,2,0,1,2,0,1,2,0,1,2,0,1,2,0,1,2,0,1,2,0,1,2,0,1,2,0,1,2,0,1,2,0,1,2,0,1,2,0,1,2,0,1,2,0,1,2,0,1,2,0,1,2,0,1,2,0,1,2,0,1,2,0,1,2,0,1,2,0,1,2,0,1,2,0,1,2,0,1,2,0,1,2,0,1,2,0,1,2,0,1,2,0,1,2,0,1,2,0,1,2,0,1,2,0,1,2,0,1,2,0,1,2,0,1,2,0,1,2,0,1,2,0,1,2,0,1,2,0,1,2,0,1,2,0,1,2,0,1,2,0,1,2,0,1,2,0,1,2,0,1,2,0,1,2,0,1,2,0,1,2,0,1,2,0,1,2,0,1,2,0,1,2,0,1,2,0,1,2,0,1,2,0,1,2,0,1,2,0,1,2,0,1,2,0,1,2,0,1,2,0,1,2,0,1,2,0,1,2,0,1,2,0,1,2,0,1,2,0,1,2,0,1,2,0,1,2,0,1,2,0,1,2,0,1,2,0,1,2,0,1,2,0,1,2,0,1,2,0,1,2,0,1,2,0,1,2,0,1,2,0,1,2,0,1,2,0,1,2,0,1,2,0,1,2,0,1,2,0,1,2,0,1,2,0,1,2,0,1,2,0,1,2,0,1,2,0,1,2,0,1,2,0,1,2,0,1,2,0,1,2,0,1,2,0,1,2,0,1,2,0,1,2,0,1,2,0,1,2,0,1,2,0,1,2,0,1,2,0,1,2,0,1,2,0,1,2,0,1,2,0,1,2,0,1,2,0,1,2,0,1,2,0,1,2,0,1,2,0,1,2,0,1,2,0,1,2,0,1,2,0,1,2,0,1,2,0,1,2,0,1,2,0,1,2,0,1,2,0,1,2,0,1,2,0,1,2,0,1,2,0,1,2,0,1,2,0,1,2,0,1,2,0,1,2,0,1,2,0,1,2,0,1,2,0,1,2,0,1,2,0,1,2,0,1,2,0,1,2,0,1,2,0,1,2,0,1,2,0,1,2,0,1,2,0,1,2,0,1,2,0,1,2,0,1,2,0,1,2,0,1,2,0,1,2,0,1,2,0,1,2,0,1,2,0,1,2,0,1,2,0,1,2,0,1,2,0,1,2],"trees":[{"base_weights":[-0E0,3.475235E-1,-1.3823995E-1,7.367576E-1,2.0435964E-1,-3.799378E-1,-6.45789E-2,7.317069E-2,7.7062607E-1,-1.0444182E-1,2.664829E-1,-4.769875E-1,-1.80791E-1,-1.4855943E-2,-1.6900441E-1,2.675159E-1,-0E0,-0E0,1.0330573E-2,1.86335E-2,-1.8828456E-1,2.9708996E-1,-4.559274E-2,-5.0097775E-1,-0E0,-0E0,-2.679901E-1,-1.6879085E-1,5.0252665E-2,-0E0,-2.0884456E-1,-0E0,4.6048174E-3,1.3957076E-3,-0E0,-0E0,-3.5239873E-3,7.240861E-3,3.0867257E-3,-2.2876759E-3,-0E0,-0E0,-6.973681E-3,-8.1717665E-4,2.2450532E-3,-0E0,-3.6355103E-3,7.7463116E-4,-2.9503542E-3,2.931826E-3,-3.834794E-5,-2.6745987E-3,2.4797954E-3,-3.3853706E-3,-0E0],"categories":[],"categories_nodes":[],"categories_segments":[],"categories_sizes":[],"default_left":[0,0,0,0,0,0,0,0,0,0,0,0,0,0,0,0,0,0,0,0,0,0,0,0,0,0,0,0,0,0,0,0,0,0,0,0,0,0,0,0,0,0,0,0,0,0,0,0,0,0,0,0,0,0,0],"id":0,"left_children":[1,3,5,7,9,11,13,15,17,19,21,23,25,27,29,31,-1,-1,-1,33,35,37,39,41,-1,43,45,47,49,51,53,-1,-1,-1,-1,-1,-1,-1,-1,-1,-1,-1,-1,-1,-1,-1,-1,-1,-1,-1,-1,-1,-1,-1,-1],"loss_changes":[1.3770145E2,3.991971E1,3.4316547E1,1.663208E-1,1.2683426E1,5.249878E0,7.376473E0,1.1264561E0,1.5633392E-1,1.8208753E0,6.331379E0,4.8455734E0,3.8623328E0,1.1879218E1,3.1839962E0,6.202055E-1,0E0,0E0,0E0,1.3538167E-1,1.9126635E0,3.2049866E0,9.103606E-1,2.8018112E0,0E0,9.939332E-1,4.9485588E-1,5.42721E0,8.174387E0,3.989637E0,3.1911812E0,0E0,0E0,0E0,0E0,0E0,0E0,0E0,0E0,0E0,0E0,0E0,0E0,0E0,0E0,0E0,0E0,0E0,0E0,0E0,0E0,0E0,0E0,0E0,0E0],"parents":[2147483647,0,0,1,1,2,2,3,3,4,4,5,5,6,6,7,7,8,8,9,9,10,10,11,11,12,12,13,13,14,14,15,15,19,19,20,20,21,21,22,22,23,23,25,25,26,26,27,27,28,28,29,29,30,30],"right_children":[2,4,6,8,10,12,14,16,18,20,22,24,26,28,30,32,-1,-1,-1,34,36,38,40,42,-1,44,46,48,50,52,54,-1,-1,-1,-1,-1,-1,-1,-1,-1,-1,-1,-1,-1,-1,-1,-1,-1,-1,-1,-1,-1,-1,-1,-1],"split_conditions":[3.3656918E-2,1.9306865E-2,-3.399924E1,4.1959473E1,4.0465034E1,3.3822487E1,6.3612576E0,4.1660717E1,-3.7539124E1,2.1625025E-2,6.259E1,1.0798218E0,-1.517346E0,-5.6193405E1,4.7283333E-2,-5.78721E0,-0E0,-0E0,1.0330573E-2,-1.5968506E0,-5.5972915E0,-3.20265E0,7.582567E1,1.7080301E1,-0E0,-1.3448141E2,-9.567097E1,-2.6384224E1,-9.53026E0,7.893268E0,1.5696676E1,-0E0,4.6048174E-3,1.3957076E-3,-0E0,-0E0,-3.5239873E-3,7.240861E-3,3.0867257E-3,-2.2876759E-3,-0E0,-0E0,-6.973681E-3,-8.1717665E-4,2.2450532E-3,-0E0,-3.6355103E-3,7.7463116E-4,-2.9503542E-3,2.931826E-3,-3.834794E-5,-2.6745987E-3,2.4797954E-3,-3.3853706E-3,-0E0],"split_indices":[6,6,3,1,1,1,5,1,2,6,2,5,5,2,6,3,0,0,0,5,5,5,2,1,0,2,2,3,3,5,5,0,0,0,0,0,0,0,0,0,0,0,0,0,0,0,0,0,0,0,0,0,0,0,0],"split_type":[0,0,0,0,0,0,0,0,0,0,0,0,0,0,0,0,0,0,0,0,0,0,0,0,0,0,0,0,0,0,0,0,0,0,0,0,0,0,0,0,0,0,0,0,0,0,0,0,0,0,0,0,0,0,0],"sum_hessian":[2.8635554E3,8.093333E2,2.0542222E3,2.0266666E2,6.066666E2,4.5911108E2,1.595111E3,1.7777777E1,1.8488889E2,8.755555E1,5.191111E2,2.8711108E2,1.7199998E2,1.1168888E3,4.782222E2,1.2444444E1,5.333333E0,7.1111107E0,1.7777777E2,1.2888888E1,7.4666664E1,4.875555E2,3.1555553E1,2.7911108E2,7.9999995E0,4.2666664E1,1.2933333E2,3.5244443E2,7.644444E2,9.377777E1,3.8444443E2,2.222222E0,1.0222221E1,7.5555553E0,5.333333E0,1.3777777E1,6.0888885E1,7.244444E1,4.1511108E2,2.7555553E1,3.9999998E0,2.0888887E1,2.582222E2,1.6444443E1,2.6222221E1,1.7777777E0,1.2755555E2,5.1555553E1,3.008889E2,1.9822221E2,5.6622217E2,4.5777775E1,4.7999996E1,2.9911108E2,8.533333E1],"tree_param":{"num_deleted":"0","num_feature":"8","num_nodes":"55","size_leaf_vector":"1"}},{"base_weights":[-2.205159E-3,4.4339937E-1,-6.2050052E-2,3.2506993E-1,8.8675624E-1,-4.511826E-1,-2.9700229E-2,8.351173E-2,5.6855893E-1,1.3786278E-2,-0E0,-4.5448998E-1,-0E0,2.6859203E-1,-5.2571017E-2,2.2604948E-1,-9.284337E-2,-0E0,6.1178666E-1,-6.1065573E-3,-0E0,-0E0,3.1743276E-1,-4.1965324E-1,-3.35196E-2,3.937245E-4,6.9325278E-3,-3.4285877E-3,-0E0,8.131946E-3,-0E0,3.3796069E-3,-1.2718957E-3,9.437046E-3,1.5012063E-3,-5.7317307E-3,-0E0,1.3803164E-3,-1.2543526E-3],"categories":[],"categories_nodes":[],"categories_segments":[],"categories_sizes":[],"default_left":[0,0,0,0,0,0,0,0,0,0,0,0,0,0,0,0,0,0,0,0,0,0,0,0,0,0,0,0,0,0,0,0,0,0,0,0,0,0,0],"id":1,"left_children":[1,3,5,7,9,11,13,15,17,-1,-1,19,-1,21,23,25,27,-1,29,-1,-1,31,33,35,37,-1,-1,-1,-1,-1,-1,-1,-1,-1,-1,-1,-1,-1,-1],"loss_changes":[7.4821846E1,9.85289E0,2.958277E1,1.2846762E1,6.9274063E0,2.734108E-1,1.51461735E1,4.684E0,3.330738E0,0E0,0E0,6.3632965E-2,0E0,1.8071289E0,1.3183791E1,3.2349715E0,1.4178791E0,0E0,5.0471115E-1,0E0,0E0,9.9723494E-1,5.857712E0,1.099781E0,1.8258347E1,0E0,0E0,0E0,0E0,0E0,0E0,0E0,0E0,0E0,0E0,0E0,0E0,0E0,0E0],"parents":[2147483647,0,0,1,1,2,2,3,3,4,4,5,5,6,6,7,7,8,8,11,11,13,13,14,14,15,15,16,16,18,18,21,21,22,22,23,23,24,24],"right_children":[2,4,6,8,10,12,14,16,18,-1,-1,20,-1,22,24,26,28,-1,30,-1,-1,32,34,36,38,-1,-1,-1,-1,-1,-1,-1,-1,-1,-1,-1,-1,-1,-1],"split_conditions":[-4.4841686E1,1.1008785E1,1.8640453E-2,1.24162056E-1,7.8931123E-1,2.8385466E1,-5.010045E-2,2.5809526E-1,-1.2144241E2,1.3786278E-2,-0E0,1.0002352E0,-0E0,-2.474027E1,-3.6506874E1,1.6373865E-1,7.858364E-2,-0E0,-4.5656197E1,-6.1065573E-3,-0E0,-5.1753723E1,-1.8254803E1,-2.1536263E1,-8.261204E0,3.937245E-4,6.9325278E-3,-3.4285877E-3,-0E0,8.131946E-3,-0E0,3.3796069E-3,-1.2718957E-3,9.437046E-3,1.5012063E-3,-5.7317307E-3,-0E0,1.3803164E-3,-1.2543526E-3],"split_indices":[4,5,6,6,7,4,7,7,4,0,0,7,0,4,3,7,6,0,3,0,0,3,4,4,3,0,0,0,0,0,0,0,0,0,0,0,0,0,0],"split_type":[0,0,0,0,0,0,0,0,0,0,0,0,0,0,0,0,0,0,0,0,0,0,0,0,0,0,0,0,0,0,0,0,0,0,0,0,0,0,0],"sum_hessian":[2.8671108E3,3.2577777E2,2.5413333E3,2.728889E2,5.2888885E1,1.7822221E2,2.363111E3,1.5066666E2,1.2222221E2,4.2666664E1,1.0222221E1,1.7688889E2,1.3333333E0,1.4888889E2,2.2142222E3,9.822221E1,5.2444443E1,8.444444E0,1.1377777E2,1.6933333E2,7.5555553E0,2.5777777E1,1.2311111E2,9.111111E1,2.123111E3,7.2888885E1,2.5333332E1,2.311111E1,2.9333332E1,1.12444435E2,1.3333333E0,6.666666E0,1.911111E1,2.8888887E1,9.422221E1,8.977777E1,1.3333333E0,6.297777E2,1.4933333E3],"tree_param":{"num_deleted":"0","num_feature":"8","num_nodes":"39","size_leaf_vector":"1"}},{"base_weights":[-0E0,1.5168837E-1,-4.2598188E-2,2.0677358E-1,-2.5295115E-1,-2.2275801E-1,1.5973136E-2,-4.2954525E-8,3.4277618E-1,-3.4719715E-1,-0E0,-7.69772E-2,-3.7358496E-1,-1.9954726E-2,3.557387E-1,-3.166905E-1,1.4036475E-1,6.2268306E-2,5.1254666E-1,-4.2596355E-1,-0E0,-2.0669676E-1,4.2632718E-2,-4.2060092E-1,-0E0,7.431382E-2,-1.2777531E-1,7.19323E-1,6.5716975E-3,-4.9567586E-3,-0E0,9.358576E-3,-0E0,3.6978899E-3,-2.6966066E-3,9.845686E-3,3.3817308E-3,-6.4919023E-3,-0E0,7.6560635E-4,-3.9153467E-3,-3.3467384E-3,2.5893506E-3,-5.5597387E-3,-0E0,-2.3691102E-3,2.9911464E-3,-1.2309523E-4,4.0304945E-3,-3.3638978E-3,1.9655353E-4,-0E0,1.1079665E-2,-2.0980444E-3,4.39158E-3],"categories":[],"categories_nodes":[],"categories_segments":[],"categories_sizes":[],"default_left":[0,0,0,0,0,0,0,0,0,0,0,0,0,0,0,0,0,0,0,0,0,0,0,0,0,0,0,0,0,0,0,0,0,0,0,0,0,0,0,0,0,0,0,0,0,0,0,0,0,0,0,0,0,0,0],"id":2,"left_children":[1,3,5,7,9,11,13,15,17,19,-1,21,23,25,27,29,31,33,35,37,-1,39,41,43,45,47,49,51,53,-1,-1,-1,-1,-1,-1,-1,-1,-1,-1,-1,-1,-1,-1,-1,-1,-1,-1,-1,-1,-1,-1,-1,-1,-1,-1],"loss_changes":[1.8412895E1,1.3892319E1,2.4914925E1,1.749018E1,3.19102E0,1.0270748E1,2.2348398E1,1.0572206E1,1.3776901E1,2.532277E0,0E0,5.76908E0,4.2339745E0,1.5765329E1,1.8591637E1,4.8544502E-1,1.1718092E1,9.452259E0,6.57082E0,1.256978E0,0E0,5.45495E0,6.7805004E0,2.372284E-1,1.6756845E0,1.6850204E1,1.468244E1,9.538204E0,6.6622243E0,0E0,0E0,0E0,0E0,0E0,0E0,0E0,0E0,0E0,0E0,0E0,0E0,0E0,0E0,0E0,0E0,0E0,0E0,0E0,0E0,0E0,0E0,0E0,0E0,0E0,0E0],"parents":[2147483647,0,0,1,1,2,2,3,3,4,4,5,5,6,6,7,7,8,8,9,9,11,11,12,12,13,13,14,14,15,15,16,16,17,17,18,18,19,19,21,21,22,22,23,23,24,24,25,25,26,26,27,27,28,28],"right_children":[2,4,6,8,10,12,14,16,18,20,-1,22,24,26,28,30,32,34,36,38,-1,40,42,44,46,48,50,52,54,-1,-1,-1,-1,-1,-1,-1,-1,-1,-1,-1,-1,-1,-1,-1,-1,-1,-1,-1,-1,-1,-1,-1,-1,-1,-1],"split_conditions":[3.7240265E1,-3.31589E1,-8.601368E0,-1.2089209E-2,-5.6142006E0,4.4139427E1,9.911275E1,-1.5822206E2,-4.756399E1,3.6813713E1,-0E0,4.122016E1,8.4905034E-1,5.3723297E1,1.0954012E1,-1.9883357E2,-2.6579237E1,-1.2213171E2,-2.7174982E1,5.79957E-1,-0E0,-4.568593E1,-5.09426E1,5.5166126E1,8.035241E1,5.78E0,1.4110423E1,1.8914344E0,2.7668842E1,-4.9567586E-3,-0E0,9.358576E-3,-0E0,3.6978899E-3,-2.6966066E-3,9.845686E-3,3.3817308E-3,-6.4919023E-3,-0E0,7.6560635E-4,-3.9153467E-3,-3.3467384E-3,2.5893506E-3,-5.5597387E-3,-0E0,-2.3691102E-3,2.9911464E-3,-1.2309523E-4,4.0304945E-3,-3.3638978E-3,1.9655353E-4,-0E0,1.1079665E-2,-2.0980444E-3,4.39158E-3],"split_indices":[1,2,3,7,3,1,2,2,4,1,0,1,7,1,4,2,4,2,4,2,0,4,2,1,2,2,3,3,4,0,0,0,0,0,0,0,0,0,0,0,0,0,0,0,0,0,0,0,0,0,0,0,0,0,0],"split_type":[0,0,0,0,0,0,0,0,0,0,0,0,0,0,0,0,0,0,0,0,0,0,0,0,0,0,0,0,0,0,0,0,0,0,0,0,0,0,0,0,0,0,0,0,0,0,0,0,0,0,0,0,0,0,0],"sum_hessian":[2.8733333E3,6.1688885E2,2.2564443E3,5.5599994E2,6.0888885E1,5.711111E2,1.6853333E3,2.0799998E2,3.4799997E2,5.6444443E1,4.444444E0,3.1111108E2,2.5999997E2,1.515111E3,1.7022221E2,7.2888885E1,1.351111E2,1.4488889E2,2.031111E2,4.9777775E1,6.666666E0,1.6755554E2,1.4355554E2,2.2799998E2,3.1999998E1,7.844444E2,7.306666E2,7.377777E1,9.6444435E1,5.333333E1,1.9555553E1,2.3555553E1,1.1155555E2,8.977777E1,5.5111107E1,9.022221E1,1.12888885E2,4.0888885E1,8.888888E0,2.9333332E1,1.3822221E2,3.6888885E1,1.0666666E2,2.2666666E2,1.3333333E0,2.0888887E1,1.1111111E1,5.644444E2,2.1999998E2,4.013333E2,3.293333E2,7.9999995E0,6.577777E1,5.5555553E1,4.0888885E1],"tree_param":{"num_deleted":"0","num_feature":"8","num_nodes":"55","size_leaf_vector":"1"}},{"base_weights":[-0E0,-3.7396836E-1,1.07374825E-1,-4.9987498E-1,-2.4569505E-1,1.8321635E-1,-1.0075049E-1,-6.613997E-3,-0E0,6.62963E-2,-2.7096224E-1,-5.9860677E-2,3.4013095E-1,1.8667042E-1,-1.358194E-1,1.7041318E-1,-0E0,-2.760413E-1,-0E0,1.4890455E-1,-2.0530449E-1,4.3583286E-1,1.7545046E-1,-0E0,2.3028849E-1,-0E0,-2.1264675E-1,-0E0,2.4719757E-3,-0E0,-3.656719E-3,2.8119779E-3,-1.3219634E-3,2.1178715E-3,-3.1592576E-3,1.0277154E-2,4.1112467E-3,9.653742E-5,3.8073836E-3,-0E0,3.6050694E-3,-6.5071846E-4,1.8322329E-3,-3.3345642E-3,-0E0],"categories":[],"categories_nodes":[],"categories_segments":[],"categories_sizes":[],"default_left":[0,0,0,0,0,0,0,0,0,0,0,0,0,0,0,0,0,0,0,0,0,0,0,0,0,0,0,0,0,0,0,0,0,0,0,0,0,0,0,0,0,0,0,0,0],"id":3,"left_children":[1,3,5,7,9,11,13,-1,-1,15,17,19,21,23,25,27,-1,29,-1,31,33,35,37,-1,39,41,43,-1,-1,-1,-1,-1,-1,-1,-1,-1,-1,-1,-1,-1,-1,-1,-1,-1,-1],"loss_changes":[1.1709621E2,6.2070465E0,3.5756866E1,1.9165039E-2,3.8962746E0,6.467615E1,5.7397714E0,0E0,0E0,3.3400702E-1,7.482853E-1,1.9912716E1,1.2632851E1,7.897527E-1,4.5561285E0,4.081118E-2,0E0,2.0526886E-1,0E0,4.7672005E0,5.6574974E0,1.980442E1,6.2315874E0,0E0,7.5778913E-1,1.1252024E0,2.8975248E0,0E0,0E0,0E0,0E0,0E0,0E0,0E0,0E0,0E0,0E0,0E0,0E0,0E0,0E0,0E0,0E0,0E0,0E0],"parents":[2147483647,0,0,1,1,2,2,3,3,4,4,5,5,6,6,9,9,10,10,11,11,12,12,13,13,14,14,15,15,17,17,19,19,20,20,21,21,22,22,24,24,25,25,26,26],"right_children":[2,4,6,8,10,12,14,-1,-1,16,18,20,22,24,26,28,-1,30,-1,32,34,36,38,-1,40,42,44,-1,-1,-1,-1,-1,-1,-1,-1,-1,-1,-1,-1,-1,-1,-1,-1,-1,-1],"split_conditions":[-3.205994E-2,-5.6318197E-2,4.738E1,1.2389E2,-6.445168E1,-9.861808E-3,3.646108E0,-6.613997E-3,-0E0,1.809E1,3.2528083E0,-1.0656506E1,1.34121065E1,-1.6821098E-2,1.329872E0,-5.4550476E-2,-0E0,-2.2569601E1,-0E0,7.2511854E0,-1.1367094E2,-1.1932398E0,5.4918258E-3,-0E0,5.1182526E1,-2.2670715E0,3.9277653E1,-0E0,2.4719757E-3,-0E0,-3.656719E-3,2.8119779E-3,-1.3219634E-3,2.1178715E-3,-3.1592576E-3,1.0277154E-2,4.1112467E-3,9.653742E-5,3.8073836E-3,-0E0,3.6050694E-3,-6.5071846E-4,1.8322329E-3,-3.3345642E-3,-0E0],"split_indices":[0,0,2,2,3,0,5,0,0,2,4,4,2,0,4,0,0,5,0,5,2,3,0,0,2,4,3,0,0,0,0,0,0,0,0,0,0,0,0,0,0,0,0,0,0],"split_type":[0,0,0,0,0,0,0,0,0,0,0,0,0,0,0,0,0,0,0,0,0,0,0,0,0,0,0,0,0,0,0,0,0,0,0,0,0,0,0,0,0,0,0,0,0],"sum_hessian":[2.8765088E3,6.4816925E2,2.2283396E3,3.0012128E2,3.4804797E2,1.6512437E3,5.7709607E2,2.961342E2,3.9870844E0,1.0641839E1,3.3740616E2,6.3648706E2,1.01475653E3,4.4901024E1,5.32195E2,8.868699E0,1.7731402E0,3.3474194E2,2.664217E0,2.4718681E2,3.8930026E2,6.173799E2,3.9737665E2,2.221162E0,4.2679863E1,2.1728897E2,3.1490607E2,1.3299372E0,7.5387616E0,2.6660426E0,3.320759E2,2.125275E2,3.465932E1,1.998278E1,3.6931747E2,1.442134E2,4.7316647E2,1.8064525E2,2.1673141E2,4.0006456E0,3.8679214E1,1.8884206E2,2.8446915E1,2.6473434E2,5.017172E1],"tree_param":{"num_deleted":"0","num_feature":"8","num_nodes":"45","size_leaf_vector":"1"}},{"base_weights":[8.667122E-4,4.5457274E-1,-5.664478E-2,3.146112E-1,7.8435546E-1,2.4589853E-1,-1.0121632E-1,4.523216E-1,-2.0503184E-1,9.2624354E-1,-0E0,-2.9320866E-1,4.8611045E-1,-1.323898E-1,1.9918871E-1,8.333907E-1,2.74613E-1,-0E0,-2.6048937E-1,-0E0,1.2393532E-2,-1.2471508E-5,-0E0,-0E0,-4.4129863E-1,5.428993E-1,-0E0,1.8286252E-2,-1.9662026E-1,3.989586E-1,-3.3342192E-1,1.1440171E-2,-0E0,-0E0,8.795892E-3,-0E0,-4.4279406E-3,5.0059534E-3,-1.7607281E-3,-6.164945E-3,-0E0,-0E0,7.575242E-3,-0E0,-8.392054E-4,-1.4469854E-3,3.0288468E-3,-2.2081416E-3,-7.322237E-3,7.914202E-3,-0E0,-0E0,-6.0173622E-3],"categories":[],"categories_nodes":[],"categories_segments":[],"categories_sizes":[],"default_left":[0,0,0,0,0,0,0,0,0,0,0,0,0,0,0,0,0,0,0,0,0,0,0,0,0,0,0,0,0,0,0,0,0,0,0,0,0,0,0,0,0,0,0,0,0,0,0,0,0,0,0,0,0],"id":4,"left_children":[1,3,5,7,9,11,13,15,17,19,21,23,25,27,29,31,33,-1,35,-1,-1,-1,-1,37,39,41,43,45,47,49,51,-1,-1,-1,-1,-1,-1,-1,-1,-1,-1,-1,-1,-1,-1,-1,-1,-1,-1,-1,-1,-1,-1],"loss_changes":[7.734786E1,8.719124E0,3.383338E1,1.9873169E1,1.202692E1,4.2460163E1,2.0807379E1,7.531204E0,8.126383E-1,1.1740646E0,1.0511681E-5,5.0901375E0,8.236656E0,2.0755806E1,2.2042807E1,1.1344032E0,1.8765577E1,0E0,1.1759665E0,0E0,0E0,0E0,0E0,2.4189568E0,8.27137E-1,4.586548E0,6.387578E-2,1.6913857E1,1.0979866E1,1.5007172E1,1.4632626E0,0E0,0E0,0E0,0E0,0E0,0E0,0E0,0E0,0E0,0E0,0E0,0E0,0E0,0E0,0E0,0E0,0E0,0E0,0E0,0E0,0E0,0E0],"parents":[2147483647,0,0,1,1,2,2,3,3,4,4,5,5,6,6,7,7,8,8,9,9,10,10,11,11,12,12,13,13,14,14,15,15,16,16,18,18,23,23,24,24,25,25,26,26,27,27,28,28,29,29,30,30],"right_children":[2,4,6,8,10,12,14,16,18,20,22,24,26,28,30,32,34,-1,36,-1,-1,-1,-1,38,40,42,44,46,48,50,52,-1,-1,-1,-1,-1,-1,-1,-1,-1,-1,-1,-1,-1,-1,-1,-1,-1,-1,-1,-1,-1,-1],"split_conditions":[-4.4841686E1,1.3954783E1,-8.738E1,2.8237975E-1,5.2564342E1,-2.3491982E1,6.71268E1,-2.4677E2,3.4233723E1,3.4233723E1,2.2084E2,-5.010045E-2,1.0954012E1,-8.261204E0,2.8385466E1,3.0669062E1,-1.2213171E2,-0E0,-7.496917E1,-0E0,1.2393532E-2,-1.2471508E-5,-0E0,-1.8144495E2,-2.474027E1,2.1746544E1,3.7671033E-2,-1.3691985E1,9.669E1,7.275151E1,6.9562065E1,1.1440171E-2,-0E0,-0E0,8.795892E-3,-0E0,-4.4279406E-3,5.0059534E-3,-1.7607281E-3,-6.164945E-3,-0E0,-0E0,7.575242E-3,-0E0,-8.392054E-4,-1.4469854E-3,3.0288468E-3,-2.2081416E-3,-7.322237E-3,7.914202E-3,-0E0,-0E0,-6.0173622E-3],"split_indices":[4,2,2,7,1,4,1,2,1,1,2,7,4,3,4,1,2,0,3,0,0,0,0,2,4,1,7,3,2,1,1,0,0,0,0,0,0,0,0,0,0,0,0,0,0,0,0,0,0,0,0,0,0],"split_type":[0,0,0,0,0,0,0,0,0,0,0,0,0,0,0,0,0,0,0,0,0,0,0,0,0,0,0,0,0,0,0,0,0,0,0,0,0,0,0,0,0,0,0,0,0,0,0,0,0,0,0,0,0],"sum_hessian":[2.8780945E3,3.2968002E2,2.5484146E3,2.4895406E2,8.072595E1,3.0992667E2,2.2384878E3,2.0491846E2,4.4035606E1,7.049206E1,1.0233895E1,8.8773766E1,2.2115288E2,2.0456486E3,1.9283932E2,5.0355198E1,1.5456326E2,6.68041E0,3.7355194E1,1.3358992E0,6.915616E1,6.67395E0,3.559945E0,2.6239162E1,6.2534607E1,2.042604E2,1.6892473E1,5.891988E2,1.4564497E3,1.4797844E2,4.486087E1,4.724001E1,3.1151893E0,9.080025E1,6.3763016E1,6.6746545E0,3.0680542E1,8.9117775E0,1.7327385E1,5.853387E1,4.000736E0,9.795019E0,1.944654E2,6.225563E0,1.066691E1,3.5389645E2,2.3530237E2,1.3690028E3,8.744694E1,1.0353882E2,4.443963E1,1.643673E1,2.842414E1],"tree_param":{"num_deleted":"0","num_feature":"8","num_nodes":"53","size_leaf_vector":"1"}},{"base_weights":[6.726719E-4,-2.0414604E-1,9.406207E-2,-0E0,-3.2151866E-1,1.8233007E-2,2.0676324E-1,8.5205495E-2,-1.4002939E-1,-1.8605775E-1,-4.1654515E-1,1.921164E-1,-1.10648975E-1,1.5725902E-1,5.579665E-1,-0E0,5.9365517E-1,-2.6860255E-1,1.7943276E-1,-4.0454477E-1,-3.1853088E-3,-0E0,-4.4903255E-1,-5.2447254E-3,3.164763E-1,6.511839E-2,-2.1448243E-1,3.3421397E-1,7.727355E-2,6.413802E-1,-0E0,-1.9797506E-3,5.425934E-4,8.555579E-3,-0E0,-0E0,-4.683861E-3,-0E0,4.3322537E-3,-5.6084953E-3,-0E0,2.7154502E-3,-2.2432683E-3,-0E0,2.9830754E-4,-5.997208E-3,-0E0,-4.2858208E-3,2.0021393E-3,5.3148987E-3,5.56172E-5,-3.4519646E-3,3.0229045E-3,-3.3313606E-3,6.646162E-4,5.780123E-3,-0E0,-2.724264E-3,2.2782353E-3,-0E0,9.665438E-3],"categories":[],"categories_nodes":[],"categories_segments":[],"categories_sizes":[],"default_left":[0,0,0,0,0,0,0,0,0,0,0,0,0,0,0,0,0,0,0,0,0,0,0,0,0,0,0,0,0,0,0,0,0,0,0,0,0,0,0,0,0,0,0,0,0,0,0,0,0,0,0,0,0,0,0,0,0,0,0,0,0],"id":5,"left_children":[1,3,5,7,9,11,13,15,17,19,21,23,25,27,29,31,33,35,37,39,41,43,45,47,49,51,53,55,57,59,-1,-1,-1,-1,-1,-1,-1,-1,-1,-1,-1,-1,-1,-1,-1,-1,-1,-1,-1,-1,-1,-1,-1,-1,-1,-1,-1,-1,-1,-1,-1],"loss_changes":[5.4653534E1,2.2401745E1,1.5939398E1,3.65505E0,3.992405E0,2.8010427E1,9.494171E0,9.902889E0,5.0510387E0,8.643528E0,6.17115E0,1.4833801E1,1.3433707E1,7.727495E0,6.14748E0,1.3025333E0,1.7577686E0,3.5238996E0,1.3694867E0,1.6940765E0,5.728864E0,7.837802E-3,6.7357635E-1,1.114611E1,7.4816513E0,1.3254404E1,5.7666035E0,6.3861027E0,1.3907106E1,4.3904667E0,0E0,0E0,0E0,0E0,0E0,0E0,0E0,0E0,0E0,0E0,0E0,0E0,0E0,0E0,0E0,0E0,0E0,0E0,0E0,0E0,0E0,0E0,0E0,0E0,0E0,0E0,0E0,0E0,0E0,0E0,0E0],"parents":[2147483647,0,0,1,1,2,2,3,3,4,4,5,5,6,6,7,7,8,8,9,9,10,10,11,11,12,12,13,13,14,14,15,15,16,16,17,17,18,18,19,19,20,20,21,21,22,22,23,23,24,24,25,25,26,26,27,27,28,28,29,29],"right_children":[2,4,6,8,10,12,14,16,18,20,22,24,26,28,30,32,34,36,38,40,42,44,46,48,50,52,54,56,58,60,-1,-1,-1,-1,-1,-1,-1,-1,-1,-1,-1,-1,-1,-1,-1,-1,-1,-1,-1,-1,-1,-1,-1,-1,-1,-1,-1,-1,-1,-1,-1],"split_conditions":[3.526492E-2,-5.3065056E-3,-6.4892117E-3,3.667637E-1,5.4918258E-3,1.7234746E-1,8.537286E-2,-5.3315635E0,2.9954033E1,4.9755432E1,2.1030991E-1,-1.2089209E-2,5.3082068E-2,5.401834E1,1.0200464E0,1.4764227E-2,3.45671E-2,4.306613E1,2.2359788E-2,4.759925E-3,6.3987046E-1,4.7278404E1,3.479284E-2,-1.5822206E2,3.8007473E1,-2.6393621E1,5.2908493E1,5.08675E-2,7.5115144E-1,5.5166126E1,-0E0,-1.9797506E-3,5.425934E-4,8.555579E-3,-0E0,-0E0,-4.683861E-3,-0E0,4.3322537E-3,-5.6084953E-3,-0E0,2.7154502E-3,-2.2432683E-3,-0E0,2.9830754E-4,-5.997208E-3,-0E0,-4.2858208E-3,2.0021393E-3,5.3148987E-3,5.56172E-5,-3.4519646E-3,3.0229045E-3,-3.3313606E-3,6.646162E-4,5.780123E-3,-0E0,-2.724264E-3,2.2782353E-3,-0E0,9.665438E-3],"split_indices":[6,0,0,7,0,7,6,2,2,1,7,7,6,1,7,7,6,1,6,0,7,1,6,2,1,2,1,6,7,1,0,0,0,0,0,0,0,0,0,0,0,0,0,0,0,0,0,0,0,0,0,0,0,0,0,0,0,0,0,0,0],"split_type":[0,0,0,0,0,0,0,0,0,0,0,0,0,0,0,0,0,0,0,0,0,0,0,0,0,0,0,0,0,0,0,0,0,0,0,0,0,0,0,0,0,0,0,0,0,0,0,0,0,0,0,0,0,0,0,0,0,0,0,0,0],"sum_hessian":[2.876025E3,8.8205664E2,1.9939681E3,3.127321E2,5.693246E2,1.2219644E3,7.7200385E2,2.1148041E2,1.0125167E2,2.6251477E2,3.0680978E2,5.356392E2,6.863251E2,6.9545135E2,7.655246E1,1.8392174E2,2.755866E1,8.392279E1,1.732888E1,1.043911E2,1.5812367E2,1.2880272E1,2.9392953E2,1.9335887E2,3.4228033E2,2.3768558E2,4.486395E2,1.920868E2,5.0336456E2,7.1663445E1,4.889022E0,4.1317932E1,1.426038E2,2.622627E1,1.3323908E0,1.0663188E1,7.3259605E1,3.108258E0,1.4220622E1,1.0261492E2,1.7761772E0,5.642774E1,1.0169593E2,2.666059E0,1.0214213E1,2.8770926E2,6.2202806E0,7.237652E1,1.2098236E2,2.5343417E2,8.8846176E1,6.8409035E1,1.6927654E2,4.0774252E2,4.0896976E1,1.4183696E2,5.0249844E1,1.12452415E2,3.9091217E2,1.0233137E1,6.1430305E1],"tree_param":{"num_deleted":"0","num_feature":"8","num_nodes":"61","size_leaf_vector":"1"}},{"base_weights":[-0E0,3.3154893E-1,-1.3213797E-1,7.1602064E-1,1.9021407E-1,-3.7810624E-1,-5.6607522E-2,5.2128106E-2,7.5223154E-1,-9.52366E-2,2.4826898E-1,-4.766142E-1,-1.8757834E-1,-2.7744895E-2,-2.5574377E-1,4.9963025E-3,-0E0,-0E0,7.671991E-1,2.0152133E-2,-1.7124039E-1,2.8069326E-1,-9.243295E-2,-0E0,-5.066991E-1,-3.319099E-3,-3.319839E-1,-1.8094194E-1,1.7704688E-2,-3.0550814E-1,-0E0,-0E0,1.018537E-2,1.2378263E-3,-0E0,-0E0,-2.9840362E-3,2.4528403E-3,5.3041168E-3,-2.6901448E-3,-0E0,-3.3483275E-3,3.841846E-3,-6.766961E-3,-0E0,1.3805047E-4,-3.394718E-3,-0E0,-4.7545293E-3,6.3804165E-4,-2.8175851E-3,1.0706984E-3,-8.1525283E-4,-0E0,-4.423551E-3,2.950675E-5,-0E0],"categories":[],"categories_nodes":[],"categories_segments":[],"categories_sizes":[],"default_left":[0,0,0,0,0,0,0,0,0,0,0,0,0,0,0,0,0,0,0,0,0,0,0,0,0,0,0,0,0,0,0,0,0,0,0,0,0,0,0,0,0,0,0,0,0,0,0,0,0,0,0,0,0,0,0,0,0],"id":6,"left_children":[1,3,5,7,9,11,13,15,17,19,21,23,25,27,29,-1,-1,-1,31,33,35,37,39,41,43,45,47,49,51,53,55,-1,-1,-1,-1,-1,-1,-1,-1,-1,-1,-1,-1,-1,-1,-1,-1,-1,-1,-1,-1,-1,-1,-1,-1,-1,-1],"loss_changes":[1.2596635E2,3.9234673E1,3.6080544E1,7.955704E-1,1.106522E1,5.0282593E0,7.7500653E0,1.563581E0,1.2588501E-1,1.5874014E0,6.8873825E0,2.8479614E0,3.2477503E0,1.07612915E1,2.919468E0,0E0,0E0,0E0,8.508835E-1,1.1714813E-1,1.4030323E0,2.398491E0,1.0552744E0,2.2978778E0,1.2848511E0,1.6108327E0,1.3669243E0,3.5814972E0,5.608777E0,2.839548E0,9.897757E-5,0E0,0E0,0E0,0E0,0E0,0E0,0E0,0E0,0E0,0E0,0E0,0E0,0E0,0E0,0E0,0E0,0E0,0E0,0E0,0E0,0E0,0E0,0E0,0E0,0E0,0E0],"parents":[2147483647,0,0,1,1,2,2,3,3,4,4,5,5,6,6,7,7,8,8,9,9,10,10,11,11,12,12,13,13,14,14,18,18,19,19,20,20,21,21,22,22,23,23,24,24,25,25,26,26,27,27,28,28,29,29,30,30],"right_children":[2,4,6,8,10,12,14,16,18,20,22,24,26,28,30,-1,-1,-1,32,34,36,38,40,42,44,46,48,50,52,54,56,-1,-1,-1,-1,-1,-1,-1,-1,-1,-1,-1,-1,-1,-1,-1,-1,-1,-1,-1,-1,-1,-1,-1,-1,-1,-1],"split_conditions":[3.3656918E-2,1.9306865E-2,-3.399924E1,4.1959473E1,4.0465034E1,2.1704395E-1,6.71268E1,-2.866152E-2,-3.7539124E1,2.1456772E-2,6.259E1,1.7080301E1,1.15898825E-1,1.9006677E-1,7.639725E1,4.9963025E-3,-0E0,-0E0,-5.010045E-2,-9.065674E-1,3.3029655E1,5.3723297E1,7.582567E1,-2.4677E2,-2.076E1,5.802268E-1,2.7949072E1,2.7584566E1,3.508442E1,7.622298E-1,1.3331334E-1,-0E0,1.018537E-2,1.2378263E-3,-0E0,-0E0,-2.9840362E-3,2.4528403E-3,5.3041168E-3,-2.6901448E-3,-0E0,-3.3483275E-3,3.841846E-3,-6.766961E-3,-0E0,1.3805047E-4,-3.394718E-3,-0E0,-4.7545293E-3,6.3804165E-4,-2.8175851E-3,1.0706984E-3,-8.1525283E-4,-0E0,-4.423551E-3,2.950675E-5,-0E0],"split_indices":[6,6,3,1,1,7,1,7,2,6,2,1,6,7,1,0,0,0,7,3,1,1,2,2,2,7,1,1,2,7,6,0,0,0,0,0,0,0,0,0,0,0,0,0,0,0,0,0,0,0,0,0,0,0,0,0,0],"split_type":[0,0,0,0,0,0,0,0,0,0,0,0,0,0,0,0,0,0,0,0,0,0,0,0,0,0,0,0,0,0,0,0,0,0,0,0,0,0,0,0,0,0,0,0,0,0,0,0,0,0,0,0,0,0,0,0,0],"sum_hessian":[2.8728096E3,8.129508E2,2.0598586E3,2.0354419E2,6.094066E2,4.6366956E2,1.5961891E3,1.8300453E1,1.8524373E2,8.789709E1,5.215095E2,2.8339578E2,1.8027376E2,1.4210311E3,1.751579E2,6.2576046E0,1.204285E1,7.136783E0,1.7810695E2,1.0239533E1,7.7657555E1,4.9039532E2,3.1114206E1,2.2137249E1,2.6125854E2,9.666735E1,8.3606415E1,3.468864E2,1.0741448E3,1.5252544E2,2.2632462E1,2.2370892E0,1.7586986E2,8.904574E0,1.3349594E0,8.421696E0,6.9235855E1,3.0794504E2,1.8245029E2,2.7553085E1,3.5611215E0,1.6815458E1,5.3217893E0,2.5771628E2,3.542263E0,7.7642265E1,1.9025085E1,3.5391576E0,8.006725E1,2.4812366E1,3.2207404E2,6.3164124E2,4.4250357E2,2.6701145E0,1.4985532E2,1.4637115E1,7.9953456E0],"tree_param":{"num_deleted":"0","num_feature":"8","num_nodes":"57","size_leaf_vector":"1"}},{"base_weights":[-0E0,2.2259873E-1,-1.4207792E-1,4.5121866E-1,1.2239826E-1,-4.5171997E-1,-1.0280544E-1,-8.958353E-2,4.932251E-1,-1.5479809E-1,2.2819524E-1,-5.9809876E-3,-0E0,-1.7686585E-1,1.750266E-2,-1.5992605E-3,-0E0,3.8729712E-1,9.093129E-1,-3.5850504E-1,1.7582348E-1,8.041997E-1,1.578669E-1,-3.921861E-2,-2.6957318E-1,6.423576E-2,-2.9220876E-1,6.327088E-3,-5.3509045E-3,1.36650875E-2,-0E0,-0E0,-5.9022605E-3,5.511955E-3,-5.4618757E-4,-0E0,1.1796449E-2,-3.014327E-4,4.511719E-3,-2.6148397E-3,4.637918E-3,-3.901704E-3,-0E0,-8.5347594E-4,3.2797102E-3,-0E0,-5.7518166E-3],"categories":[],"categories_nodes":[],"categories_segments":[],"categories_sizes":[],"default_left":[0,0,0,0,0,0,0,0,0,0,0,0,0,0,0,0,0,0,0,0,0,0,0,0,0,0,0,0,0,0,0,0,0,0,0,0,0,0,0,0,0,0,0,0,0,0,0],"id":7,"left_children":[1,3,5,7,9,11,13,15,17,19,21,-1,-1,23,25,-1,-1,27,29,31,33,35,37,39,41,43,45,-1,-1,-1,-1,-1,-1,-1,-1,-1,-1,-1,-1,-1,-1,-1,-1,-1,-1,-1,-1],"loss_changes":[9.151771E1,2.2762466E1,1.8369362E1,9.680183E0,2.4249952E1,2.7808E-1,1.4896002E1,5.1321164E-2,5.5644913E0,1.5589101E1,1.8866045E1,0E0,0E0,1.1222139E1,7.364732E0,0E0,0E0,2.138834E1,4.5990868E0,6.4157352E0,5.9623675E0,3.9355698E0,2.0038383E1,2.6628855E1,5.3742523E0,1.352393E1,3.7194395E0,0E0,0E0,0E0,0E0,0E0,0E0,0E0,0E0,0E0,0E0,0E0,0E0,0E0,0E0,0E0,0E0,0E0,0E0,0E0,0E0],"parents":[2147483647,0,0,1,1,2,2,3,3,4,4,5,5,6,6,7,7,8,8,9,9,10,10,13,13,14,14,17,17,18,18,19,19,20,20,21,21,22,22,23,23,24,24,25,25,26,26],"right_children":[2,4,6,8,10,12,14,16,18,20,22,-1,-1,24,26,-1,-1,28,30,32,34,36,38,40,42,44,46,-1,-1,-1,-1,-1,-1,-1,-1,-1,-1,-1,-1,-1,-1,-1,-1,-1,-1,-1,-1],"split_conditions":[-1.6286911E-2,-4.4841686E1,1.8640453E-2,4.670653E-2,-2.5193447E1,2.8385466E1,7.810409E-1,4.0076353E-2,5.9897316E-1,-3.001428E1,-3.1245152E1,-5.9809876E-3,-0E0,-4.2178812E-3,2.8385466E1,-1.5992605E-3,-0E0,-4.224767E-2,-2.6292494E-2,-9.060079E-2,5.9605364E-2,-2.3491982E1,-1.3691985E1,-4.390452E-1,3.5009148E1,1.9142075E-2,3.395577E-2,6.327088E-3,-5.3509045E-3,1.36650875E-2,-0E0,-0E0,-5.9022605E-3,5.511955E-3,-5.4618757E-4,-0E0,1.1796449E-2,-3.014327E-4,4.511719E-3,-2.6148397E-3,4.637918E-3,-3.901704E-3,-0E0,-8.5347594E-4,3.2797102E-3,-0E0,-5.7518166E-3],"split_indices":[0,4,6,6,4,4,7,6,7,3,3,0,0,0,4,0,0,0,0,7,6,4,3,3,3,0,0,0,0,0,0,0,0,0,0,0,0,0,0,0,0,0,0,0,0,0,0],"split_type":[0,0,0,0,0,0,0,0,0,0,0,0,0,0,0,0,0,0,0,0,0,0,0,0,0,0,0,0,0,0,0,0,0,0,0,0,0,0,0,0,0,0,0,0,0,0,0],"sum_hessian":[2.8785964E3,1.1259102E3,1.7526864E3,3.2255185E2,8.033583E2,1.7703502E2,1.5756514E3,1.4260883E1,3.0829095E2,2.0822263E2,5.951357E2,1.7570517E2,1.3298533E0,9.9954895E2,5.761024E2,8.905559E0,5.355325E0,2.630055E2,4.528545E1,1.3793661E2,7.0285995E1,5.1344368E1,5.4379126E2,4.2684265E2,5.727063E2,5.1804095E2,5.8061417E1,2.4253796E2,2.0467543E1,3.7715965E1,7.569485E0,2.0032303E1,1.1790432E2,4.1802994E1,2.8483004E1,6.2256937E0,4.5118675E1,2.6388547E2,2.7990582E2,3.140989E2,1.1274376E2,5.3234106E2,4.036523E1,2.9126825E2,2.2677272E2,1.5527261E1,4.2534157E1],"tree_param":{"num_deleted":"0","num_feature":"8","num_nodes":"47","size_leaf_vector":"1"}},{"base_weights":[-0E0,-2.0839544E-1,9.1864735E-2,-0E0,-3.2320446E-1,-1.0244229E-2,2.237562E-1,7.245704E-2,-1.4803232E-1,-1.9111782E-1,-4.1616887E-1,1.9276746E-1,-1.9163318E-1,-0E0,2.5481465E-1,-3.2780867E-2,2.6140273E-1,-2.595904E-1,-0E0,-4.2544502E-1,-0E0,-0E0,-4.505378E-1,2.842737E-1,-1.7249481E-1,-4.4068545E-3,-2.716313E-1,1.2504047E-1,-3.3891392E-1,3.1602174E-1,5.6933314E-2,-2.2252686E-3,-0E0,5.019559E-3,-0E0,-0E0,-4.7571105E-3,-1.5919552E-4,1.0426295E-3,-5.8837095E-3,-0E0,2.1881694E-3,-2.310003E-3,-0E0,5.5805605E-4,-6.050895E-3,-0E0,-7.179859E-4,5.1404275E-3,-0E0,-4.1591455E-3,-1.4550267E-3,2.1142536E-3,-1.2255971E-3,-5.823081E-3,2.9719437E-3,-0E0,-5.076648E-3,-0E0,4.647529E-3,-0E0,-5.0822895E-5,5.7115457E-3],"categories":[],"categories_nodes":[],"categories_segments":[],"categories_sizes":[],"default_left":[0,0,0,0,0,0,0,0,0,0,0,0,0,0,0,0,0,0,0,0,0,0,0,0,0,0,0,0,0,0,0,0,0,0,0,0,0,0,0,0,0,0,0,0,0,0,0,0,0,0,0,0,0,0,0,0,0,0,0,0,0,0,0],"id":8,"left_children":[1,3,5,7,9,11,13,15,17,19,21,23,25,27,29,31,33,35,37,39,41,43,45,47,49,51,53,55,57,59,61,-1,-1,-1,-1,-1,-1,-1,-1,-1,-1,-1,-1,-1,-1,-1,-1,-1,-1,-1,-1,-1,-1,-1,-1,-1,-1,-1,-1,-1,-1,-1,-1],"loss_changes":[5.5721333E1,2.1519665E1,2.794632E1,3.486096E0,3.6664429E0,4.0975407E1,5.4022217E0,5.5801797E0,2.1921291E0,1.0198426E1,6.43713E0,1.7925816E1,7.6096134E0,4.883005E0,7.3847084E0,1.0350533E0,3.7975478E0,2.8684206E0,1.609308E-1,1.7962227E0,4.9995966E0,2.9026343E-2,1.1747437E0,1.7086918E1,2.4397352E0,3.4151788E0,9.405109E0,2.3625395E0,7.1551704E-1,6.7992325E0,6.927698E0,0E0,0E0,0E0,0E0,0E0,0E0,0E0,0E0,0E0,0E0,0E0,0E0,0E0,0E0,0E0,0E0,0E0,0E0,0E0,0E0,0E0,0E0,0E0,0E0,0E0,0E0,0E0,0E0,0E0,0E0,0E0,0E0],"parents":[2147483647,0,0,1,1,2,2,3,3,4,4,5,5,6,6,7,7,8,8,9,9,10,10,11,11,12,12,13,13,14,14,15,15,16,16,17,17,18,18,19,19,20,20,21,21,22,22,23,23,24,24,25,25,26,26,27,27,28,28,29,29,30,30],"right_children":[2,4,6,8,10,12,14,16,18,20,22,24,26,28,30,32,34,36,38,40,42,44,46,48,50,52,54,56,58,60,62,-1,-1,-1,-1,-1,-1,-1,-1,-1,-1,-1,-1,-1,-1,-1,-1,-1,-1,-1,-1,-1,-1,-1,-1,-1,-1,-1,-1,-1,-1,-1,-1],"split_conditions":[3.526492E-2,-5.3065056E-3,-5.155798E0,3.667637E-1,5.4918258E-3,1.7234746E-1,3.9498404E-2,1.9006677E-1,-7.1055045E0,4.9755432E1,2.1030991E-1,-1.3691985E1,5.3082068E-2,6.0174747E1,2.8592762E1,-2.701535E-4,-1.1564825E-2,4.3294792E1,6.186334E-1,4.759925E-3,6.7201763E-1,4.7278404E1,3.479284E-2,2.3400965E1,3.8007473E1,-8.907456E0,4.306613E1,3.845027E-2,2.591753E1,6.669791E1,4.5913275E-2,-2.2252686E-3,-0E0,5.019559E-3,-0E0,-0E0,-4.7571105E-3,-1.5919552E-4,1.0426295E-3,-5.8837095E-3,-0E0,2.1881694E-3,-2.310003E-3,-0E0,5.5805605E-4,-6.050895E-3,-0E0,-7.179859E-4,5.1404275E-3,-0E0,-4.1591455E-3,-1.4550267E-3,2.1142536E-3,-1.2255971E-3,-5.823081E-3,2.9719437E-3,-0E0,-5.076648E-3,-0E0,4.647529E-3,-0E0,-5.0822895E-5,5.7115457E-3],"split_indices":[6,0,3,7,0,7,6,7,3,1,7,3,6,1,3,7,0,1,7,0,7,1,6,1,1,3,1,6,3,1,0,0,0,0,0,0,0,0,0,0,0,0,0,0,0,0,0,0,0,0,0,0,0,0,0,0,0,0,0,0,0,0,0],"split_type":[0,0,0,0,0,0,0,0,0,0,0,0,0,0,0,0,0,0,0,0,0,0,0,0,0,0,0,0,0,0,0,0,0,0,0,0,0,0,0,0,0,0,0,0,0,0,0,0,0,0,0,0,0,0,0,0,0,0,0,0,0,0,0],"sum_hessian":[2.8803848E3,8.9038226E2,1.9900026E3,3.171296E2,5.732526E2,1.1028723E3,8.8713025E2,2.1599026E2,1.0113935E2,2.6532874E2,3.079239E2,5.0726233E2,5.9561E2,1.21023346E2,7.661069E2,1.2438238E2,9.160789E1,6.2045715E1,3.9093636E1,1.0589545E2,1.5943329E2,1.4208942E1,2.9371494E2,4.1747345E2,8.978887E1,1.98596E2,3.9701398E2,9.745829E1,2.3565056E1,5.6354333E2,2.0256354E2,3.5956085E1,8.842629E1,6.629184E1,2.5316051E1,1.0664768E1,5.1380947E1,1.9083208E1,2.001043E1,1.0411985E2,1.7755969E0,6.890758E1,9.052572E1,3.1091533E0,1.109979E1,2.8660678E2,7.108178E0,8.943551E1,3.2803793E2,4.2263203E1,4.7525673E1,1.402762E2,5.8319794E1,2.1263834E2,1.8437564E2,7.253352E1,2.4924768E1,2.178659E1,1.7784653E0,5.0345963E2,6.0083706E1,1.673316E2,3.5231934E1],"tree_param":{"num_deleted":"0","num_feature":"8","num_nodes":"63","size_leaf_vector":"1"}},{"base_weights":[-1.3315902E-3,5.9847635E-1,-7.622994E-2,7.4428236E-1,3.2706288E-1,-3.640398E-1,1.8889235E-2,9.8568555E-3,-0E0,-0E0,3.9157116E-1,-4.9582705E-1,-2.3027313E-1,4.8616353E-2,-2.220884E-1,4.4166622E-1,-0E0,-0E0,-5.0143194E-1,4.1239213E-2,-2.5555354E-1,-7.645857E-2,1.345768E-1,-0E0,-2.7217898E-1,-0E0,6.2510236E-3,-0E0,-6.635974E-3,-0E0,1.427429E-3,-4.8241857E-3,-1.2199489E-3,3.114757E-3,-1.4316032E-3,2.9469521E-3,-0E0,-0E0,1.8561829E-3,-0E0,-4.1282414E-3],"categories":[],"categories_nodes":[],"categories_segments":[],"categories_sizes":[],"default_left":[0,0,0,0,0,0,0,0,0,0,0,0,0,0,0,0,0,0,0,0,0,0,0,0,0,0,0,0,0,0,0,0,0,0,0,0,0,0,0,0,0],"id":9,"left_children":[1,3,5,7,9,11,13,-1,-1,-1,15,17,19,21,23,25,-1,-1,27,29,31,33,35,37,39,-1,-1,-1,-1,-1,-1,-1,-1,-1,-1,-1,-1,-1,-1,-1,-1],"loss_changes":[1.2691212E2,5.798584E0,7.212816E1,7.8201294E-2,2.8947258E0,7.2888565E0,1.2966581E1,0E0,0E0,0E0,3.3567963E0,3.7400818E-1,3.537836E0,1.8995327E1,3.5097647E0,2.2084541E0,0E0,0E0,3.5446167E-2,1.18269674E-1,3.685398E0,6.471974E0,1.2760538E1,3.7471908E-1,3.2850685E0,0E0,0E0,0E0,0E0,0E0,0E0,0E0,0E0,0E0,0E0,0E0,0E0,0E0,0E0,0E0,0E0],"parents":[2147483647,0,0,1,1,2,2,3,3,4,4,5,5,6,6,10,10,11,11,12,12,13,13,14,14,15,15,18,18,19,19,20,20,21,21,22,22,23,23,24,24],"right_children":[2,4,6,8,10,12,14,-1,-1,-1,16,18,20,22,24,26,-1,-1,28,30,32,34,36,38,40,-1,-1,-1,-1,-1,-1,-1,-1,-1,-1,-1,-1,-1,-1,-1,-1],"split_conditions":[2.1456772E-2,1.8640453E-2,-3.205994E-2,2.282559E-2,-1.0903223E-2,-5.6318197E-2,6.71268E1,9.8568555E-3,-0E0,-0E0,2.0092605E-2,5.2503396E-2,2.1746544E1,-9.861808E-3,3.4924824E0,-5.5972915E0,-0E0,-0E0,-3.167544E-1,-1.6694141E1,1.7234746E-1,3.4031197E1,3.8562949E0,2.9784648E-2,2.1888597E-2,-0E0,6.2510236E-3,-0E0,-6.635974E-3,-0E0,1.427429E-3,-4.8241857E-3,-1.2199489E-3,3.114757E-3,-1.4316032E-3,2.9469521E-3,-0E0,-0E0,1.8561829E-3,-0E0,-4.1282414E-3],"split_indices":[6,6,0,0,0,0,1,0,0,0,0,6,1,0,5,5,0,0,7,5,7,1,5,0,0,0,0,0,0,0,0,0,0,0,0,0,0,0,0,0,0],"split_type":[0,0,0,0,0,0,0,0,0,0,0,0,0,0,0,0,0,0,0,0,0,0,0,0,0,0,0,0,0,0,0,0,0,0,0,0,0,0,0,0,0],"sum_hessian":[2.8730483E3,3.0764304E2,2.5654053E3,1.8247977E2,1.2516327E2,6.4678986E2,1.9186155E3,1.7978366E2,2.6961067E0,2.0474813E1,1.0468846E2,3.0015988E2,3.4663E2,1.7299484E3,1.886672E2,9.8425446E1,6.2630124E0,5.2963576E0,2.9486353E2,1.2409872E1,3.3422012E2,6.811874E2,1.048761E3,1.734681E1,1.7132039E2,4.4766665E0,9.394878E1,3.9764893E0,2.9088702E2,4.873305E0,7.536567E0,1.763698E2,1.5785033E2,4.6524616E1,6.346627E2,6.2840314E2,4.2035785E2,3.5602264E0,1.3786584E1,1.0630949E1,1.6068944E2],"tree_param":{"num_deleted":"0","num_feature":"8","num_nodes":"41","size_leaf_vector":"1"}},{"base_weights":[-0E0,2.1714707E-1,-1.405214E-1,5.103438E-1,1.3970095E-1,-1.861583E-1,1.9926581E-1,3.7207356E-1,8.9643157E-1,-0E0,2.2269605E-1,-3.281691E-2,-2.3078267E-1,3.793192E-1,-2.9374695E-1,4.8677158E-1,-1.5736696E-1,1.3973422E-2,-0E0,2.3170184E-1,-1.2118004E-1,3.1015533E-1,-3.8808566E-2,-2.5824046E-1,1.0537774E-1,-3.5437843E-1,-1.3914923E-1,5.8559895E-1,-1.6964002E-3,-0E0,-5.7495628E-3,-0E0,6.7599392E-3,-0E0,-4.396374E-3,4.2000525E-3,-0E0,-4.3495717E-3,2.4194063E-3,4.4518244E-3,-1.8430083E-3,-2.758897E-3,4.946748E-3,-4.868638E-3,-0E0,4.0517845E-3,-1.1663262E-3,-2.874772E-4,-5.2346196E-3,-7.6120836E-4,-5.3196144E-3,9.618968E-3,-0E0,-5.016706E-3,1.6420007E-3,-1.5520143E-3,1.4103934E-3],"categories":[],"categories_nodes":[],"categories_segments":[],"categories_sizes":[],"default_left":[0,0,0,0,0,0,0,0,0,0,0,0,0,0,0,0,0,0,0,0,0,0,0,0,0,0,0,0,0,0,0,0,0,0,0,0,0,0,0,0,0,0,0,0,0,0,0,0,0,0,0,0,0,0,0,0,0],"id":10,"left_children":[1,3,5,7,9,11,13,15,17,19,21,23,25,27,29,31,33,-1,-1,35,37,39,41,43,45,47,49,51,53,55,-1,-1,-1,-1,-1,-1,-1,-1,-1,-1,-1,-1,-1,-1,-1,-1,-1,-1,-1,-1,-1,-1,-1,-1,-1,-1,-1],"loss_changes":[8.780466E1,2.2052055E1,2.7230328E1,3.7738E0,1.0181593E1,9.297192E0,1.8423717E1,1.2998001E1,8.193562E0,1.0292522E1,1.4340977E1,1.2801161E1,1.06478195E1,1.4989662E1,1.8964887E0,1.9804802E0,1.6542776E0,0E0,0E0,2.5862446E0,1.57988405E1,6.870125E0,8.9217825E0,4.4285736E0,1.0161196E1,4.802437E0,1.2865764E1,7.921112E0,3.94709E0,3.3789325E-1,0E0,0E0,0E0,0E0,0E0,0E0,0E0,0E0,0E0,0E0,0E0,0E0,0E0,0E0,0E0,0E0,0E0,0E0,0E0,0E0,0E0,0E0,0E0,0E0,0E0,0E0,0E0],"parents":[2147483647,0,0,1,1,2,2,3,3,4,4,5,5,6,6,7,7,8,8,9,9,10,10,11,11,12,12,13,13,14,14,15,15,16,16,19,19,20,20,21,21,22,22,23,23,24,24,25,25,26,26,27,27,28,28,29,29],"right_children":[2,4,6,8,10,12,14,16,18,20,22,24,26,28,30,32,34,-1,-1,36,38,40,42,44,46,48,50,52,54,56,-1,-1,-1,-1,-1,-1,-1,-1,-1,-1,-1,-1,-1,-1,-1,-1,-1,-1,-1,-1,-1,-1,-1,-1,-1,-1,-1],"split_conditions":[-1.6286911E-2,-5.3497074E1,6.71268E1,1.0785737E1,-2.3491982E1,-6.4892117E-3,2.8385466E1,-5.2152224E-2,5.2564342E1,-4.3424213E1,1.8936583E-1,4.4868427E1,6.2202394E-1,7.275151E1,6.9562065E1,-1.2144241E2,-4.025935E0,1.3973422E-2,-0E0,-4.395008E-2,3.049994E-1,7.0044837E0,5.7182636E0,-3.304114E-1,5.8880454E-1,4.459079E1,8.759433E0,1.0901653E0,9.68975E0,4.4945984E0,-5.7495628E-3,-0E0,6.7599392E-3,-0E0,-4.396374E-3,4.2000525E-3,-0E0,-4.3495717E-3,2.4194063E-3,4.4518244E-3,-1.8430083E-3,-2.758897E-3,4.946748E-3,-4.868638E-3,-0E0,4.0517845E-3,-1.1663262E-3,-2.874772E-4,-5.2346196E-3,-7.6120836E-4,-5.3196144E-3,9.618968E-3,-0E0,-5.016706E-3,1.6420007E-3,-1.5520143E-3,1.4103934E-3],"split_indices":[0,4,1,5,4,0,4,0,1,4,5,1,7,1,1,4,5,0,0,0,7,4,5,4,7,1,5,7,5,5,0,0,0,0,0,0,0,0,0,0,0,0,0,0,0,0,0,0,0,0,0,0,0,0,0,0,0],"split_type":[0,0,0,0,0,0,0,0,0,0,0,0,0,0,0,0,0,0,0,0,0,0,0,0,0,0,0,0,0,0,0,0,0,0,0,0,0,0,0,0,0,0,0,0,0,0,0,0,0,0,0,0,0,0,0,0,0],"sum_hessian":[2.8682825E3,1.1249957E3,1.7432867E3,2.1573889E2,9.0925684E2,1.5518352E3,1.914516E2,1.7561469E2,4.0124218E1,3.4917194E2,5.600849E2,3.7701904E2,1.174816E3,1.4850925E2,4.294235E1,1.524375E2,2.3177174E1,3.4327625E1,5.7965913E0,1.23668686E2,2.2550327E2,4.3334436E2,1.2674057E2,1.5538768E2,2.2163136E2,4.7084088E2,7.039752E2,1.03119194E2,4.5390057E1,1.6416332E1,2.6526014E1,8.938979E0,1.4349852E2,7.1566176E0,1.6020555E1,8.796504E1,3.570364E1,1.4311777E2,8.23855E1,4.1910107E2,1.4243286E1,1.0003093E2,2.6709642E1,1.052175E2,5.017018E1,1.19518295E2,1.02113075E2,6.907774E1,4.0176315E2,5.581781E2,1.4579712E2,7.9007866E1,2.4111324E1,1.869658E1,2.6693476E1,8.869549E0,7.5467834E0],"tree_param":{"num_deleted":"0","num_feature":"8","num_nodes":"57","size_leaf_vector":"1"}},{"base_weights":[-2.1448024E-3,-2.162066E-1,9.136363E-2,-4.3384526E-2,-3.1288213E-1,-1.2183338E-2,2.1852651E-1,-1.0209385E-1,4.319296E-1,-2.5153154E-1,-5.902975E-1,1.7656362E-1,-1.8663648E-1,-3.7483665E-1,2.4569263E-1,4.0070128E-2,-3.4576777E-1,-0E0,4.8771375E-1,-3.5781637E-1,-1.21496916E-1,-6.119237E-1,-0E0,2.698298E-1,-2.062323E-1,-0E0,-2.673612E-1,-5.9055127E-3,-0E0,5.322254E-1,1.691899E-1,-0E0,6.190774E-3,-5.622315E-3,-0E0,7.214224E-3,-0E0,-0E0,-5.11115E-3,1.015038E-3,-3.4700339E-3,-0E0,-8.179047E-3,-0E0,6.122209E-3,-0E0,-3.6145344E-3,-1.5976788E-3,3.9629657E-3,-9.857457E-4,-5.060765E-3,7.5398973E-4,9.3874E-3,1.1305722E-3,4.6332395E-3],"categories":[],"categories_nodes":[],"categories_segments":[],"categories_sizes":[],"default_left":[0,0,0,0,0,0,0,0,0,0,0,0,0,0,0,0,0,0,0,0,0,0,0,0,0,0,0,0,0,0,0,0,0,0,0,0,0,0,0,0,0,0,0,0,0,0,0,0,0,0,0,0,0,0,0],"id":11,"left_children":[1,3,5,7,9,11,13,15,17,19,21,23,25,27,29,31,33,-1,35,37,39,41,-1,43,45,47,49,-1,-1,51,53,-1,-1,-1,-1,-1,-1,-1,-1,-1,-1,-1,-1,-1,-1,-1,-1,-1,-1,-1,-1,-1,-1,-1,-1],"loss_changes":[5.8230545E1,1.3040646E1,2.7205849E1,8.172241E0,4.445755E0,3.5715866E1,1.4542191E1,1.2670473E1,1.193121E0,3.9595184E0,1.4574757E0,1.8685024E1,8.9035015E0,1.0949087E0,1.5436405E1,5.449053E0,3.0529575E0,0E0,1.381958E0,3.5794468E0,7.9084396E0,5.061817E-1,0E0,2.2928375E1,2.1243534E0,6.7815523E0,6.7352276E0,0E0,0E0,1.0660576E1,8.624851E0,0E0,0E0,0E0,0E0,0E0,0E0,0E0,0E0,0E0,0E0,0E0,0E0,0E0,0E0,0E0,0E0,0E0,0E0,0E0,0E0,0E0,0E0,0E0,0E0],"parents":[2147483647,0,0,1,1,2,2,3,3,4,4,5,5,6,6,7,7,8,8,9,9,10,10,11,11,12,12,13,13,14,14,15,15,16,16,18,18,19,19,20,20,21,21,23,23,24,24,25,25,26,26,29,29,30,30],"right_children":[2,4,6,8,10,12,14,16,18,20,22,24,26,28,30,32,34,-1,36,38,40,42,-1,44,46,48,50,-1,-1,52,54,-1,-1,-1,-1,-1,-1,-1,-1,-1,-1,-1,-1,-1,-1,-1,-1,-1,-1,-1,-1,-1,-1,-1,-1],"split_conditions":[3.526492E-2,-3.038079E0,-5.9367104E0,6.8382235E0,4.096E1,1.7234746E-1,-8.581E1,3.667637E-1,2.0562915E-2,2.499696E0,2.5194365E1,-1.3691985E1,5.1441934E-2,1.00128636E-1,4.7803712E-1,-2.2551098E0,4.571878E0,-0E0,1.0620863E0,-7.1962E0,6.7201763E-1,6.571345E-1,-0E0,-1.6156088E2,-1.7879179E-1,1.4685361E1,3.177651E-1,-5.9055127E-3,-0E0,4.1098848E-2,1.0035238E1,-0E0,6.190774E-3,-5.622315E-3,-0E0,7.214224E-3,-0E0,-0E0,-5.11115E-3,1.015038E-3,-3.4700339E-3,-0E0,-8.179047E-3,-0E0,6.122209E-3,-0E0,-3.6145344E-3,-1.5976788E-3,3.9629657E-3,-9.857457E-4,-5.060765E-3,7.5398973E-4,9.3874E-3,1.1305722E-3,4.6332395E-3],"split_indices":[6,3,3,5,2,7,2,7,6,2,3,3,6,6,7,2,5,0,7,5,7,7,0,2,7,2,7,0,0,6,5,0,0,0,0,0,0,0,0,0,0,0,0,0,0,0,0,0,0,0,0,0,0,0,0],"split_type":[0,0,0,0,0,0,0,0,0,0,0,0,0,0,0,0,0,0,0,0,0,0,0,0,0,0,0,0,0,0,0,0,0,0,0,0,0,0,0,0,0,0,0,0,0,0,0,0,0,0,0,0,0,0,0],"sum_hessian":[2.867996E3,8.8619867E2,1.9817975E3,3.3905322E2,5.4714545E2,1.0731487E3,9.0864874E2,3.1463577E2,2.4417442E1,4.7062375E2,7.652172E1,5.016618E2,5.7148694E2,2.8920628E1,8.7972815E2,1.8838625E2,1.26249535E2,1.3286513E0,2.308879E1,2.3298328E2,2.3764047E2,7.4753685E1,1.7680398E0,4.150696E2,8.659217E1,1.7100912E2,4.004778E2,2.4028757E1,4.8918705E0,1.6533641E2,7.143917E2,1.6742757E2,2.0958687E1,9.7430214E1,2.8819326E1,2.176188E1,1.3269091E0,1.2843954E1,2.2013931E2,8.555643E1,1.5208405E2,1.3343847E0,7.34193E1,1.734513E2,2.4161833E2,1.2000008E1,7.459216E1,1.2207417E2,4.8934948E1,1.7125322E2,2.292246E2,5.525027E1,1.10086136E2,5.152664E2,1.9912529E2],"tree_param":{"num_deleted":"0","num_feature":"8","num_nodes":"55","size_leaf_vector":"1"}},{"base_weights":[-1.0967365E-4,3.4925124E-1,-1.19996116E-1,6.943485E-1,1.9816041E-1,-3.7108836E-1,-1.0325904E-2,1.8278427E-2,7.311135E-1,-0E0,3.2432252E-1,-4.8531312E-1,-2.4816622E-1,1.7880104E-2,-2.4646503E-1,2.2242646E-1,-0E0,9.679953E-3,-0E0,-1.2678023E-1,3.1966887E-2,3.6456123E-1,-0E0,-0E0,-4.907239E-1,4.166265E-2,-2.7496377E-1,-6.855867E-2,8.409521E-2,-2.9604253E-1,-0E0,-0E0,3.8653188E-3,-0E0,-3.7800001E-3,1.5842004E-3,-1.4435945E-3,-0E0,5.064548E-3,-8.218571E-4,-0E0,-0E0,-6.589766E-3,-0E0,3.2956456E-3,-4.888843E-4,-4.0895E-3,1.0613912E-3,-3.3218814E-3,2.4778426E-3,-0E0,-0E0,-4.262144E-3,4.469583E-4,-0E0],"categories":[],"categories_nodes":[],"categories_segments":[],"categories_sizes":[],"default_left":[0,0,0,0,0,0,0,0,0,0,0,0,0,0,0,0,0,0,0,0,0,0,0,0,0,0,0,0,0,0,0,0,0,0,0,0,0,0,0,0,0,0,0,0,0,0,0,0,0,0,0,0,0,0,0],"id":12,"left_children":[1,3,5,7,9,11,13,15,17,19,21,23,25,27,29,31,-1,-1,-1,33,35,37,39,-1,41,43,45,47,49,51,53,-1,-1,-1,-1,-1,-1,-1,-1,-1,-1,-1,-1,-1,-1,-1,-1,-1,-1,-1,-1,-1,-1,-1,-1],"loss_changes":[1.198003E2,3.276172E1,5.757008E1,1.3893433E0,1.3533916E1,4.755821E0,1.1307419E1,8.3953774E-1,5.4000854E-2,9.8256034E-1,5.0542793E0,3.4690094E-1,3.8716793E0,7.810604E0,2.9475784E0,2.855621E-1,0E0,0E0,0E0,1.6461927E0,2.1022437E0,3.2651901E0,6.664324E-2,0E0,3.106537E-1,6.4617145E-1,1.027422E0,1.6194645E1,7.620059E0,2.4248438E0,2.6260687E-2,0E0,0E0,0E0,0E0,0E0,0E0,0E0,0E0,0E0,0E0,0E0,0E0,0E0,0E0,0E0,0E0,0E0,0E0,0E0,0E0,0E0,0E0,0E0,0E0],"parents":[2147483647,0,0,1,1,2,2,3,3,4,4,5,5,6,6,7,7,8,8,9,9,10,10,11,11,12,12,13,13,14,14,15,15,19,19,20,20,21,21,22,22,24,24,25,25,26,26,27,27,28,28,29,29,30,30],"right_children":[2,4,6,8,10,12,14,16,18,20,22,24,26,28,30,32,-1,-1,-1,34,36,38,40,-1,42,44,46,48,50,52,54,-1,-1,-1,-1,-1,-1,-1,-1,-1,-1,-1,-1,-1,-1,-1,-1,-1,-1,-1,-1,-1,-1,-1,-1],"split_conditions":[3.174679E-2,1.9306865E-2,-3.205994E-2,4.1959473E1,-5.3065056E-3,-5.6318197E-2,6.71268E1,4.1660717E1,2.282559E-2,3.8007473E1,2.1238549E-2,5.2503396E-2,2.1746544E1,-1.0659416E-2,7.639725E1,-3.9760504E0,-0E0,9.679953E-3,-0E0,3.60775E1,4.824484E1,-1.6610065E1,1.4075509E1,-0E0,1.4907183E1,-2.2778585E1,-4.9505466E1,-9.261413E0,4.5548353E-2,1.9142075E-2,4.48021E1,-0E0,3.8653188E-3,-0E0,-3.7800001E-3,1.5842004E-3,-1.4435945E-3,-0E0,5.064548E-3,-8.218571E-4,-0E0,-0E0,-6.589766E-3,-0E0,3.2956456E-3,-4.888843E-4,-4.0895E-3,1.0613912E-3,-3.3218814E-3,2.4778426E-3,-0E0,-0E0,-4.262144E-3,4.469583E-4,-0E0],"split_indices":[6,6,0,1,0,0,1,1,0,1,0,6,1,0,1,4,0,0,0,1,1,4,4,0,1,4,4,4,6,0,4,0,0,0,0,0,0,0,0,0,0,0,0,0,0,0,0,0,0,0,0,0,0,0,0],"split_type":[0,0,0,0,0,0,0,0,0,0,0,0,0,0,0,0,0,0,0,0,0,0,0,0,0,0,0,0,0,0,0,0,0,0,0,0,0,0,0,0,0,0,0,0,0,0,0,0,0,0,0,0,0,0,0],"sum_hessian":[2.877678E3,7.221091E2,2.1555688E3,2.043333E2,5.1777576E2,6.378009E2,1.5177681E3,1.7938972E1,1.8639433E2,1.989462E2,3.1882956E2,3.0187152E2,3.3592938E2,1.3410336E3,1.7673442E2,1.2124343E1,5.8146296E0,1.8369699E2,2.697335E0,4.6094578E1,1.5285162E2,2.8931818E2,2.951138E1,5.2893476E0,2.9658215E2,1.240502E1,3.2352438E2,5.488558E2,7.9217786E2,1.5459436E2,2.2140064E1,4.027932E0,8.096411E0,2.126495E1,2.4829626E1,1.1625187E2,3.659976E1,8.901976E0,2.804162E2,1.2043042E1,1.7468336E1,1.1462291E1,2.8511987E2,6.6479225E0,5.7570972E0,6.2330864E1,2.611935E2,2.8968396E2,2.591718E2,3.679963E2,4.2418152E2,3.5364547E0,1.510579E2,1.7706789E1,4.4332747E0],"tree_param":{"num_deleted":"0","num_feature":"8","num_nodes":"55","size_leaf_vector":"1"}},{"base_weights":[-0E0,1.8026352E-1,-1.1757367E-1,8.70807E-2,3.8756883E-1,-4.4531405E-1,-7.607797E-2,4.0489244E-3,2.7592236E-1,2.7236328E-1,7.6842993E-1,-4.6057582E-1,-0E0,4.325811E-1,-9.8452814E-2,4.7954747E-1,-3.4252986E-2,6.474654E-2,4.3058217E-1,5.952919E-1,1.1281881E-1,8.6503124E-1,-0E0,-4.743197E-1,-0E0,-0E0,-2.7554051E-4,5.99193E-1,-3.0973012E-4,-3.693319E-1,-4.0141083E-2,-0E0,9.759473E-3,-1.2828436E-3,3.4030825E-3,4.8601604E-3,-2.4405945E-5,6.364265E-3,-0E0,1.0793582E-2,1.395133E-4,-9.2614326E-4,4.0953504E-3,1.173658E-2,-0E0,-6.7029577E-3,-0E0,-0E0,8.878399E-3,-2.2932726E-3,-7.134766E-3,-1.0174771E-3,1.8168046E-3],"categories":[],"categories_nodes":[],"categories_segments":[],"categories_sizes":[],"default_left":[0,0,0,0,0,0,0,0,0,0,0,0,0,0,0,0,0,0,0,0,0,0,0,0,0,0,0,0,0,0,0,0,0,0,0,0,0,0,0,0,0,0,0,0,0,0,0,0,0,0,0,0,0],"id":13,"left_children":[1,3,5,7,9,11,13,15,17,19,21,23,25,27,29,31,33,35,37,39,41,43,-1,45,-1,-1,-1,47,-1,49,51,-1,-1,-1,-1,-1,-1,-1,-1,-1,-1,-1,-1,-1,-1,-1,-1,-1,-1,-1,-1,-1,-1],"loss_changes":[6.137302E1,1.9695614E1,2.0801353E1,1.1409386E1,8.61945E0,6.0943604E-2,1.6278881E1,1.3074793E1,4.9329815E0,1.0447468E1,6.0618286E0,7.769699E-1,5.299174E-3,7.29397E0,2.1670216E1,8.080681E0,9.387236E0,4.225649E0,4.0566616E0,6.419096E0,8.697515E0,1.1724281E0,0E0,2.15794E0,0E0,0E0,0E0,3.652977E0,0E0,4.4266167E0,8.128677E0,0E0,0E0,0E0,0E0,0E0,0E0,0E0,0E0,0E0,0E0,0E0,0E0,0E0,0E0,0E0,0E0,0E0,0E0,0E0,0E0,0E0,0E0],"parents":[2147483647,0,0,1,1,2,2,3,3,4,4,5,5,6,6,7,7,8,8,9,9,10,10,11,11,12,12,13,13,14,14,15,15,16,16,17,17,18,18,19,19,20,20,21,21,23,23,27,27,29,29,30,30],"right_children":[2,4,6,8,10,12,14,16,18,20,22,24,26,28,30,32,34,36,38,40,42,44,-1,46,-1,-1,-1,48,-1,50,52,-1,-1,-1,-1,-1,-1,-1,-1,-1,-1,-1,-1,-1,-1,-1,-1,-1,-1,-1,-1,-1,-1],"split_conditions":[-8.765771E0,9.498277E-2,1.8640453E-2,-1.3691985E1,1.4685361E1,2.599238E0,-8.497459E1,-1.6156088E2,4.0326286E-2,-2.3182361E2,8.4905034E-1,1.0002352E0,1.952E1,1.081616E1,-2.9112697E0,-1.637914E1,5.6078887E-1,9.966204E-2,6.621E1,6.7083254E-2,1.7040902E-1,-1.8524048E1,-0E0,2.136E1,-0E0,-0E0,-2.7554051E-4,-1.3448141E2,-3.0973012E-4,4.1098848E-2,9.822896E-1,-0E0,9.759473E-3,-1.2828436E-3,3.4030825E-3,4.8601604E-3,-2.4405945E-5,6.364265E-3,-0E0,1.0793582E-2,1.395133E-4,-9.2614326E-4,4.0953504E-3,1.173658E-2,-0E0,-6.7029577E-3,-0E0,-0E0,8.878399E-3,-2.2932726E-3,-7.134766E-3,-1.0174771E-3,1.8168046E-3],"split_indices":[3,6,6,3,2,5,2,2,6,2,7,7,2,3,5,5,7,7,2,7,7,3,0,2,0,0,0,2,0,6,7,0,0,0,0,0,0,0,0,0,0,0,0,0,0,0,0,0,0,0,0,0,0],"split_type":[0,0,0,0,0,0,0,0,0,0,0,0,0,0,0,0,0,0,0,0,0,0,0,0,0,0,0,0,0,0,0,0,0,0,0,0,0,0,0,0,0,0,0,0,0,0,0,0,0,0,0,0,0],"sum_hessian":[2.8748545E3,1.1461763E3,1.7286781E3,8.1227954E2,3.3389673E2,1.7526353E2,1.5534146E3,5.861429E2,2.2613669E2,2.7301654E2,6.08802E1,1.6380226E2,1.1461284E1,5.2174404E1,1.5012402E3,4.9132233E1,5.370106E2,1.1226705E2,1.1386964E2,7.5402214E1,1.9761432E2,5.508864E1,5.791564E0,1.5761507E2,6.1871977E0,4.4047923E0,7.056492E0,4.509606E1,7.078343E0,2.4601175E2,1.2552284E3,1.690131E1,3.2230923E1,4.5835376E2,7.8656876E1,2.9493958E1,8.27731E1,1.06287895E2,7.581743E0,4.6757446E1,2.8644766E1,9.14073E1,1.0620701E2,5.2854305E1,2.2343314E0,1.4395093E2,1.3664133E1,2.6769903E0,4.241907E1,1.3418486E2,1.1182689E2,1.0637885E3,1.9144002E2],"tree_param":{"num_deleted":"0","num_feature":"8","num_nodes":"53","size_leaf_vector":"1"}},{"base_weights":[-2.358674E-3,-2.0948431E-1,8.705363E-2,-0E0,-2.8530127E-1,-7.706655E-2,1.20465934E-1,-1.00346625E-1,3.8211405E-1,-3.1012097E-1,1.3925846E-1,1.6513626E-1,-2.9451337E-1,1.0336202E-1,1.0308538E-2,-0E0,-3.540661E-1,4.920704E-1,-0E0,-2.557066E-1,-5.7835627E-1,2.9838356E-1,-0E0,-5.7037566E-3,6.088833E-1,-3.3400437E-1,-0E0,-5.7072412E-2,1.4165445E-1,-2.9388438E-3,6.695628E-4,-5.1242183E-3,-0E0,-0E0,8.282605E-3,-0E0,-3.5048204E-3,-0E0,-8.0101155E-3,-0E0,5.2843187E-3,1.6702138E-3,-4.6082423E-3,8.962587E-3,-0E0,-1.7374139E-3,-7.4543254E-3,9.461927E-4,-0E0,6.7844433E-3,-3.6962891E-3,-5.779091E-4,2.749553E-3],"categories":[],"categories_nodes":[],"categories_segments":[],"categories_sizes":[],"default_left":[0,0,0,0,0,0,0,0,0,0,0,0,0,0,0,0,0,0,0,0,0,0,0,0,0,0,0,0,0,0,0,0,0,0,0,0,0,0,0,0,0,0,0,0,0,0,0,0,0,0,0,0,0],"id":14,"left_children":[1,3,5,7,9,11,13,15,17,19,21,23,25,27,-1,29,31,33,-1,35,37,39,-1,41,43,45,47,49,51,-1,-1,-1,-1,-1,-1,-1,-1,-1,-1,-1,-1,-1,-1,-1,-1,-1,-1,-1,-1,-1,-1,-1,-1],"loss_changes":[5.3949066E1,1.51682625E1,1.1202564E1,9.97626E0,8.062965E0,1.7488691E1,1.4285751E1,3.575841E0,4.005166E0,4.4262085E0,1.6246078E0,1.3754419E1,3.6449156E0,1.0633724E1,0E0,2.0604086E0,9.3370533E-1,3.2274647E0,0E0,2.4607544E0,2.6064415E0,1.4255064E0,0E0,5.8714523E0,3.028534E0,4.205372E0,4.8906002E-2,3.776951E1,1.796393E1,0E0,0E0,0E0,0E0,0E0,0E0,0E0,0E0,0E0,0E0,0E0,0E0,0E0,0E0,0E0,0E0,0E0,0E0,0E0,0E0,0E0,0E0,0E0,0E0],"parents":[2147483647,0,0,1,1,2,2,3,3,4,4,5,5,6,6,7,7,8,8,9,9,10,10,11,11,12,12,13,13,15,15,16,16,17,17,19,19,20,20,21,21,23,23,24,24,25,25,26,26,27,27,28,28],"right_children":[2,4,6,8,10,12,14,16,18,20,22,24,26,28,-1,30,32,34,-1,36,38,40,-1,42,44,46,48,50,52,-1,-1,-1,-1,-1,-1,-1,-1,-1,-1,-1,-1,-1,-1,-1,-1,-1,-1,-1,-1,-1,-1,-1,-1],"split_conditions":[3.526492E-2,4.4139427E1,-4.568593E1,1.8936583E-1,7.125173E0,-1.2213171E2,1.7619123E-1,1.5832082E0,5.78E0,4.096E1,-1.11752405E1,-1.6558018E2,5.3868725E1,-8.738E1,1.0308538E-2,-1.0228415E1,4.3927525E1,2.3834594E-2,-0E0,-7.1962E0,5.040991E1,-2.5193447E1,-0E0,-5.9447758E1,3.553868E1,2.602E1,2.2084E2,-2.5757893E1,-1.2250427E1,-2.9388438E-3,6.695628E-4,-5.1242183E-3,-0E0,-0E0,8.282605E-3,-0E0,-3.5048204E-3,-0E0,-8.0101155E-3,-0E0,5.2843187E-3,1.6702138E-3,-4.6082423E-3,8.962587E-3,-0E0,-1.7374139E-3,-7.4543254E-3,9.461927E-4,-0E0,6.7844433E-3,-3.6962891E-3,-5.779091E-4,2.749553E-3],"split_indices":[6,1,4,5,5,2,6,4,2,2,4,2,1,2,0,4,1,6,0,5,1,4,0,4,1,2,2,4,4,0,0,0,0,0,0,0,0,0,0,0,0,0,0,0,0,0,0,0,0,0,0,0,0],"split_type":[0,0,0,0,0,0,0,0,0,0,0,0,0,0,0,0,0,0,0,0,0,0,0,0,0,0,0,0,0,0,0,0,0,0,0,0,0,0,0,0,0,0,0,0,0,0,0,0,0,0,0,0,0],"sum_hessian":[2.8701047E3,8.802324E2,1.9898723E3,2.2162529E2,6.586072E2,3.1016647E2,1.6797058E3,1.7039587E2,5.122941E1,6.3463135E2,2.397581E1,1.3642189E2,1.737446E2,1.6504929E3,2.921286E1,1.327837E2,3.7612164E1,4.544861E1,5.780802E0,5.512178E2,8.341355E1,1.955875E1,4.417059E0,9.392815E1,4.2493736E1,1.6664818E2,7.0964227E0,2.9239874E2,1.3580942E3,3.0647034E1,1.0213668E2,3.6284744E1,1.3274184E0,1.1564292E1,3.3884315E1,1.0190521E1,5.410273E2,1.7776723E0,8.163588E1,2.2148974E0,1.7343853E1,5.9633E1,3.4295147E1,3.9376064E1,3.1176746E0,1.05025795E2,6.162238E1,4.435971E0,2.660452E0,7.409374E1,2.18305E2,3.430696E2,1.01502466E3],"tree_param":{"num_deleted":"0","num_feature":"8","num_nodes":"53","size_leaf_vector":"1"}},{"base_weights":[-0E0,3.264394E-1,-1.2625039E-1,5.5184118E-3,4.7253045E-1,-3.687178E-1,-1.7965542E-2,2.1506804E-1,-7.399492E-2,5.1367605E-1,-0E0,-4.872643E-1,-2.3742065E-1,3.747277E-2,-1.4410156E-1,3.0825958E-1,-0E0,6.969716E-2,-1.2382991E-1,1.0716053E-2,4.1919684E-1,-9.077891E-2,-0E0,-0E0,-4.9312598E-1,4.098111E-2,-2.6500335E-1,-1.0972385E-1,1.05172284E-1,-0E0,-2.1289507E-1,-0E0,5.7677696E-3,-0E0,4.1340557E-3,-1.9993894E-3,-0E0,3.3387945E-3,7.4104643E-3,-1.5995945E-3,-0E0,-0E0,8.099431E-4,-0E0,-6.629625E-3,-0E0,2.564953E-3,-4.98803E-3,-1.3463495E-3,3.8382723E-3,-2.3194011E-3,8.5828285E-4,4.6419613E-3,1.2641136E-3,-9.6545054E-4,-3.0527865E-3,-0E0],"categories":[],"categories_nodes":[],"categories_segments":[],"categories_sizes":[],"default_left":[0,0,0,0,0,0,0,0,0,0,0,0,0,0,0,0,0,0,0,0,0,0,0,0,0,0,0,0,0,0,0,0,0,0,0,0,0,0,0,0,0,0,0,0,0,0,0,0,0,0,0,0,0,0,0,0,0],"id":15,"left_children":[1,3,5,7,9,11,13,15,17,19,21,23,25,27,29,31,-1,33,35,-1,37,39,41,-1,43,45,47,49,51,53,55,-1,-1,-1,-1,-1,-1,-1,-1,-1,-1,-1,-1,-1,-1,-1,-1,-1,-1,-1,-1,-1,-1,-1,-1,-1,-1],"loss_changes":[1.1932539E2,3.556488E1,5.243662E1,5.2686653E0,1.1865868E1,5.528969E0,1.0712828E1,2.0484443E0,1.6135209E0,6.5624695E0,1.5885513E-1,5.6591797E-1,3.6808662E0,9.850857E0,4.9494257E0,1.5311713E0,0E0,1.4368613E0,1.175334E0,0E0,4.9608536E0,9.3689814E-2,5.471297E-2,0E0,5.70488E-1,3.6394304E-1,3.2412205E0,7.4436865E0,4.719124E0,1.1345702E0,1.6855631E0,0E0,0E0,0E0,0E0,0E0,0E0,0E0,0E0,0E0,0E0,0E0,0E0,0E0,0E0,0E0,0E0,0E0,0E0,0E0,0E0,0E0,0E0,0E0,0E0,0E0,0E0],"parents":[2147483647,0,0,1,1,2,2,3,3,4,4,5,5,6,6,7,7,8,8,9,9,10,10,11,11,12,12,13,13,14,14,15,15,17,17,18,18,20,20,21,21,22,22,24,24,25,25,26,26,27,27,28,28,29,29,30,30],"right_children":[2,4,6,8,10,12,14,16,18,20,22,24,26,28,30,32,-1,34,36,-1,38,40,42,-1,44,46,48,50,52,54,56,-1,-1,-1,-1,-1,-1,-1,-1,-1,-1,-1,-1,-1,-1,-1,-1,-1,-1,-1,-1,-1,-1,-1,-1,-1,-1],"split_conditions":[3.3504207E-2,-5.3065056E-3,-3.205994E-2,2.3433445E-2,2.1238549E-2,-5.6318197E-2,7.763929E-1,-3.304114E-1,-2.2529444E1,1.6154889E-2,1.4696103E1,5.2503396E-2,2.1746544E1,2.2954032E-1,4.698731E-2,-1.3652978E-2,-0E0,3.6174566E-1,7.557295E-1,1.0716053E-2,5.1325485E-3,3.202903E-2,6.3500797E1,-0E0,1.4907183E1,-2.2778585E1,1.7234746E-1,3.2601612E1,1.9706486E-2,1.5717275E-2,7.639725E1,-0E0,5.7677696E-3,-0E0,4.1340557E-3,-1.9993894E-3,-0E0,3.3387945E-3,7.4104643E-3,-1.5995945E-3,-0E0,-0E0,8.099431E-4,-0E0,-6.629625E-3,-0E0,2.564953E-3,-4.98803E-3,-1.3463495E-3,3.8382723E-3,-2.3194011E-3,8.5828285E-4,4.6419613E-3,1.2641136E-3,-9.6545054E-4,-3.0527865E-3,-0E0],"split_indices":[6,0,0,6,0,0,7,4,4,6,4,6,1,7,6,0,0,7,7,0,0,6,1,0,1,4,7,1,0,0,1,0,0,0,0,0,0,0,0,0,0,0,0,0,0,0,0,0,0,0,0,0,0,0,0,0,0],"split_type":[0,0,0,0,0,0,0,0,0,0,0,0,0,0,0,0,0,0,0,0,0,0,0,0,0,0,0,0,0,0,0,0,0,0,0,0,0,0,0,0,0,0,0,0,0,0,0,0,0,0,0,0,0,0,0,0,0],"sum_hessian":[2.871901E3,8.048373E2,2.0670635E3,2.6409933E2,5.407379E2,6.2017993E2,1.4468837E3,8.759906E1,1.7650026E2,5.0178177E2,3.8956184E1,2.987789E2,3.21401E2,9.800254E2,4.6685822E2,6.163104E1,2.596802E1,1.9101095E1,1.5739917E2,9.795146E1,4.038303E2,1.427664E1,2.4679544E1,4.851719E0,2.939272E2,1.2412766E1,3.0898825E2,2.8449612E2,6.955293E2,1.4647691E2,3.203813E2,2.58047E1,3.5826336E1,8.395138E0,1.0705958E1,1.5338957E2,4.009591E0,2.1111551E2,1.927148E2,1.2049141E1,2.2274992E0,1.5272834E1,9.406711E0,1.10004835E1,2.829267E2,7.0893397E0,5.323427E0,1.5932271E2,1.4966553E2,2.7457077E1,2.5703906E2,6.2201764E2,7.351164E1,7.028313E1,7.619379E1,2.995889E2,2.0792395E1],"tree_param":{"num_deleted":"0","num_feature":"8","num_nodes":"57","size_leaf_vector":"1"}},{"base_weights":[1.5936621E-3,2.1911694E-1,-1.3681604E-1,4.3859106E-1,1.2927619E-1,-1.8319474E-1,2.0380102E-1,2.2056797E-1,8.2494426E-1,-5.0577186E-3,1.7032419E-1,-1.5501012E-1,-5.5068386E-1,3.943187E-1,-1.6327858E-1,4.959181E-1,-2.86272E-1,-0E0,1.0991637E-2,4.5386726E-1,8.452151E-2,-2.1614796E-1,3.3209145E-2,-0E0,-7.434463E-3,-2.108286E-1,5.3525144E-1,-5.095431E-3,-0E0,9.498165E-3,-7.246772E-4,-6.2972563E-3,9.860206E-5,-0E0,6.732743E-3,1.5073911E-4,7.916048E-3,-1.061895E-3,-3.848995E-3,3.350249E-3,-1.0503391E-3,-0E0,-4.3683965E-3,8.259298E-3,-2.8970072E-4,1.0857562E-3,-1.5016864E-3],"categories":[],"categories_nodes":[],"categories_segments":[],"categories_sizes":[],"default_left":[0,0,0,0,0,0,0,0,0,0,0,0,0,0,0,0,0,0,0,0,0,0,0,0,0,0,0,0,0,0,0,0,0,0,0,0,0,0,0,0,0,0,0,0,0,0,0],"id":16,"left_children":[1,3,5,7,9,11,13,15,17,-1,19,21,23,25,27,29,31,-1,-1,33,35,37,39,-1,-1,41,43,-1,45,-1,-1,-1,-1,-1,-1,-1,-1,-1,-1,-1,-1,-1,-1,-1,-1,-1,-1],"loss_changes":[8.742459E1,1.9313747E1,2.776426E1,2.0164402E1,1.678413E1,1.2179592E1,1.5424917E1,3.1721853E1,9.8973083E-1,0E0,1.6133974E1,1.7825153E1,6.219444E-1,1.427351E1,1.9540825E0,2.1949268E1,6.475909E0,0E0,0E0,5.3217735E0,2.034005E1,9.720955E0,9.599879E0,0E0,0E0,1.2663848E0,9.491333E0,0E0,4.8669544E-1,0E0,0E0,0E0,0E0,0E0,0E0,0E0,0E0,0E0,0E0,0E0,0E0,0E0,0E0,0E0,0E0,0E0,0E0],"parents":[2147483647,0,0,1,1,2,2,3,3,4,4,5,5,6,6,7,7,8,8,10,10,11,11,12,12,13,13,14,14,15,15,16,16,19,19,20,20,21,21,22,22,25,25,26,26,28,28],"right_children":[2,4,6,8,10,12,14,16,18,-1,20,22,24,26,28,30,32,-1,-1,34,36,38,40,-1,-1,42,44,-1,46,-1,-1,-1,-1,-1,-1,-1,-1,-1,-1,-1,-1,-1,-1,-1,-1,-1,-1],"split_conditions":[-1.6286911E-2,-5.6318197E-2,6.71268E1,-1.2213171E2,2.7031397E1,9.669E1,7.275151E1,-1.6558018E2,-1.0891592E-1,-5.0577186E-3,-9.13086E1,4.0096645E1,4.236953E0,3.4924824E0,9.68975E0,2.878709E1,-6.259644E-2,-0E0,1.0991637E-2,-1.721698E1,1.1922366E1,-3.7894868E-3,5.354E1,-0E0,-7.434463E-3,2.8978564E-2,1.382098E2,-5.095431E-3,1.345891E1,9.498165E-3,-7.246772E-4,-6.2972563E-3,9.860206E-5,-0E0,6.732743E-3,1.5073911E-4,7.916048E-3,-1.061895E-3,-3.848995E-3,3.350249E-3,-1.0503391E-3,-0E0,-4.3683965E-3,8.259298E-3,-2.8970072E-4,1.0857562E-3,-1.5016864E-3],"split_indices":[0,0,1,2,1,2,1,2,0,0,2,2,5,5,5,1,0,0,0,5,5,0,2,0,0,0,2,0,5,0,0,0,0,0,0,0,0,0,0,0,0,0,0,0,0,0,0],"split_type":[0,0,0,0,0,0,0,0,0,0,0,0,0,0,0,0,0,0,0,0,0,0,0,0,0,0,0,0,0,0,0,0,0,0,0,0,0,0,0,0,0,0,0,0,0,0,0],"sum_hessian":[2.8801177E3,1.1328894E3,1.7472284E3,3.0724643E2,8.2564294E2,1.5527893E3,1.9443901E2,2.0970421E2,9.754223E1,4.8945652E1,7.766973E2,1.4614204E3,9.136892E1,1.3672664E2,5.7712376E1,1.4234529E2,6.735891E1,1.3546742E0,9.618755E1,1.619144E2,6.147829E2,1.1225981E3,3.3882227E2,3.0925303E0,8.827639E1,1.8657219E1,1.1806941E2,1.9123926E1,3.858845E1,1.061711E2,3.6174194E1,4.903326E1,1.8325651E1,1.5610858E1,1.4630354E2,5.5171124E2,6.3071697E1,4.333702E2,6.8922797E2,1.2729201E2,2.1153024E2,2.6756744E0,1.5981545E1,1.0829758E2,9.771836E0,1.8694582E1,1.989387E1],"tree_param":{"num_deleted":"0","num_feature":"8","num_nodes":"47","size_leaf_vector":"1"}},{"base_weights":[1.2111104E-3,1.7054708E-1,-4.553124E-2,-3.89239E-2,2.3758997E-1,-7.88531E-2,2.9587933E-1,-4.1641068E-1,7.6793596E-2,3.198915E-1,6.0759825E-3,1.854793E-2,-1.1849803E-1,-1.4580344E-1,4.2192784E-1,-5.781174E-3,-0E0,3.6642784E-1,-1.11646354E-1,-9.520433E-2,3.6968347E-1,-1.793444E-1,3.1276068E-1,-9.845764E-2,2.633302E-1,-3.0420262E-1,-6.327234E-2,-4.96657E-3,-0E0,7.281523E-1,1.1078738E-1,-0E0,6.099773E-3,-3.8793797E-3,-0E0,-1.7316804E-3,-0E0,8.140636E-3,2.1877554E-3,2.8871314E-4,-4.3932875E-3,-0E0,5.433328E-3,-1.6158537E-3,9.349489E-4,4.371088E-3,-1.7079733E-3,-4.2615235E-3,-0E0,1.3531965E-3,-1.8794979E-3,1.8569214E-3,-0E0,-0E0,1.0914466E-2,6.182087E-3,-1.0542369E-3],"categories":[],"categories_nodes":[],"categories_segments":[],"categories_sizes":[],"default_left":[0,0,0,0,0,0,0,0,0,0,0,0,0,0,0,0,0,0,0,0,0,0,0,0,0,0,0,0,0,0,0,0,0,0,0,0,0,0,0,0,0,0,0,0,0,0,0,0,0,0,0,0,0,0,0,0,0],"id":17,"left_children":[1,3,5,7,9,11,13,15,17,19,21,23,25,27,29,-1,-1,31,33,35,37,39,41,43,45,47,49,-1,51,53,55,-1,-1,-1,-1,-1,-1,-1,-1,-1,-1,-1,-1,-1,-1,-1,-1,-1,-1,-1,-1,-1,-1,-1,-1,-1,-1],"loss_changes":[2.342746E1,1.0116209E1,2.4453558E1,8.100953E0,8.047512E0,8.439107E0,1.2066624E1,2.9233074E-1,7.125756E0,8.969131E0,9.725522E0,1.7044296E1,1.341308E1,2.641789E0,1.0181461E1,0E0,0E0,2.9962916E0,9.7642374E-1,2.3942178E-1,1.242168E1,4.3808055E0,2.918017E0,1.839025E0,6.591077E0,3.1571007E0,1.5919929E1,0E0,2.4120612E-1,7.949188E0,8.385186E0,0E0,0E0,0E0,0E0,0E0,0E0,0E0,0E0,0E0,0E0,0E0,0E0,0E0,0E0,0E0,0E0,0E0,0E0,0E0,0E0,0E0,0E0,0E0,0E0,0E0,0E0],"parents":[2147483647,0,0,1,1,2,2,3,3,4,4,5,5,6,6,7,7,8,8,9,9,10,10,11,11,12,12,13,13,14,14,17,17,18,18,19,19,20,20,21,21,22,22,23,23,24,24,25,25,26,26,28,28,29,29,30,30],"right_children":[2,4,6,8,10,12,14,16,18,20,22,24,26,28,30,-1,-1,32,34,36,38,40,42,44,46,48,50,-1,52,54,56,-1,-1,-1,-1,-1,-1,-1,-1,-1,-1,-1,-1,-1,-1,-1,-1,-1,-1,-1,-1,-1,-1,-1,-1,-1,-1],"split_conditions":[-5.9241786E0,-5.010045E-2,1.043163E2,-1.9883357E2,1.7876095E-1,3.215932E-1,1.8914344E0,-6.647602E-2,-2.3236801E1,-2.5790814E2,-4.5284696E0,-1.1624032E0,-8.601368E0,1.7324E2,3.0467557E-2,-5.781174E-3,-0E0,-5.1753723E1,-1.1212401E1,-6.1371226E-2,-3.6506874E1,-5.745838E-2,-7.581E1,6.5062885E0,-1.0903223E-2,9.593898E-1,5.3324362E-5,-4.96657E-3,2.2084E2,8.018251E0,9.822896E-1,-0E0,6.099773E-3,-3.8793797E-3,-0E0,-1.7316804E-3,-0E0,8.140636E-3,2.1877554E-3,2.8871314E-4,-4.3932875E-3,-0E0,5.433328E-3,-1.6158537E-3,9.349489E-4,4.371088E-3,-1.7079733E-3,-4.2615235E-3,-0E0,1.3531965E-3,-1.8794979E-3,1.8569214E-3,-0E0,-0E0,1.0914466E-2,6.182087E-3,-1.0542369E-3],"split_indices":[5,7,2,2,7,7,3,7,3,2,3,5,3,2,0,0,0,3,5,0,3,0,2,3,0,7,0,0,2,5,7,0,0,0,0,0,0,0,0,0,0,0,0,0,0,0,0,0,0,0,0,0,0,0,0,0,0],"split_type":[0,0,0,0,0,0,0,0,0,0,0,0,0,0,0,0,0,0,0,0,0,0,0,0,0,0,0,0,0,0,0,0,0,0,0,0,0,0,0,0,0,0,0,0,0,0,0,0,0,0,0,0,0,0,0,0,0],"sum_hessian":[2.8709434E3,6.413212E2,2.229622E3,1.3791937E2,5.0340186E2,2.0482063E3,1.8141577E2,3.94486E1,9.847077E1,3.5403818E2,1.4936368E2,5.5679474E2,1.4914116E3,3.1297216E1,1.5011855E2,3.6344807E1,3.1037915E0,4.7410816E1,5.105996E1,2.667565E1,3.2736252E2,8.421831E1,6.514537E1,3.649241E2,1.9187065E2,3.159393E2,1.1754723E3,1.890342E1,1.2393796E1,6.418067E1,8.5937874E1,5.8300166E0,4.15808E1,1.4227696E1,3.6832264E1,2.5329664E1,1.3459857E0,1.3124918E2,1.9611334E2,2.4456694E1,5.9761612E1,1.2922171E1,5.2223198E1,3.45846E2,1.9078102E1,1.7460983E2,1.7260813E1,3.0751874E2,8.420554E0,3.602424E2,8.1522986E2,7.083284E0,5.310512E0,4.466788E0,5.9713882E1,3.6356316E1,4.9581562E1],"tree_param":{"num_deleted":"0","num_feature":"8","num_nodes":"57","size_leaf_vector":"1"}},{"base_weights":[-0E0,3.2340744E-1,-1.3133948E-1,-0E0,4.744065E-1,-3.7084922E-1,-2.3296617E-2,1.8927282E-1,-7.5064465E-2,6.5058225E-1,2.5006214E-1,-4.8430222E-1,-2.4515028E-1,3.0519075E-3,-2.5215733E-1,8.513565E-3,8.22372E-3,-0E0,-1.6189933E-1,8.643914E-3,-0E0,-0E0,4.1637543E-1,-0E0,-4.8978475E-1,2.1534518E-3,-2.7036723E-1,-1.916652E-2,1.5175427E-1,-2.976854E-1,-0E0,-4.4337497E-4,2.155233E-3,-1.5490024E-3,2.318718E-3,-0E0,-2.979372E-3,-1.3229512E-3,1.8883384E-3,7.6561803E-3,-3.3272148E-4,-6.483202E-3,-0E0,-0E0,3.0388238E-3,-0E0,-3.887343E-3,1.5145281E-3,-9.640053E-4,3.5607035E-3,-0E0,-0E0,-4.330522E-3],"categories":[],"categories_nodes":[],"categories_segments":[],"categories_sizes":[],"default_left":[0,0,0,0,0,0,0,0,0,0,0,0,0,0,0,0,0,0,0,0,0,0,0,0,0,0,0,0,0,0,0,0,0,0,0,0,0,0,0,0,0,0,0,0,0,0,0,0,0,0,0,0,0],"id":18,"left_children":[1,3,5,7,9,11,13,15,17,19,21,23,25,27,29,31,-1,33,35,-1,-1,37,39,-1,41,43,45,47,49,51,-1,-1,-1,-1,-1,-1,-1,-1,-1,-1,-1,-1,-1,-1,-1,-1,-1,-1,-1,-1,-1,-1,-1],"loss_changes":[1.2175981E2,3.8436707E1,5.1341793E1,4.4176545E0,1.657E1,4.689972E0,9.9365425E0,4.2187743E0,1.5651202E0,1.1824417E0,9.811296E0,3.515625E-1,3.390234E0,4.897392E0,2.1761532E0,1.2020644E0,0E0,2.1344204E0,1.8713055E0,0E0,0E0,1.8903079E0,1.4006256E1,0E0,6.915283E-2,6.9471484E-1,3.581419E0,7.7440186E0,2.6390553E0,2.2781E0,0E0,0E0,0E0,0E0,0E0,0E0,0E0,0E0,0E0,0E0,0E0,0E0,0E0,0E0,0E0,0E0,0E0,0E0,0E0,0E0,0E0,0E0,0E0],"parents":[2147483647,0,0,1,1,2,2,3,3,4,4,5,5,6,6,7,7,8,8,9,9,10,10,11,11,12,12,13,13,14,14,15,15,17,17,18,18,21,21,22,22,24,24,25,25,26,26,27,27,28,28,29,29],"right_children":[2,4,6,8,10,12,14,16,18,20,22,24,26,28,30,32,-1,34,36,-1,-1,38,40,-1,42,44,46,48,50,52,-1,-1,-1,-1,-1,-1,-1,-1,-1,-1,-1,-1,-1,-1,-1,-1,-1,-1,-1,-1,-1,-1,-1],"split_conditions":[3.3656918E-2,-5.3065056E-3,-3.205994E-2,2.3433445E-2,1.34121065E1,-5.6318197E-2,6.753127E1,2.4313205E-1,-1.0035805E1,2.282559E-2,5.8194078E-3,5.2503396E-2,2.1746544E1,1.9900242E1,7.639725E1,-1.0903223E-2,8.22372E-3,4.0465034E1,-4.5384037E1,8.643914E-3,-0E0,2.4243288E1,2.1238549E-2,-0E0,1.2389E2,-3.981203E1,-6.445168E1,-1.2591381E1,5.2036236E1,2.0092605E-2,-0E0,-4.4337497E-4,2.155233E-3,-1.5490024E-3,2.318718E-3,-0E0,-2.979372E-3,-1.3229512E-3,1.8883384E-3,7.6561803E-3,-3.3272148E-4,-6.483202E-3,-0E0,-0E0,3.0388238E-3,-0E0,-3.887343E-3,1.5145281E-3,-9.640053E-4,3.5607035E-3,-0E0,-0E0,-4.330522E-3],"split_indices":[6,0,0,6,2,0,1,2,3,0,0,6,1,3,1,0,0,1,2,0,0,2,0,0,2,3,3,3,2,0,0,0,0,0,0,0,0,0,0,0,0,0,0,0,0,0,0,0,0,0,0,0,0],"split_type":[0,0,0,0,0,0,0,0,0,0,0,0,0,0,0,0,0,0,0,0,0,0,0,0,0,0,0,0,0,0,0,0,0,0,0,0,0,0,0,0,0,0,0,0,0,0,0,0,0,0,0,0,0],"sum_hessian":[2.8759514E3,8.190792E2,2.056872E3,2.7032358E2,5.487556E2,6.212479E2,1.4356243E3,8.901018E1,1.8131339E2,2.895711E2,2.5918454E2,2.9812503E2,3.2312286E2,1.2722385E3,1.6338568E2,7.4647545E1,1.4362631E1,8.655009E1,9.4763306E1,2.8597565E2,3.5954347E0,1.1230552E2,1.4687901E2,5.2826724E0,2.9284238E2,1.1975193E1,3.1114767E2,1.0813931E3,1.9084549E2,1.4037537E2,2.3010307E1,3.648705E1,3.8160492E1,4.5521637E1,4.1028446E1,1.2462803E1,8.23005E1,5.5362183E1,5.694334E1,1.1379637E2,3.308264E1,2.889149E2,3.927475E0,3.978635E0,7.9965577E0,1.1043621E1,3.0010406E2,2.8256012E2,7.9883295E2,9.240304E1,9.8442444E1,5.730684E0,1.3464468E2],"tree_param":{"num_deleted":"0","num_feature":"8","num_nodes":"53","size_leaf_vector":"1"}},{"base_weights":[-2.916259E-4,2.1051541E-1,-1.4102252E-1,1.6698001E-1,7.646169E-1,-2.1611592E-1,-0E0,3.8097015E-1,7.797125E-2,9.1799676E-1,-0E0,1.711723E-2,-2.4872032E-1,1.5108672E-1,-1.8140519E-1,1.9814256E-1,7.26999E-1,-4.4932507E-2,3.1591028E-1,9.8407507E-1,-0E0,-8.802964E-2,3.1093007E-1,-4.1914776E-1,-1.8004875E-1,2.2336408E-1,-2.4796395E-1,-2.9775104E-1,2.640633E-2,6.1663496E-3,-3.956674E-3,9.907936E-3,-0E0,3.5493185E-3,-1.7376669E-3,8.0740675E-3,-2.1976773E-3,1.3612513E-2,-0E0,5.5766787E-4,-2.2552318E-3,-0E0,5.077552E-3,-0E0,-6.6058054E-3,2.8261505E-3,-3.5546466E-3,8.2736375E-4,4.942716E-3,-5.2734213E-3,-0E0,4.060101E-4,-5.178217E-3,4.965376E-3,-4.1601323E-3],"categories":[],"categories_nodes":[],"categories_segments":[],"categories_sizes":[],"default_left":[0,0,0,0,0,0,0,0,0,0,0,0,0,0,0,0,0,0,0,0,0,0,0,0,0,0,0,0,0,0,0,0,0,0,0,0,0,0,0,0,0,0,0,0,0,0,0,0,0,0,0,0,0,0,0],"id":19,"left_children":[1,3,5,7,9,11,13,15,17,19,-1,21,23,25,27,29,31,33,35,37,-1,39,41,43,45,47,49,51,53,-1,-1,-1,-1,-1,-1,-1,-1,-1,-1,-1,-1,-1,-1,-1,-1,-1,-1,-1,-1,-1,-1,-1,-1,-1,-1],"loss_changes":[8.4929596E1,2.211979E1,1.8801666E1,1.790823E1,7.160206E0,9.867889E0,1.6536598E1,1.3385742E1,2.4159748E1,3.0551682E0,0E0,5.1440377E0,8.582596E0,9.839691E0,7.913599E0,2.996732E1,2.3329659E0,1.3321688E1,4.3011223E1,2.8144836E0,0E0,1.5996912E0,1.9987936E0,7.6982E0,2.7638071E1,4.9757195E0,3.224856E0,7.8430767E0,1.12580805E1,0E0,0E0,0E0,0E0,0E0,0E0,0E0,0E0,0E0,0E0,0E0,0E0,0E0,0E0,0E0,0E0,0E0,0E0,0E0,0E0,0E0,0E0,0E0,0E0,0E0,0E0],"parents":[2147483647,0,0,1,1,2,2,3,3,4,4,5,5,6,6,7,7,8,8,9,9,11,11,12,12,13,13,14,14,15,15,16,16,17,17,18,18,19,19,21,21,22,22,23,23,24,24,25,25,26,26,27,27,28,28],"right_children":[2,4,6,8,10,12,14,16,18,20,-1,22,24,26,28,30,32,34,36,38,-1,40,42,44,46,48,50,52,54,-1,-1,-1,-1,-1,-1,-1,-1,-1,-1,-1,-1,-1,-1,-1,-1,-1,-1,-1,-1,-1,-1,-1,-1,-1,-1],"split_conditions":[-1.6286911E-2,1.3161151E1,4.096E1,-5.6318197E-2,-2.450059E-2,-9.300692E0,8.601004E0,-1.2213171E2,-1.3691985E1,1.7324E2,-0E0,1.0424389E0,-1.1932398E0,3.395577E-2,3.5883345E-2,-1.6558018E2,4.534E1,-1.2888309E2,-2.4823994E1,-1.8524048E1,-0E0,-8.738E1,-2.1533848E1,-8.493694E0,-3.7894868E-3,6.097E1,8.018251E0,6.621E1,2.7668842E1,6.1663496E-3,-3.956674E-3,9.907936E-3,-0E0,3.5493185E-3,-1.7376669E-3,8.0740675E-3,-2.1976773E-3,1.3612513E-2,-0E0,5.5766787E-4,-2.2552318E-3,-0E0,5.077552E-3,-0E0,-6.6058054E-3,2.8261505E-3,-3.5546466E-3,8.2736375E-4,4.942716E-3,-5.2734213E-3,-0E0,4.060101E-4,-5.178217E-3,4.965376E-3,-4.1601323E-3],"split_indices":[0,5,2,0,0,3,5,2,3,2,0,5,3,0,0,2,2,2,2,3,0,2,3,4,0,2,5,2,4,0,0,0,0,0,0,0,0,0,0,0,0,0,0,0,0,0,0,0,0,0,0,0,0,0,0],"split_type":[0,0,0,0,0,0,0,0,0,0,0,0,0,0,0,0,0,0,0,0,0,0,0,0,0,0,0,0,0,0,0,0,0,0,0,0,0,0,0,0,0,0,0,0,0,0,0,0,0,0,0,0,0,0,0],"sum_hessian":[2.864466E3,1.1315137E3,1.7329524E3,1.0634866E3,6.802706E1,1.1375692E3,5.9538324E2,2.9108957E2,7.72397E2,5.4159374E1,1.3867686E1,1.2100321E2,1.016566E3,3.308175E2,2.645657E2,2.0505801E2,8.603156E1,4.98135E2,2.74262E2,4.9636135E1,4.5232368E0,7.9158905E1,4.1844307E1,2.6372675E2,7.5283923E2,2.9255927E2,3.825825E1,1.8364568E2,8.092002E1,1.3958685E2,6.547116E1,8.376484E1,2.266719E0,9.337956E1,4.0475543E2,1.750981E2,9.9163895E1,4.6945965E1,2.6901731E0,8.505777E0,7.065313E1,3.1094801E0,3.873483E1,5.1367123E1,2.1235962E2,1.2861723E2,6.24222E2,1.6209323E2,1.3046603E2,3.1552612E1,6.7056375E0,3.0599253E1,1.5304643E2,4.6917435E1,3.4002583E1],"tree_param":{"num_deleted":"0","num_feature":"8","num_nodes":"55","size_leaf_vector":"1"}},{"base_weights":[-0E0,1.512432E-1,-4.3784887E-2,-4.126797E-2,2.1285185E-1,-7.3672034E-2,2.5903866E-1,-4.074469E-1,6.618795E-2,2.930112E-1,-0E0,2.7891815E-2,-1.14288606E-1,-2.18535E-1,3.9830002E-1,-5.6623803E-3,-0E0,3.626378E-1,-1.2838332E-1,-8.6572506E-2,3.422107E-1,-2.1832485E-1,2.9577553E-1,-8.728632E-2,2.6443285E-1,-2.7391684E-1,-4.2283844E-2,-5.47182E-3,-0E0,8.43415E-1,5.5519357E-2,-0E0,5.890084E-3,-3.8532442E-3,-0E0,-2.1624155E-3,-0E0,7.6065063E-3,1.9184755E-3,1.968263E-3,-4.5117163E-3,-0E0,5.154706E-3,-0E0,-1.7880315E-3,-5.115153E-4,4.3793567E-3,-4.2931684E-3,-1.0400167E-3,-5.8263736E-3,-1.2274703E-4,1.2887054E-3,-0E0,-0E0,1.1563322E-2,4.8261657E-3,-2.1717872E-3],"categories":[],"categories_nodes":[],"categories_segments":[],"categories_sizes":[],"default_left":[0,0,0,0,0,0,0,0,0,0,0,0,0,0,0,0,0,0,0,0,0,0,0,0,0,0,0,0,0,0,0,0,0,0,0,0,0,0,0,0,0,0,0,0,0,0,0,0,0,0,0,0,0,0,0,0,0],"id":20,"left_children":[1,3,5,7,9,11,13,15,17,19,21,23,25,27,29,-1,-1,31,33,35,37,39,41,43,45,47,49,-1,51,53,55,-1,-1,-1,-1,-1,-1,-1,-1,-1,-1,-1,-1,-1,-1,-1,-1,-1,-1,-1,-1,-1,-1,-1,-1,-1,-1],"loss_changes":[1.9169195E1,8.606328E0,1.9515327E1,7.4285994E0,8.189243E0,8.966824E0,1.3839229E1,2.7638197E-1,7.3756766E0,8.2592945E0,1.0267182E1,1.622496E1,1.5732094E1,2.8679605E0,1.8989817E1,0E0,0E0,2.5599413E0,7.267143E-1,6.110415E-1,1.1577312E1,5.20167E0,2.8091197E0,1.9224825E0,5.6766005E0,2.4366112E0,1.1839314E1,0E0,9.926924E-2,2.775547E0,8.161124E0,0E0,0E0,0E0,0E0,0E0,0E0,0E0,0E0,0E0,0E0,0E0,0E0,0E0,0E0,0E0,0E0,0E0,0E0,0E0,0E0,0E0,0E0,0E0,0E0,0E0,0E0],"parents":[2147483647,0,0,1,1,2,2,3,3,4,4,5,5,6,6,7,7,8,8,9,9,10,10,11,11,12,12,13,13,14,14,17,17,18,18,19,19,20,20,21,21,22,22,23,23,24,24,25,25,26,26,28,28,29,29,30,30],"right_children":[2,4,6,8,10,12,14,16,18,20,22,24,26,28,30,-1,-1,32,34,36,38,40,42,44,46,48,50,-1,52,54,56,-1,-1,-1,-1,-1,-1,-1,-1,-1,-1,-1,-1,-1,-1,-1,-1,-1,-1,-1,-1,-1,-1,-1,-1,-1,-1],"split_conditions":[-5.9241786E0,-5.010045E-2,1.043163E2,-1.9883357E2,1.7876095E-1,3.215932E-1,1.8914344E0,-6.647602E-2,-2.3236801E1,-2.5790814E2,6.1163297E0,-1.2249495E0,5.78E0,8.4905034E-1,1.0155058E1,-5.6623803E-3,-0E0,-5.1753723E1,-1.1212401E1,-4.4841686E1,-3.6506874E1,-7.571929E1,-7.581E1,9.2869334E-2,9.966204E-2,1.5767746E0,-2.7609829E1,-5.47182E-3,-1.9306932E1,6.3987046E-1,9.822896E-1,-0E0,5.890084E-3,-3.8532442E-3,-0E0,-2.1624155E-3,-0E0,7.6065063E-3,1.9184755E-3,1.968263E-3,-4.5117163E-3,-0E0,5.154706E-3,-0E0,-1.7880315E-3,-5.115153E-4,4.3793567E-3,-4.2931684E-3,-1.0400167E-3,-5.8263736E-3,-1.2274703E-4,1.2887054E-3,-0E0,-0E0,1.1563322E-2,4.8261657E-3,-2.1717872E-3],"split_indices":[5,7,2,2,7,7,3,7,3,2,4,5,2,7,4,0,0,3,5,4,3,4,2,7,7,5,3,0,3,7,7,0,0,0,0,0,0,0,0,0,0,0,0,0,0,0,0,0,0,0,0,0,0,0,0,0,0],"split_type":[0,0,0,0,0,0,0,0,0,0,0,0,0,0,0,0,0,0,0,0,0,0,0,0,0,0,0,0,0,0,0,0,0,0,0,0,0,0,0,0,0,0,0,0,0,0,0,0,0,0,0,0,0,0,0,0,0],"sum_hessian":[2.8877266E3,6.445999E2,2.2431267E3,1.370009E2,5.0759903E2,2.0601E3,1.8302661E2,3.8471836E1,9.852907E1,3.608821E2,1.4671692E2,5.537881E2,1.506312E3,3.2573006E1,1.504536E2,3.536984E1,3.1020002E0,4.751444E1,5.1014626E1,2.9311691E1,3.315704E2,8.146741E1,6.524951E1,3.6034396E2,1.9344412E2,4.423035E2,1.0640085E3,2.1898333E1,1.0674672E1,5.593306E1,9.4520546E1,5.3838143E0,4.2130627E1,1.4195736E1,3.681889E1,2.7071953E1,2.2397385E0,1.343744E2,1.9719601E2,1.0254465E1,7.1212944E1,1.2035138E1,5.321437E1,1.1107966E2,2.492643E2,2.271761E1,1.7072652E2,3.2520425E2,1.1709924E2,6.452374E1,9.994848E2,5.325022E0,5.3496494E0,1.3517945E0,5.4581264E1,4.720523E1,4.731531E1],"tree_param":{"num_deleted":"0","num_feature":"8","num_nodes":"57","size_leaf_vector":"1"}},{"base_weights":[-0E0,5.782448E-1,-6.997786E-2,9.139051E-3,2.7364993E-1,-3.6864012E-1,-1.1650755E-3,5.1008785E-1,1.0526861E-2,-4.737154E-1,-1.785893E-1,1.4569432E-1,-5.107841E-2,7.130656E-1,-0E0,-6.89038E-2,2.6076114E-1,-4.8190698E-1,-0E0,-0E0,-3.2290003E-1,4.4924043E-2,3.6096057E-1,-1.6991684E-1,-1.4039932E-2,-0E0,9.93593E-3,-0E0,2.7485567E-4,-2.2830968E-3,-0E0,-0E0,3.9271927E-3,-0E0,-6.3817026E-3,4.0579843E-3,-1.6295385E-3,-4.4933124E-3,-0E0,3.8967433E-3,-1.1720795E-4,-0E0,5.373768E-3,3.3220567E-4,-2.841058E-3,1.2000545E-3,-1.4873018E-3],"categories":[],"categories_nodes":[],"categories_segments":[],"categories_sizes":[],"default_left":[0,0,0,0,0,0,0,0,0,0,0,0,0,0,0,0,0,0,0,0,0,0,0,0,0,0,0,0,0,0,0,0,0,0,0,0,0,0,0,0,0,0,0,0,0,0,0],"id":21,"left_children":[1,3,5,-1,7,9,11,13,15,17,19,21,23,25,27,29,31,33,-1,35,37,39,41,43,45,-1,-1,-1,-1,-1,-1,-1,-1,-1,-1,-1,-1,-1,-1,-1,-1,-1,-1,-1,-1,-1,-1],"loss_changes":[1.1741371E2,5.389E0,5.090155E1,0E0,4.0380526E0,5.642029E0,1.49927025E1,4.443082E0,2.3578176E0,6.706009E-1,3.3849869E0,8.948018E0,6.1108246E0,7.6473236E-1,4.9356837E-3,3.7323803E-1,1.5925598E-1,4.11644E-2,0E0,3.3382607E0,4.814663E-1,6.4459977E0,3.956026E0,4.1202574E0,1.3290737E1,0E0,0E0,0E0,0E0,0E0,0E0,0E0,0E0,0E0,0E0,0E0,0E0,0E0,0E0,0E0,0E0,0E0,0E0,0E0,0E0,0E0,0E0],"parents":[2147483647,0,0,1,1,2,2,4,4,5,5,6,6,7,7,8,8,9,9,10,10,11,11,12,12,13,13,14,14,15,15,16,16,17,17,19,19,20,20,21,21,22,22,23,23,24,24],"right_children":[2,4,6,-1,8,10,12,14,16,18,20,22,24,26,28,30,32,34,-1,36,38,40,42,44,46,-1,-1,-1,-1,-1,-1,-1,-1,-1,-1,-1,-1,-1,-1,-1,-1,-1,-1,-1,-1,-1,-1],"split_conditions":[2.1456772E-2,1.9306865E-2,-3.399924E1,9.139051E-3,-1.3899156E0,2.1030991E-1,3.3656918E-2,1.2575216E0,-7.413725E-2,2.4398048E0,1.15898825E-1,5.621672E0,1.8639404E-1,-5.6831627E0,-4.0770078E-1,1.8914344E0,1.9809643E-2,-3.167544E-1,-0E0,-1.517346E0,-4.2884834E1,-2.5713925E0,1.4896142E-1,-2.6384224E1,3.646108E0,-0E0,9.93593E-3,-0E0,2.7485567E-4,-2.2830968E-3,-0E0,-0E0,3.9271927E-3,-0E0,-6.3817026E-3,4.0579843E-3,-1.6295385E-3,-4.4933124E-3,-0E0,3.8967433E-3,-1.1720795E-4,-0E0,5.373768E-3,3.3220567E-4,-2.841058E-3,1.2000545E-3,-1.4873018E-3],"split_indices":[6,6,3,0,3,7,6,5,5,5,6,3,7,5,2,3,6,7,0,5,3,5,7,3,5,0,0,0,0,0,0,0,0,0,0,0,0,0,0,0,0,0,0,0,0,0,0],"split_type":[0,0,0,0,0,0,0,0,0,0,0,0,0,0,0,0,0,0,0,0,0,0,0,0,0,0,0,0,0,0,0,0,0,0,0,0,0,0,0,0,0,0,0,0,0,0,0],"sum_hessian":[2.8703804E3,3.0856033E2,2.56182E3,2.0637932E2,1.02181015E2,4.6203632E2,2.0997837E3,4.1339016E1,6.0842E1,2.757874E2,1.862489E2,5.0478693E2,1.5949968E3,2.745079E1,1.38882265E1,3.376582E1,2.707618E1,2.6921036E2,6.577047E0,1.0028109E2,8.5967804E1,3.6376978E2,1.4101714E2,3.4265408E2,1.2523427E3,2.2424662E0,2.5208324E1,7.6027064E0,6.2855196E0,1.3467776E1,2.0298044E1,5.8645215E0,2.1211658E1,3.938091E0,2.6527228E2,1.5547505E1,8.473359E1,8.0266556E1,5.7012453E0,7.652995E1,2.8723984E2,8.551549E0,1.3246558E2,4.5362637E1,2.9729144E2,5.828483E2,6.694944E2],"tree_param":{"num_deleted":"0","num_feature":"8","num_nodes":"47","size_leaf_vector":"1"}},{"base_weights":[-0E0,2.1144424E-1,-1.3952611E-1,4.2403185E-1,1.2382063E-1,-1.8303527E-1,1.852134E-1,2.6372615E-1,7.545378E-1,1.3692184E-2,3.1284156E-1,-2.6456092E-2,-2.2057454E-1,3.7529108E-1,-1.829695E-1,4.4497594E-1,-0E0,-0E0,1.0429982E-2,-4.8631694E-2,6.3356817E-1,4.8206982E-1,-1.7213086E-3,-1.3479356E-1,3.2407936E-1,-3.927714E-1,-1.6813341E-1,-2.1925142E-1,5.191101E-1,-4.599155E-3,-0E0,7.126751E-3,-0E0,-4.646456E-3,1.681475E-3,2.7949745E-3,-1.5651229E-3,1.1000168E-2,-0E0,-0E0,6.7908303E-3,1.5134894E-3,-2.866909E-3,-4.196739E-3,9.185511E-4,5.927635E-3,-0E0,-8.1757683E-4,-6.317239E-3,-1.5174815E-3,-5.483535E-3,-0E0,-4.6737054E-3,8.236855E-3,-2.0547301E-4,-2.1478175E-3,1.9496867E-3],"categories":[],"categories_nodes":[],"categories_segments":[],"categories_sizes":[],"default_left":[0,0,0,0,0,0,0,0,0,0,0,0,0,0,0,0,0,0,0,0,0,0,0,0,0,0,0,0,0,0,0,0,0,0,0,0,0,0,0,0,0,0,0,0,0,0,0,0,0,0,0,0,0,0,0,0,0],"id":22,"left_children":[1,3,5,7,9,11,13,15,17,19,21,23,25,27,29,31,33,-1,-1,35,37,39,41,43,45,47,49,51,53,-1,55,-1,-1,-1,-1,-1,-1,-1,-1,-1,-1,-1,-1,-1,-1,-1,-1,-1,-1,-1,-1,-1,-1,-1,-1,-1,-1],"loss_changes":[8.522204E1,1.824242E1,2.5004555E1,1.0558197E1,1.5650943E1,7.9451866E0,1.5068962E1,1.3058459E1,4.0046654E0,2.4219355E1,1.7795225E1,1.1972513E1,8.039059E0,1.4065466E1,2.1511488E0,6.31048E0,5.261761E0,0E0,0E0,8.762612E0,1.0339006E1,5.419487E0,3.062893E0,1.155258E1,4.49581E0,4.77285E0,9.9473915E0,1.6603311E0,1.0080261E1,0E0,8.856636E-1,0E0,0E0,0E0,0E0,0E0,0E0,0E0,0E0,0E0,0E0,0E0,0E0,0E0,0E0,0E0,0E0,0E0,0E0,0E0,0E0,0E0,0E0,0E0,0E0,0E0,0E0],"parents":[2147483647,0,0,1,1,2,2,3,3,4,4,5,5,6,6,7,7,8,8,9,9,10,10,11,11,12,12,13,13,14,14,15,15,16,16,19,19,20,20,21,21,22,22,23,23,24,24,25,25,26,26,27,27,28,28,30,30],"right_children":[2,4,6,8,10,12,14,16,18,20,22,24,26,28,30,32,34,-1,-1,36,38,40,42,44,46,48,50,52,54,-1,56,-1,-1,-1,-1,-1,-1,-1,-1,-1,-1,-1,-1,-1,-1,-1,-1,-1,-1,-1,-1,-1,-1,-1,-1,-1,-1],"split_conditions":[-1.6286911E-2,-5.6318197E-2,6.71268E1,-5.227814E0,-1.3691985E1,-7.6417467E-3,7.275151E1,2.7949072E1,-1.1953269E2,1.1922366E1,-5.9367104E0,-4.390452E-1,-2.8363285E0,3.4924824E0,1.2200682E1,-6.366747E-2,-1.4228328E1,-0E0,1.0429982E-2,-1.1753028E1,5.2564342E1,2.878709E1,4.4139427E1,4.511929E-1,5.8880454E-1,4.459079E1,8.759433E0,1.3267363E1,4.146408E1,-4.599155E-3,1.0002352E0,7.126751E-3,-0E0,-4.646456E-3,1.681475E-3,2.7949745E-3,-1.5651229E-3,1.1000168E-2,-0E0,-0E0,6.7908303E-3,1.5134894E-3,-2.866909E-3,-4.196739E-3,9.185511E-4,5.927635E-3,-0E0,-8.1757683E-4,-6.317239E-3,-1.5174815E-3,-5.483535E-3,-0E0,-4.6737054E-3,8.236855E-3,-2.0547301E-4,-2.1478175E-3,1.9496867E-3],"split_indices":[0,0,1,5,3,0,1,1,3,5,3,3,5,5,5,0,5,0,0,5,1,1,1,7,7,1,5,3,3,0,7,0,0,0,0,0,0,0,0,0,0,0,0,0,0,0,0,0,0,0,0,0,0,0,0,0,0],"split_type":[0,0,0,0,0,0,0,0,0,0,0,0,0,0,0,0,0,0,0,0,0,0,0,0,0,0,0,0,0,0,0,0,0,0,0,0,0,0,0,0,0,0,0,0,0,0,0,0,0,0,0,0,0,0,0,0,0],"sum_hessian":[2.8889521E3,1.1354633E3,1.7534889E3,3.0915347E2,8.2630975E2,1.5618132E3,1.9167561E2,2.2442055E2,8.4732925E1,5.4221545E2,2.8409433E2,3.2943442E2,1.2323788E3,1.3530624E2,5.6369373E1,1.4153773E2,8.288282E1,2.2535675E0,8.2479355E1,4.8953772E2,5.2677746E1,1.933231E2,9.077123E1,2.6490375E2,6.4530685E1,2.5786243E2,9.7451636E2,1.907256E1,1.1623369E2,2.934488E1,2.7024494E1,1.15140236E2,2.6397495E1,2.944609E1,5.3436726E1,8.6748726E1,4.0278897E2,4.2809883E1,9.867863E0,5.3872437E0,1.8793585E2,4.5456768E1,4.531447E1,1.5068698E2,1.1421676E2,5.300231E1,1.1528371E1,6.790031E1,1.8996211E2,8.2702234E2,1.4749405E2,1.7918444E0,1.7280716E1,1.0383061E2,1.2403076E1,1.0084047E1,1.6940447E1],"tree_param":{"num_deleted":"0","num_feature":"8","num_nodes":"57","size_leaf_vector":"1"}},{"base_weights":[-0E0,1.5410522E-1,-4.3112077E-2,5.6776315E-2,3.037757E-1,-7.51585E-2,2.82307E-1,2.9005432E-1,-2.0873915E-1,-0E0,3.8192007E-1,-2.3859108E-2,-1.4716715E-1,-1.5006004E-1,4.0707707E-1,-1.4157125E-1,4.2339322E-1,-4.3296576E-1,-6.550876E-2,3.2257557E-1,-4.7992514E-3,4.03017E-1,-0E0,-1.1338842E-1,7.197359E-2,-2.8595394E-1,2.2084786E-2,-5.00814E-3,-0E0,8.246798E-1,8.666152E-2,-0E0,-2.933589E-3,6.6745174E-3,-1.0160103E-3,-0E0,-6.358855E-3,5.168286E-3,-2.4164561E-3,-0E0,6.674063E-3,9.946408E-3,3.968493E-3,4.6298534E-4,-2.8199614E-3,-9.4493834E-4,3.7526374E-3,-4.0243636E-3,1.9157971E-3,2.8429723E-3,-9.274424E-4,2.2834968E-3,-0E0,1.1632282E-2,-0E0,-1.3102408E-3,5.3534554E-3],"categories":[],"categories_nodes":[],"categories_segments":[],"categories_sizes":[],"default_left":[0,0,0,0,0,0,0,0,0,0,0,0,0,0,0,0,0,0,0,0,0,0,0,0,0,0,0,0,0,0,0,0,0,0,0,0,0,0,0,0,0,0,0,0,0,0,0,0,0,0,0,0,0,0,0,0,0],"id":23,"left_children":[1,3,5,7,9,11,13,15,17,19,21,23,25,27,29,31,33,35,37,39,-1,41,-1,43,45,47,49,-1,51,53,55,-1,-1,-1,-1,-1,-1,-1,-1,-1,-1,-1,-1,-1,-1,-1,-1,-1,-1,-1,-1,-1,-1,-1,-1,-1,-1],"loss_changes":[1.9624872E1,7.6009054E0,2.2376867E1,2.6794512E1,6.8954754E0,6.709113E0,1.1701105E1,1.5308353E1,3.4629154E0,5.937615E0,2.5251122E0,1.0930644E1,2.043327E1,2.6973774E0,1.59286995E1,9.5483685E-1,1.0409458E1,1.9359236E0,6.6629024E0,2.4464948E0,0E0,4.1763687E-1,0E0,1.1048125E1,1.891273E1,5.0717926E0,7.1829433E0,0E0,3.5167363E-1,1.6338692E0,7.746913E0,0E0,0E0,0E0,0E0,0E0,0E0,0E0,0E0,0E0,0E0,0E0,0E0,0E0,0E0,0E0,0E0,0E0,0E0,0E0,0E0,0E0,0E0,0E0,0E0,0E0,0E0],"parents":[2147483647,0,0,1,1,2,2,3,3,4,4,5,5,6,6,7,7,8,8,9,9,10,10,11,11,12,12,13,13,14,14,15,15,16,16,17,17,18,18,19,19,21,21,23,23,24,24,25,25,26,26,28,28,29,29,30,30],"right_children":[2,4,6,8,10,12,14,16,18,20,22,24,26,28,30,32,34,36,38,40,-1,42,-1,44,46,48,50,-1,52,54,56,-1,-1,-1,-1,-1,-1,-1,-1,-1,-1,-1,-1,-1,-1,-1,-1,-1,-1,-1,-1,-1,-1,-1,-1,-1,-1],"split_conditions":[-5.9241786E0,-8.738E1,1.043163E2,-2.5757893E1,-1.890727E1,1.5557796E-3,1.8914344E0,-2.5790814E2,-1.5822206E2,-7.581E1,-1.6285334E1,-8.261204E0,1.4110423E1,1.7324E2,1.0155058E1,-1.4331564E2,-1.26318565E2,-2.3491982E1,-5.4550476E-2,-3.826706E1,-4.7992514E-3,-1.3691985E1,-0E0,-3.31589E1,5.78E0,9.669E1,1.6341915E1,-5.00814E-3,2.2084E2,3.1784974E-2,2.7668842E1,-0E0,-2.933589E-3,6.6745174E-3,-1.0160103E-3,-0E0,-6.358855E-3,5.168286E-3,-2.4164561E-3,-0E0,6.674063E-3,9.946408E-3,3.968493E-3,4.6298534E-4,-2.8199614E-3,-9.4493834E-4,3.7526374E-3,-4.0243636E-3,1.9157971E-3,2.8429723E-3,-9.274424E-4,2.2834968E-3,-0E0,1.1632282E-2,-0E0,-1.3102408E-3,5.3534554E-3],"split_indices":[5,2,2,4,3,0,3,2,2,2,2,3,3,2,4,3,2,4,0,3,0,3,0,2,2,2,4,0,2,0,4,0,0,0,0,0,0,0,0,0,0,0,0,0,0,0,0,0,0,0,0,0,0,0,0,0,0],"split_type":[0,0,0,0,0,0,0,0,0,0,0,0,0,0,0,0,0,0,0,0,0,0,0,0,0,0,0,0,0,0,0,0,0,0,0,0,0,0,0,0,0,0,0,0,0,0,0,0,0,0,0,0,0,0,0,0,0],"sum_hessian":[2.8763374E3,6.4645404E2,2.2298833E3,4.1614404E2,2.3031E2,2.0474644E3,1.8241896E2,2.3129811E2,1.8484593E2,3.91683E1,1.911417E2,1.2401013E3,8.07363E2,3.165105E1,1.5076791E2,4.566636E1,1.8563174E2,5.450129E1,1.3034465E2,1.6120424E1,2.3047878E1,1.8669066E2,4.4510374E0,6.676367E2,5.7246466E2,4.5794318E2,3.4941977E2,1.9260777E1,1.2390275E1,5.5265648E1,9.550226E1,1.1118731E1,3.454763E1,1.6732526E2,1.830648E1,3.5815291E0,5.0919758E1,1.568542E1,1.1465923E2,3.110493E0,1.3009932E1,2.3282566E1,1.634081E2,2.5171898E2,4.1591772E2,3.3002716E2,2.4243752E2,4.4988058E2,8.062589E0,1.2812305E2,2.2129672E2,6.6499114E0,5.740363E0,4.9408993E1,5.8566556E0,5.2718185E1,4.2784073E1],"tree_param":{"num_deleted":"0","num_feature":"8","num_nodes":"57","size_leaf_vector":"1"}},{"base_weights":[-0E0,3.157011E-1,-1.24587014E-1,-0E0,4.6425807E-1,-3.5229456E-1,-2.2388592E-2,2.0951477E-1,-5.4201208E-2,5.0732625E-1,-0E0,-4.7609887E-1,-2.1706335E-1,5.965546E-4,-2.2297584E-1,-0E0,2.7031884E-1,-1.6078399E-1,1.3901564E-1,9.384174E-3,3.8478914E-1,-1.2503777E-1,5.888284E-3,-0E0,-4.872563E-1,9.874713E-2,-2.469956E-1,-1.6883673E-2,2.2030684E-1,-2.7543733E-1,-0E0,6.878795E-3,-0E0,-3.758528E-3,6.420404E-4,4.7289827E-3,-0E0,2.899627E-3,6.946543E-3,-0E0,-2.3788027E-3,-0E0,1.3138773E-3,-1.0203451E-4,-0E0,-0E0,-6.480571E-3,-0E0,3.2533745E-3,-4.8079502E-5,-3.752996E-3,4.262349E-3,-4.0959145E-4,-0E0,5.691474E-3,-0E0,-4.0212153E-3,4.4483677E-4,-0E0],"categories":[],"categories_nodes":[],"categories_segments":[],"categories_sizes":[],"default_left":[0,0,0,0,0,0,0,0,0,0,0,0,0,0,0,0,0,0,0,0,0,0,0,0,0,0,0,0,0,0,0,0,0,0,0,0,0,0,0,0,0,0,0,0,0,0,0,0,0,0,0,0,0,0,0,0,0,0,0],"id":24,"left_children":[1,3,5,7,9,11,13,15,17,19,21,23,25,27,29,-1,31,33,35,-1,37,39,41,43,45,47,49,51,53,55,57,-1,-1,-1,-1,-1,-1,-1,-1,-1,-1,-1,-1,-1,-1,-1,-1,-1,-1,-1,-1,-1,-1,-1,-1,-1,-1,-1,-1],"loss_changes":[1.1400609E2,3.677527E1,4.6149117E1,3.7932336E0,1.2316483E1,6.469452E0,7.779361E0,1.725013E0,4.5239167E0,6.0268097E0,3.4401846E-1,7.6179504E-1,3.953042E0,5.951499E0,2.6946888E0,0E0,2.5637364E0,5.288414E0,3.3474946E0,0E0,3.8284225E0,3.316684E-1,1.4780527E-1,8.0072106E-4,3.8941193E-1,4.9060708E-1,1.4990959E0,4.2816677E0,3.516111E0,2.084342E0,2.7507778E-2,0E0,0E0,0E0,0E0,0E0,0E0,0E0,0E0,0E0,0E0,0E0,0E0,0E0,0E0,0E0,0E0,0E0,0E0,0E0,0E0,0E0,0E0,0E0,0E0,0E0,0E0,0E0,0E0],"parents":[2147483647,0,0,1,1,2,2,3,3,4,4,5,5,6,6,7,7,8,8,9,9,10,10,11,11,12,12,13,13,14,14,16,16,17,17,18,18,20,20,21,21,22,22,23,23,24,24,25,25,26,26,27,27,28,28,29,29,30,30],"right_children":[2,4,6,8,10,12,14,16,18,20,22,24,26,28,30,-1,32,34,36,-1,38,40,42,44,46,48,50,52,54,56,58,-1,-1,-1,-1,-1,-1,-1,-1,-1,-1,-1,-1,-1,-1,-1,-1,-1,-1,-1,-1,-1,-1,-1,-1,-1,-1,-1,-1],"split_conditions":[3.3656918E-2,-5.3065056E-3,-3.205994E-2,-2.2859163E0,2.1238549E-2,-5.6318197E-2,6.753127E1,-2.5902895E-2,2.599238E0,1.8640453E-2,1.4696103E1,1.4907183E1,2.1746544E1,2.6117428E1,7.639725E1,-0E0,-2.3815012E0,-1.0903223E-2,4.8532555E1,9.384174E-3,5.4918258E-3,2.325251E0,6.3500797E1,-4.3424213E1,5.2503396E-2,-2.2778585E1,-4.9505466E1,3.2601612E1,6.0584236E-2,2.0092605E-2,4.48021E1,6.878795E-3,-0E0,-3.758528E-3,6.420404E-4,4.7289827E-3,-0E0,2.899627E-3,6.946543E-3,-0E0,-2.3788027E-3,-0E0,1.3138773E-3,-1.0203451E-4,-0E0,-0E0,-6.480571E-3,-0E0,3.2533745E-3,-4.8079502E-5,-3.752996E-3,4.262349E-3,-4.0959145E-4,-0E0,5.691474E-3,-0E0,-4.0212153E-3,4.4483677E-4,-0E0],"split_indices":[6,0,0,5,0,0,1,0,5,6,4,1,1,4,1,0,4,0,1,0,0,4,1,4,6,4,4,1,6,0,4,0,0,0,0,0,0,0,0,0,0,0,0,0,0,0,0,0,0,0,0,0,0,0,0,0,0,0,0],"split_type":[0,0,0,0,0,0,0,0,0,0,0,0,0,0,0,0,0,0,0,0,0,0,0,0,0,0,0,0,0,0,0,0,0,0,0,0,0,0,0,0,0,0,0,0,0,0,0,0,0,0,0,0,0,0,0,0,0,0,0],"sum_hessian":[2.8775103E3,8.172255E2,2.0602847E3,2.7139227E2,5.4583325E2,6.192897E2,1.440995E3,6.742832E1,2.0396394E2,5.0413315E2,4.1700127E1,2.9742236E2,3.218673E2,1.2749569E3,1.6603807E2,5.311779E0,6.2116543E1,1.4867075E2,5.5293198E1,1.6346982E2,3.4066333E2,1.693788E1,2.4762245E1,1.0482779E1,2.8693958E2,1.2408455E1,3.0945883E2,1.1641919E3,1.1076499E2,1.4260811E2,2.3429958E1,2.2262688E1,3.9853855E1,1.0687649E2,4.179425E1,2.985642E1,2.5436777E1,1.8119263E2,1.5947069E2,1.3435122E0,1.5594367E1,1.4869131E1,9.893115E0,8.28528E0,2.1974978E0,5.259092E0,2.8168048E2,6.6315475E0,5.7769074E0,6.0813232E1,2.4864561E2,2.8343706E1,1.1358483E3,6.705343E1,4.3711563E1,5.716536E0,1.3689157E2,1.9012522E1,4.4174366E0],"tree_param":{"num_deleted":"0","num_feature":"8","num_nodes":"59","size_leaf_vector":"1"}},{"base_weights":[-0E0,2.0436145E-1,-1.3541469E-1,1.6254945E-1,7.2208285E-1,-2.53379E-1,-4.4108264E-2,3.8259277E-1,6.9587804E-2,8.860174E-1,-0E0,-4.7110716E-1,-1.9310023E-1,-8.919358E-2,1.1378369E-1,2.635842E-1,6.531128E-1,-5.4329943E-2,3.1127015E-1,1.2901787E-2,-0E0,-4.921266E-1,-0E0,-4.270066E-1,-1.0063312E-1,-3.0000454E-2,-3.0807298E-1,-3.3568528E-1,3.170962E-1,5.794843E-3,-0E0,1.4765162E-3,1.1884003E-2,2.4120281E-3,-1.6104127E-3,6.1968556E-3,-0E0,-6.534191E-3,-0E0,-2.6085945E-3,-7.5761364E-3,-3.9913757E-3,-0E0,-1.2652845E-3,6.855288E-4,-0E0,-6.7093754E-3,-0E0,-6.0488074E-3,1.0281093E-2,-0E0],"categories":[],"categories_nodes":[],"categories_segments":[],"categories_sizes":[],"default_left":[0,0,0,0,0,0,0,0,0,0,0,0,0,0,0,0,0,0,0,0,0,0,0,0,0,0,0,0,0,0,0,0,0,0,0,0,0,0,0,0,0,0,0,0,0,0,0,0,0,0,0],"id":25,"left_children":[1,3,5,7,9,11,13,15,17,19,-1,21,23,25,27,29,31,33,35,-1,-1,37,-1,39,41,43,45,47,49,-1,-1,-1,-1,-1,-1,-1,-1,-1,-1,-1,-1,-1,-1,-1,-1,-1,-1,-1,-1,-1,-1],"loss_changes":[7.9652756E1,1.9676125E1,1.7267944E1,1.9505093E1,8.124699E0,5.897579E0,7.1491184E0,4.2420387E0,2.457049E1,2.0270424E0,0E0,1.7383537E0,1.0204287E1,8.842646E0,1.8979805E1,8.681268E0,4.68874E0,7.9621696E0,1.5755268E1,0E0,0E0,3.4116745E-1,0E0,8.1856346E-1,1.0594538E1,3.8732362E0,1.1891174E1,2.9386687E0,1.9013058E1,0E0,0E0,0E0,0E0,0E0,0E0,0E0,0E0,0E0,0E0,0E0,0E0,0E0,0E0,0E0,0E0,0E0,0E0,0E0,0E0,0E0,0E0],"parents":[2147483647,0,0,1,1,2,2,3,3,4,4,5,5,6,6,7,7,8,8,9,9,11,11,12,12,13,13,14,14,15,15,16,16,17,17,18,18,21,21,23,23,24,24,25,25,26,26,27,27,28,28],"right_children":[2,4,6,8,10,12,14,16,18,20,-1,22,24,26,28,30,32,34,36,-1,-1,38,-1,40,42,44,46,48,50,-1,-1,-1,-1,-1,-1,-1,-1,-1,-1,-1,-1,-1,-1,-1,-1,-1,-1,-1,-1,-1,-1],"split_conditions":[-1.6286911E-2,1.3161151E1,6.169129E-1,-5.6318197E-2,-2.450059E-2,1.8640453E-2,9.822896E-1,-5.227814E0,-1.3691985E1,-2.441751E1,-0E0,1.0002352E0,-6.039166E0,9.845992E0,1.8709887E-2,6.176434E-2,-6.269515E1,-1.1753028E1,-5.9367104E0,1.2901787E-2,-0E0,2.282559E-2,-0E0,1.8639404E-1,-1.1932398E0,7.763929E-1,5.2941127E0,4.4298787E0,1.0346309E0,5.794843E-3,-0E0,1.4765162E-3,1.1884003E-2,2.4120281E-3,-1.6104127E-3,6.1968556E-3,-0E0,-6.534191E-3,-0E0,-2.6085945E-3,-7.5761364E-3,-3.9913757E-3,-0E0,-1.2652845E-3,6.855288E-4,-0E0,-6.7093754E-3,-0E0,-6.0488074E-3,1.0281093E-2,-0E0],"split_indices":[0,5,5,0,0,6,7,5,3,3,0,7,5,5,0,7,3,5,3,0,0,0,0,7,3,7,3,5,7,0,0,0,0,0,0,0,0,0,0,0,0,0,0,0,0,0,0,0,0,0,0],"split_type":[0,0,0,0,0,0,0,0,0,0,0,0,0,0,0,0,0,0,0,0,0,0,0,0,0,0,0,0,0,0,0,0,0,0,0,0,0,0,0,0,0,0,0,0,0,0,0,0,0,0,0],"sum_hessian":[2.876888E3,1.1353981E3,1.74149E3,1.0655686E3,6.982943E1,7.320607E2,1.00942926E3,2.9587027E2,7.6969836E2,5.505022E1,1.4779211E1,1.3335481E2,5.9870593E2,8.1154034E2,1.978889E2,2.2516797E2,7.070231E1,4.9770026E2,2.7199808E2,4.602314E1,9.027081E0,1.2896622E2,4.38859E0,1.4917851E2,4.4952744E2,6.6124426E2,1.502961E2,5.2960182E1,1.4492873E2,1.2191545E2,1.0325252E2,3.1028582E1,3.967373E1,9.2686264E1,4.0501398E2,1.8659439E2,8.54037E1,1.2764528E2,1.3209405E0,7.6812195E1,7.236631E1,1.597828E2,2.8974463E2,3.9922507E2,2.6201917E2,5.3109642E1,9.7186455E1,1.3251797E1,3.9708385E1,5.0707226E1,9.42215E1],"tree_param":{"num_deleted":"0","num_feature":"8","num_nodes":"51","size_leaf_vector":"1"}},{"base_weights":[-0E0,-2.0483859E-1,9.154277E-2,-0E0,-3.1924054E-1,-1.2098232E-2,2.2134076E-1,-3.8442004E-2,3.630082E-1,-3.3632103E-1,8.647683E-2,8.397029E-2,-2.0257434E-1,-3.4999964E-1,2.4646547E-1,-0E0,-3.4311727E-1,-0E0,7.0547415E-3,-2.6286256E-1,-5.68356E-1,3.92348E-3,-0E0,1.7644827E-1,-2.9774493E-1,-0E0,-3.5896558E-1,-5.657326E-3,-0E0,5.9164363E-1,1.8957739E-1,1.2793406E-3,-1.2920876E-3,-5.252515E-3,-0E0,-4.841103E-3,-1.5358591E-3,-7.667578E-3,-0E0,-2.1080454E-3,2.8311068E-3,-4.9800817E-3,-0E0,-1.7965023E-3,4.0460927E-3,-5.174587E-3,-0E0,-0E0,8.430742E-3,6.5169996E-3,1.8441771E-3],"categories":[],"categories_nodes":[],"categories_segments":[],"categories_sizes":[],"default_left":[0,0,0,0,0,0,0,0,0,0,0,0,0,0,0,0,0,0,0,0,0,0,0,0,0,0,0,0,0,0,0,0,0,0,0,0,0,0,0,0,0,0,0,0,0,0,0,0,0,0,0],"id":26,"left_children":[1,3,5,7,9,11,13,15,17,19,21,23,25,27,29,31,33,-1,-1,35,37,-1,-1,39,41,43,45,-1,-1,47,49,-1,-1,-1,-1,-1,-1,-1,-1,-1,-1,-1,-1,-1,-1,-1,-1,-1,-1,-1,-1],"loss_changes":[5.398162E1,2.1017056E1,2.7984259E1,4.781732E0,5.3538284E0,2.073706E1,1.2980549E1,3.858231E0,3.642404E0,4.660671E0,9.6789706E-1,2.4887526E1,1.3622252E1,1.1867626E0,1.2877167E1,2.5445414E0,1.1034398E0,0E0,0E0,4.317404E0,1.3802605E0,0E0,0E0,8.178392E0,4.3122616E0,7.712659E0,4.202856E0,0E0,0E0,4.5614967E0,8.210403E0,0E0,0E0,0E0,0E0,0E0,0E0,0E0,0E0,0E0,0E0,0E0,0E0,0E0,0E0,0E0,0E0,0E0,0E0,0E0,0E0],"parents":[2147483647,0,0,1,1,2,2,3,3,4,4,5,5,6,6,7,7,8,8,9,9,10,10,11,11,12,12,13,13,14,14,15,15,16,16,19,19,20,20,23,23,24,24,25,25,26,26,29,29,30,30],"right_children":[2,4,6,8,10,12,14,16,18,20,22,24,26,28,30,32,34,-1,-1,36,38,-1,-1,40,42,44,46,-1,-1,48,50,-1,-1,-1,-1,-1,-1,-1,-1,-1,-1,-1,-1,-1,-1,-1,-1,-1,-1,-1,-1],"split_conditions":[3.526492E-2,-5.3065056E-3,-5.457322E0,5.619202E0,8.412377E0,-3.31589E1,-8.581E1,2.9211013E0,2.5262704E-2,3.428E1,5.3324362E-5,-1.3691985E1,5.3082068E-2,1.00128636E-1,-4.9948783E0,-1.40073085E-2,-2.765564E0,-0E0,7.0547415E-3,5.78E0,2.5194365E1,3.92348E-3,-0E0,-2.5790814E2,-4.5384037E1,1.4685361E1,1.7324E2,-5.657326E-3,-0E0,3.6280263E-2,-2.8862804E-1,1.2793406E-3,-1.2920876E-3,-5.252515E-3,-0E0,-4.841103E-3,-1.5358591E-3,-7.667578E-3,-0E0,-2.1080454E-3,2.8311068E-3,-4.9800817E-3,-0E0,-1.7965023E-3,4.0460927E-3,-5.174587E-3,-0E0,-0E0,8.430742E-3,6.5169996E-3,1.8441771E-3],"split_indices":[6,0,3,5,5,2,2,5,6,2,0,3,6,6,5,0,3,0,0,2,3,0,0,2,2,2,2,0,0,6,3,0,0,0,0,0,0,0,0,0,0,0,0,0,0,0,0,0,0,0,0],"split_type":[0,0,0,0,0,0,0,0,0,0,0,0,0,0,0,0,0,0,0,0,0,0,0,0,0,0,0,0,0,0,0,0,0,0,0,0,0,0,0,0,0,0,0,0,0,0,0,0,0,0,0],"sum_hessian":[2.8782766E3,8.8179944E2,1.9964773E3,3.1547617E2,5.6632324E2,1.091194E3,9.052833E2,2.8746896E2,2.8007221E1,5.560912E2,1.0232044E1,7.097635E2,3.8143054E2,2.7026913E1,8.782564E2,2.5602576E2,3.1443203E1,5.269352E0,2.273787E1,4.468413E2,1.09249886E2,7.1392007E0,3.0928438E0,5.840528E2,1.25710686E2,1.5764888E2,2.2378165E2,2.2579502E1,4.4474096E0,1.0517804E2,7.7307837E2,1.351184E2,1.2090736E2,2.8771484E1,2.671718E0,2.351197E2,2.1172159E2,1.07488945E2,1.7609396E0,4.56306E1,5.384222E2,1.05741035E2,1.9969646E1,1.024529E2,5.5195976E1,2.1229039E2,1.1491256E1,5.3648276E0,9.981322E1,8.676688E1,6.8631146E2],"tree_param":{"num_deleted":"0","num_feature":"8","num_nodes":"51","size_leaf_vector":"1"}},{"base_weights":[-0E0,-3.5546064E-1,1.0221503E-1,-4.7612777E-1,-2.3179705E-1,1.678221E-1,-7.7988364E-2,-0E0,-4.8736492E-1,2.3320157E-2,-2.5570136E-1,-5.2858837E-2,3.0987528E-1,-5.4569766E-3,-2.2103852E-1,-7.2805346E-3,-0E0,-6.453462E-3,-0E0,-0E0,2.874754E-3,6.471714E-3,-2.7618334E-1,1.1777587E-1,-1.8738033E-1,4.0354097E-1,1.4730974E-1,-5.8603946E-2,2.7977413E-1,-2.7016795E-1,-0E0,-0E0,-1.4246898E-4,5.002164E-4,-0E0,-4.8387614E-3,-1.7374197E-3,8.000838E-3,7.6411484E-4,-3.0917022E-3,-0E0,1.0004051E-2,3.6183198E-3,-0E0,3.4070185E-3,-0E0,-1.9684974E-3,5.4768957E-3,-0E0,-4.207174E-3,-0E0,7.882667E-4,-0E0],"categories":[],"categories_nodes":[],"categories_segments":[],"categories_sizes":[],"default_left":[0,0,0,0,0,0,0,0,0,0,0,0,0,0,0,0,0,0,0,0,0,0,0,0,0,0,0,0,0,0,0,0,0,0,0,0,0,0,0,0,0,0,0,0,0,0,0,0,0,0,0,0,0],"id":27,"left_children":[1,3,5,7,9,11,13,15,17,19,21,23,25,27,29,31,-1,-1,-1,-1,-1,33,35,37,39,41,43,45,47,49,51,-1,-1,-1,-1,-1,-1,-1,-1,-1,-1,-1,-1,-1,-1,-1,-1,-1,-1,-1,-1,-1,-1],"loss_changes":[1.0489084E2,5.525963E0,2.7056953E1,7.707443E-1,3.3170643E0,5.3648952E1,4.902996E0,7.039577E-4,1.00379944E-1,5.70934E-1,3.1670647E0,1.5231949E1,1.2619263E1,5.262535E0,2.5514746E0,7.0259353E-4,0E0,0E0,0E0,0E0,0E0,1.3796586E-2,1.6304283E0,4.4063067E0,4.4308844E0,2.2687935E1,5.9841175E0,2.6190774E0,2.64957E0,2.136633E0,6.571628E-2,0E0,0E0,0E0,0E0,0E0,0E0,0E0,0E0,0E0,0E0,0E0,0E0,0E0,0E0,0E0,0E0,0E0,0E0,0E0,0E0,0E0,0E0],"parents":[2147483647,0,0,1,1,2,2,3,3,4,4,5,5,6,6,7,7,8,8,9,9,10,10,11,11,12,12,13,13,14,14,15,15,21,21,22,22,23,23,24,24,25,25,26,26,27,27,28,28,29,29,30,30],"right_children":[2,4,6,8,10,12,14,16,18,20,22,24,26,28,30,32,-1,-1,-1,-1,-1,34,36,38,40,42,44,46,48,50,52,-1,-1,-1,-1,-1,-1,-1,-1,-1,-1,-1,-1,-1,-1,-1,-1,-1,-1,-1,-1,-1,-1],"split_conditions":[-3.205994E-2,-5.6318197E-2,4.738E1,1.4907183E1,2.0581924E1,-9.861808E-3,6.71268E1,-7.1092316E1,1.2389E2,-3.981203E1,-6.6563866E1,-1.2591381E1,1.34121065E1,2.8592762E1,7.639725E1,-1.5292673E-1,-0E0,-6.453462E-3,-0E0,-0E0,2.874754E-3,3.5360786E1,1.7234746E-1,3.1887262E1,7.54E0,-1.1932398E0,5.8194078E-3,7.8992667E0,1.2389E2,4.146408E1,6.735002E-2,-0E0,-1.4246898E-4,5.002164E-4,-0E0,-4.8387614E-3,-1.7374197E-3,8.000838E-3,7.6411484E-4,-3.0917022E-3,-0E0,1.0004051E-2,3.6183198E-3,-0E0,3.4070185E-3,-0E0,-1.9684974E-3,5.4768957E-3,-0E0,-4.207174E-3,-0E0,7.882667E-4,-0E0],"split_indices":[0,0,2,1,1,0,1,3,2,3,3,3,2,3,1,7,0,0,0,0,0,1,7,1,2,3,0,3,2,3,0,0,0,0,0,0,0,0,0,0,0,0,0,0,0,0,0,0,0,0,0,0,0],"split_type":[0,0,0,0,0,0,0,0,0,0,0,0,0,0,0,0,0,0,0,0,0,0,0,0,0,0,0,0,0,0,0,0,0,0,0,0,0,0,0,0,0,0,0,0,0,0,0,0,0,0,0,0,0],"sum_hessian":[2.8795544E3,6.3950574E2,2.2400486E3,2.9599744E2,3.435083E2,1.6627701E3,5.772785E2,1.0475246E1,2.855222E2,1.1519727E1,3.3198856E2,6.386159E2,1.0241543E3,4.0969333E2,1.675852E2,8.280671E0,2.1945753E0,2.816271E2,3.8950825E0,4.398436E0,7.1212907E0,6.6152368E0,3.2537332E2,2.654093E2,3.732066E2,6.255573E2,3.9859695E2,3.634704E2,4.622292E1,1.4548006E2,2.2105137E1,1.31055E0,6.970121E0,4.86028E0,1.7549567E0,1.7260327E2,1.5277007E2,1.4679167E1,2.5073012E2,3.1504633E2,5.816029E1,1.4829903E2,4.7725827E2,1.8421648E2,2.1438048E2,1.9530714E2,1.6816325E2,3.334615E1,1.2876771E1,1.2304003E2,2.2440031E1,1.3268808E1,8.836329E0],"tree_param":{"num_deleted":"0","num_feature":"8","num_nodes":"53","size_leaf_vector":"1"}},{"base_weights":[1.2361209E-3,2.099395E-1,-1.3241073E-1,4.3268123E-1,1.1180355E-1,-2.0975463E-1,6.8232864E-3,-1.7566734E-3,4.7263333E-1,-1.556483E-1,2.1438552E-1,-7.376631E-2,-2.8431463E-1,1.5749836E-1,-1.472044E-1,4.9923143E-1,-0E0,-4.049964E-1,2.2411048E-1,3.5282916E-1,-1.5029785E-1,-2.1717295E-1,2.3792116E-1,-3.1238294E-1,1.5599775E-1,2.2802888E-1,-2.161136E-1,-3.3184096E-1,9.269125E-2,4.773546E-3,1.1874284E-2,-1.00184254E-4,-0E0,-0E0,-6.5557444E-3,9.1157295E-3,-0E0,2.0877789E-3,8.01514E-3,-0E0,-6.4121317E-3,6.2300236E-4,-5.5628675E-3,5.8874274E-3,-5.652677E-3,-4.921253E-3,-2.0680793E-3,7.6355697E-3,-2.7306771E-3,1.5062481E-3,7.5520123E-3,1.4955058E-3,-6.348472E-3,-4.8837964E-3,-0E0,5.4313927E-3,-2.9696664E-3],"categories":[],"categories_nodes":[],"categories_segments":[],"categories_sizes":[],"default_left":[0,0,0,0,0,0,0,0,0,0,0,0,0,0,0,0,0,0,0,0,0,0,0,0,0,0,0,0,0,0,0,0,0,0,0,0,0,0,0,0,0,0,0,0,0,0,0,0,0,0,0,0,0,0,0,0,0],"id":28,"left_children":[1,3,5,7,9,11,13,-1,15,17,19,21,23,25,27,29,31,33,35,37,39,41,43,45,47,49,51,53,55,-1,-1,-1,-1,-1,-1,-1,-1,-1,-1,-1,-1,-1,-1,-1,-1,-1,-1,-1,-1,-1,-1,-1,-1,-1,-1,-1,-1],"loss_changes":[8.064917E1,2.1909534E1,1.9755598E1,9.49316E0,2.274466E1,9.679886E0,1.4162028E1,0E0,4.762169E0,2.1674782E1,3.170578E1,1.9588024E1,9.823116E0,8.834366E0,1.3944865E1,8.761673E0,9.1481814E-4,5.0315495E0,1.1497753E1,1.8020802E1,9.84219E0,1.8957134E1,1.9068052E1,3.603325E0,7.9292164E0,7.465028E0,5.8815155E0,3.372486E0,1.3232299E1,0E0,0E0,0E0,0E0,0E0,0E0,0E0,0E0,0E0,0E0,0E0,0E0,0E0,0E0,0E0,0E0,0E0,0E0,0E0,0E0,0E0,0E0,0E0,0E0,0E0,0E0,0E0,0E0],"parents":[2147483647,0,0,1,1,2,2,3,3,4,4,5,5,6,6,8,8,9,9,10,10,11,11,12,12,13,13,14,14,15,15,16,16,17,17,18,18,19,19,20,20,21,21,22,22,23,23,24,24,25,25,26,26,27,27,28,28],"right_children":[2,4,