{"learner":{"attributes":{"best_iteration":"299","best_score":"0.8179202463676115","scikit_learn":"{\"_estimator_type\": \"classifier\"}"},"feature_names":["CLOSE_EMA_L","RSI","MOM","MACD","MACD_signal","MACD_hist","BB_Width","BB_Percent"],"feature_types":["float","float","float","float","float","float","float","float"],"gradient_booster":{"model":{"cats":{"enc":[],"feature_segments":[],"sorted_idx":[]},"gbtree_model_param":{"num_parallel_tree":"1","num_trees":"900"},"iteration_indptr":[0,3,6,9,12,15,18,21,24,27,30,33,36,39,42,45,48,51,54,57,60,63,66,69,72,75,78,81,84,87,90,93,96,99,102,105,108,111,114,117,120,123,126,129,132,135,138,141,144,147,150,153,156,159,162,165,168,171,174,177,180,183,186,189,192,195,198,201,204,207,210,213,216,219,222,225,228,231,234,237,240,243,246,249,252,255,258,261,264,267,270,273,276,279,282,285,288,291,294,297,300,303,306,309,312,315,318,321,324,327,330,333,336,339,342,345,348,351,354,357,360,363,366,369,372,375,378,381,384,387,390,393,396,399,402,405,408,411,414,417,420,423,426,429,432,435,438,441,444,447,450,453,456,459,462,465,468,471,474,477,480,483,486,489,492,495,498,501,504,507,510,513,516,519,522,525,528,531,534,537,540,543,546,549,552,555,558,561,564,567,570,573,576,579,582,585,588,591,594,597,600,603,606,609,612,615,618,621,624,627,630,633,636,639,642,645,648,651,654,657,660,663,666,669,672,675,678,681,684,687,690,693,696,699,702,705,708,711,714,717,720,723,726,729,732,735,738,741,744,747,750,753,756,759,762,765,768,771,774,777,780,783,786,789,792,795,798,801,804,807,810,813,816,819,822,825,828,831,834,837,840,843,846,849,852,855,858,861,864,867,870,873,876,879,882,885,888,891,894,897,900],"tree_info":[0,1,2,0,1,2,0,1,2,0,1,2,0,1,2,0,1,2,0,1,2,0,1,2,0,1,2,0,1,2,0,1,2,0,1,2,0,1,2,0,1,2,0,1,2,0,1,2,0,1,2,0,1,2,0,1,2,0,1,2,0,1,2,0,1,2,0,1,2,0,1,2,0,1,2,0,1,2,0,1,2,0,1,2,0,1,2,0,1,2,0,1,2,0,1,2,0,1,2,0,1,2,0,1,2,0,1,2,0,1,2,0,1,2,0,1,2,0,1,2,0,1,2,0,1,2,0,1,2,0,1,2,0,1,2,0,1,2,0,1,2,0,1,2,0,1,2,0,1,2,0,1,2,0,1,2,0,1,2,0,1,2,0,1,2,0,1,2,0,1,2,0,1,2,0,1,2,0,1,2,0,1,2,0,1,2,0,1,2,0,1,2,0,1,2,0,1,2,0,1,2,0,1,2,0,1,2,0,1,2,0,1,2,0,1,2,0,1,2,0,1,2,0,1,2,0,1,2,0,1,2,0,1,2,0,1,2,0,1,2,0,1,2,0,1,2,0,1,2,0,1,2,0,1,2,0,1,2,0,1,2,0,1,2,0,1,2,0,1,2,0,1,2,0,1,2,0,1,2,0,1,2,0,1,2,0,1,2,0,1,2,0,1,2,0,1,2,0,1,2,0,1,2,0,1,2,0,1,2,0,1,2,0,1,2,0,1,2,0,1,2,0,1,2,0,1,2,0,1,2,0,1,2,0,1,2,0,1,2,0,1,2,0,1,2,0,1,2,0,1,2,0,1,2,0,1,2,0,1,2,0,1,2,0,1,2,0,1,2,0,1,2,0,1,2,0,1,2,0,1,2,0,1,2,0,1,2,0,1,2,0,1,2,0,1,2,0,1,2,0,1,2,0,1,2,0,1,2,0,1,2,0,1,2,0,1,2,0,1,2,0,1,2,0,1,2,0,1,2,0,1,2,0,1,2,0,1,2,0,1,2,0,1,2,0,1,2,0,1,2,0,1,2,0,1,2,0,1,2,0,1,2,0,1,2,0,1,2,0,1,2,0,1,2,0,1,2,0,1,2,0,1,2,0,1,2,0,1,2,0,1,2,0,1,2,0,1,2,0,1,2,0,1,2,0,1,2,0,1,2,0,1,2,0,1,2,0,1,2,0,1,2,0,1,2,0,1,2,0,1,2,0,1,2,0,1,2,0,1,2,0,1,2,0,1,2,0,1,2,0,1,2,0,1,2,0,1,2,0,1,2,0,1,2,0,1,2,0,1,2,0,1,2,0,1,2,0,1,2,0,1,2,0,1,2,0,1,2,0,1,2,0,1,2,0,1,2,0,1,2,0,1,2,0,1,2,0,1,2,0,1,2,0,1,2,0,1,2,0,1,2,0,1,2,0,1,2,0,1,2,0,1,2,0,1,2,0,1,2,0,1,2,0,1,2,0,1,2,0,1,2,0,1,2,0,1,2,0,1,2,0,1,2,0,1,2,0,1,2,0,1,2,0,1,2,0,1,2,0,1,2,0,1,2,0,1,2,0,1,2,0,1,2,0,1,2,0,1,2,0,1,2,0,1,2,0,1,2,0,1,2,0,1,2,0,1,2,0,1,2,0,1,2,0,1,2,0,1,2,0,1,2,0,1,2,0,1,2,0,1,2,0,1,2,0,1,2,0,1,2,0,1,2,0,1,2,0,1,2,0,1,2,0,1,2,0,1,2,0,1,2,0,1,2,0,1,2,0,1,2,0,1,2,0,1,2,0,1,2,0,1,2,0,1,2,0,1,2,0,1,2,0,1,2,0,1,2,0,1,2,0,1,2,0,1,2,0,1,2,0,1,2,0,1,2,0,1,2,0,1,2,0,1,2,0,1,2,0,1,2,0,1,2,0,1,2,0,1,2,0,1,2,0,1,2,0,1,2,0,1,2,0,1,2,0,1,2,0,1,2,0,1,2,0,1,2,0,1,2,0,1,2,0,1,2,0,1,2,0,1,2,0,1,2,0,1,2,0,1,2],"trees":[{"base_weights":[-0E0,8.469657E-1,-8.679437E-2,3.3261567E-1,1.0700961E0,-3.747102E-1,4.9886177E-3,1.1891211E-2,1.18471295E-1,1.1718453E0,-0E0,-3.9181384E-1,3.451327E-1,8.979397E-2,-2.4606264E-1,5.6682026E-1,-0E0,1.6732745E-2,3.7883955E-1,-3.617319E-4,2.774566E-1,1.6363633E-1,-4.1076267E-1,-0E0,5.074988E-3,-8.4290296E-2,1.5858665E-1,-1.1560478E-1,-3.6964986E-1,-0E0,8.606276E-3,1.1029018E-3,-3.787916E-3,-0E0,6.0262284E-3,5.632679E-3,-0E0,-0E0,5.039765E-3,-6.465058E-3,-2.559518E-3,4.602573E-4,-3.391954E-3,3.1791804E-3,7.7471894E-4,-2.786005E-3,5.4857396E-3,-5.3196047E-3,-0E0],"categories":[],"categories_nodes":[],"categories_segments":[],"categories_sizes":[],"default_left":[0,0,0,0,0,0,0,0,0,0,0,0,0,0,0,0,0,0,0,0,0,0,0,0,0,0,0,0,0,0,0,0,0,0,0,0,0,0,0,0,0,0,0,0,0,0,0,0,0],"id":0,"left_children":[1,3,5,7,9,11,13,-1,15,17,19,21,23,25,27,29,31,-1,33,-1,35,37,39,-1,-1,41,43,45,47,-1,-1,-1,-1,-1,-1,-1,-1,-1,-1,-1,-1,-1,-1,-1,-1,-1,-1,-1,-1],"loss_changes":[2.3344699E2,2.5037598E1,7.898892E1,6.994874E0,1.5542007E1,9.759079E0,4.6274662E1,0E0,6.5223393E0,3.4033508E0,1.4889427E0,9.057411E0,1.7769217E-1,2.0399187E1,6.1183853E0,1.6392436E0,2.4492016E0,0E0,6.769905E-1,0E0,6.6308844E-1,1.682023E0,8.320381E0,0E0,0E0,1.059035E1,8.526495E0,1.4374344E1,3.1996613E0,0E0,0E0,0E0,0E0,0E0,0E0,0E0,0E0,0E0,0E0,0E0,0E0,0E0,0E0,0E0,0E0,0E0,0E0,0E0,0E0],"parents":[2147483647,0,0,1,1,2,2,3,3,4,4,5,5,6,6,8,8,9,9,10,10,11,11,12,12,13,13,14,14,15,15,16,16,18,18,20,20,21,21,22,22,25,25,26,26,27,27,28,28],"right_children":[2,4,6,8,10,12,14,-1,16,18,20,22,24,26,28,30,32,-1,34,-1,36,38,40,-1,-1,42,44,46,48,-1,-1,-1,-1,-1,-1,-1,-1,-1,-1,-1,-1,-1,-1,-1,-1,-1,-1,-1,-1],"split_conditions":[1.4764366E-2,4.5466553E1,-1.721309E3,7.8040203E-3,7.3051636E2,-3.1423326E1,1.7497551E2,1.1891211E-2,-1.9545085E2,2.370106E2,-1.6145801E2,1.8747227E1,-1.5121235E3,4.266147E1,2.6677317E3,-1.0501E3,1.7973173E1,1.6732745E-2,2.7523468E2,-3.617319E-4,1.6117665E2,-1.6004707E3,3.6441082E1,-0E0,5.074988E-3,-2.6844805E1,2.8290825E-2,5.49758E2,1.08293556E-1,-0E0,8.606276E-3,1.1029018E-3,-3.787916E-3,-0E0,6.0262284E-3,5.632679E-3,-0E0,-0E0,5.039765E-3,-6.465058E-3,-2.559518E-3,4.602573E-4,-3.391954E-3,3.1791804E-3,7.7471894E-4,-2.786005E-3,5.4857396E-3,-5.3196047E-3,-0E0],"split_indices":[6,1,2,6,2,5,5,0,3,3,3,1,3,1,2,2,5,0,3,0,3,3,1,0,0,5,6,3,6,0,0,0,0,0,0,0,0,0,0,0,0,0,0,0,0,0,0,0,0],"split_type":[0,0,0,0,0,0,0,0,0,0,0,0,0,0,0,0,0,0,0,0,0,0,0,0,0,0,0,0,0,0,0,0,0,0,0,0,0,0,0,0,0,0,0,0,0,0,0,0,0],"sum_hessian":[3.2035554E3,2.8977777E2,2.9137776E3,9.822221E1,1.9155554E2,7.137777E2,2.1999998E3,1.5999999E1,8.222221E1,1.7022221E2,2.1333332E1,7.0622217E2,7.5555553E0,1.6617777E3,5.3822217E2,1.911111E1,6.3111107E1,1.4266666E2,2.7555553E1,7.1111107E0,1.4222221E1,1.3333332E1,6.9288885E2,1.3333333E0,6.222222E0,4.4977774E2,1.2119999E3,2.862222E2,2.5199998E2,2.222222E0,1.6888887E1,4.2666664E1,2.0444443E1,7.1111107E0,2.0444443E1,6.666666E0,7.5555553E0,3.5555553E0,9.777777E0,4.822222E2,2.1066666E2,2.5199998E2,1.9777777E2,6.2888885E2,5.831111E2,2.5288887E2,3.3333332E1,2.2888887E2,2.311111E1],"tree_param":{"num_deleted":"0","num_feature":"8","num_nodes":"49","size_leaf_vector":"1"}},{"base_weights":[-0E0,-4.83403E-1,8.8369004E-2,-5.545876E-1,-1.2703587E-1,8.0026025E-1,3.848667E-2,-6.954606E-1,-2.8571433E-1,-5.289673E-1,8.435848E-2,8.0655736E-1,-0E0,-5.6067947E-2,1.5071431E-1,-9.289775E-3,-0E0,-5.494328E-1,-3.4207568E-2,-7.1688653E-3,-0E0,3.9622638E-1,-3.438399E-2,-0E0,1.0684593E-2,-1.343878E-2,-5.3559697E-1,-2.531116E-2,2.9585895E-1,-7.6983147E-3,-0E0,2.0237763E-3,-5.9640137E-3,-0E0,7.2765513E-3,4.356763E-4,-3.8873423E-3,1.5110753E-3,-1.2381148E-3,-0E0,-7.761567E-3,6.2687616E-3,-1.5529932E-3,6.7492817E-3,2.1358965E-4],"categories":[],"categories_nodes":[],"categories_segments":[],"categories_sizes":[],"default_left":[0,0,0,0,0,0,0,0,0,0,0,0,0,0,0,0,0,0,0,0,0,0,0,0,0,0,0,0,0,0,0,0,0,0,0,0,0,0,0,0,0,0,0,0,0],"id":1,"left_children":[1,3,5,7,9,11,13,15,17,19,21,23,-1,25,27,-1,-1,29,31,-1,-1,33,35,-1,-1,37,39,41,43,-1,-1,-1,-1,-1,-1,-1,-1,-1,-1,-1,-1,-1,-1,-1,-1],"loss_changes":[1.3929057E2,9.061653E0,9.196149E1,9.558632E0,1.1141015E1,8.606186E-1,2.753626E1,2.4641876E0,7.6664686E0,3.8470364E-1,4.218574E0,8.742523E-1,0E0,2.5049374E1,3.1790829E1,0E0,0E0,1.758009E0,9.542539E0,0E0,0E0,3.3129807E0,2.046677E0,0E0,0E0,1.3069835E1,5.348055E0,2.3055151E1,3.797225E1,0E0,0E0,0E0,0E0,0E0,0E0,0E0,0E0,0E0,0E0,0E0,0E0,0E0,0E0,0E0,0E0],"parents":[2147483647,0,0,1,1,2,2,3,3,4,4,5,5,6,6,7,7,8,8,9,9,10,10,11,11,13,13,14,14,17,17,18,18,21,21,22,22,25,25,26,26,27,27,28,28],"right_children":[2,4,6,8,10,12,14,16,18,20,22,24,-1,26,28,-1,-1,30,32,-1,-1,34,36,-1,-1,38,40,42,44,-1,-1,-1,-1,-1,-1,-1,-1,-1,-1,-1,-1,-1,-1,-1,-1],"split_conditions":[1.8310765E-2,2.0444432E2,-1.1790453E3,1.4764366E-2,5.361005E-1,-7.9569147E2,1.2333625E1,2.7982086E2,3.4562254E-1,-2.8320974E1,2.819051E2,4.510967E-2,-0E0,5.841167E2,3.6694217E-2,-9.289775E-3,-0E0,1.5610072E2,5.7787785E1,-7.1688653E-3,-0E0,1.1190717E-2,7.2883916E-1,-0E0,1.0684593E-2,7.199408E-2,-5.357306E-2,3.2887543E1,8.253641E-1,-7.6983147E-3,-0E0,2.0237763E-3,-5.9640137E-3,-0E0,7.2765513E-3,4.356763E-4,-3.8873423E-3,1.5110753E-3,-1.2381148E-3,-0E0,-7.761567E-3,6.2687616E-3,-1.5529932E-3,6.7492817E-3,2.1358965E-4],"split_indices":[6,3,4,6,7,3,5,4,7,5,3,6,0,3,6,0,0,3,5,0,0,6,7,0,0,7,7,5,7,0,0,0,0,0,0,0,0,0,0,0,0,0,0,0,0],"split_type":[0,0,0,0,0,0,0,0,0,0,0,0,0,0,0,0,0,0,0,0,0,0,0,0,0,0,0,0,0,0,0,0,0,0,0,0,0,0,0,0,0,0,0,0,0],"sum_hessian":[3.2075554E3,5.0044443E2,2.7071108E3,4.0311108E2,9.733333E1,1.6577777E2,2.5413333E3,2.471111E2,1.5599998E2,3.9111107E1,5.8222218E1,1.6444443E2,1.3333333E0,1.3564443E3,1.1848888E3,2.4399998E2,3.111111E0,6.3555553E1,9.244444E1,3.7777775E1,1.3333333E0,2.4444443E1,3.3777775E1,1.3333333E0,1.631111E2,1.2599999E3,9.6444435E1,5.217778E2,6.631111E2,6.0444443E1,3.111111E0,5.7777775E1,3.4666664E1,3.5555553E0,2.0888887E1,1.5111111E1,1.8666666E1,4.6177774E2,7.9822217E2,2.6666665E0,9.377777E1,6.977777E1,4.5199997E2,3.6044443E2,3.0266666E2],"tree_param":{"num_deleted":"0","num_feature":"8","num_nodes":"45","size_leaf_vector":"1"}},{"base_weights":[-1.1399804E-3,2.2082582E-1,-1.5384175E-1,-4.895398E-1,2.7020404E-1,-2.114636E-1,6.107784E-1,-7.1865227E-3,-0E0,4.7459182E-1,1.2944499E-1,-2.8569198E-1,5.3058814E-2,-0E0,6.2966174E-1,-2.3741011E-1,5.5519235E-1,-3.9135795E-2,2.3440757E-1,-2.0025076E-1,-5.2020985E-1,-1.545668E-1,1.9249883E-1,-0E0,8.530759E-3,-5.4727616E-3,-0E0,1.1857293E-2,4.1801706E-3,-0E0,-3.8411974E-3,6.7748446E-3,1.8556059E-3,-3.3763791E-3,1.9951896E-3,-7.997104E-3,-3.0329817E-3,1.0758182E-3,-6.7155226E-3,-3.699266E-3,4.287146E-3],"categories":[],"categories_nodes":[],"categories_segments":[],"categories_sizes":[],"default_left":[0,0,0,0,0,0,0,0,0,0,0,0,0,0,0,0,0,0,0,0,0,0,0,0,0,0,0,0,0,0,0,0,0,0,0,0,0,0,0,0,0],"id":2,"left_children":[1,3,5,7,9,11,13,-1,-1,15,17,19,21,-1,23,25,27,29,31,33,35,37,39,-1,-1,-1,-1,-1,-1,-1,-1,-1,-1,-1,-1,-1,-1,-1,-1,-1,-1],"loss_changes":[1.088587E2,4.5152596E1,8.332538E1,1.1394768E0,3.1915192E1,3.652318E1,2.3376274E0,0E0,0E0,2.9978966E1,1.4236215E1,2.4305573E1,1.1433218E1,0E0,2.4315567E0,3.495745E0,2.8824478E1,2.894873E0,8.909056E0,2.193298E1,4.301384E0,1.4347595E1,1.6263897E1,0E0,0E0,0E0,0E0,0E0,0E0,0E0,0E0,0E0,0E0,0E0,0E0,0E0,0E0,0E0,0E0,0E0,0E0],"parents":[2147483647,0,0,1,1,2,2,3,3,4,4,5,5,6,6,9,9,10,10,11,11,12,12,14,14,15,15,16,16,17,17,18,18,19,19,20,20,21,21,22,22],"right_children":[2,4,6,8,10,12,14,-1,-1,16,18,20,22,-1,24,26,28,30,32,34,36,38,40,-1,-1,-1,-1,-1,-1,-1,-1,-1,-1,-1,-1,-1,-1,-1,-1,-1,-1],"split_conditions":[3.1547987E-1,-1.557112E3,9.570407E2,-1.6004707E3,-4.1461798E2,8.9091635E-1,2.7384485E2,-7.1865227E-3,-0E0,-3.934051E3,-2.7709647E2,9.743289E2,1.4117008E3,-0E0,4.641703E-1,-1.1202697E3,-2.6291E3,-1.0501E3,-1.1540758E2,4.662166E2,8.214686E-1,9.878181E1,6.1805714E1,-0E0,8.530759E-3,-5.4727616E-3,-0E0,1.1857293E-2,4.1801706E-3,-0E0,-3.8411974E-3,6.7748446E-3,1.8556059E-3,-3.3763791E-3,1.9951896E-3,-7.997104E-3,-3.0329817E-3,1.0758182E-3,-6.7155226E-3,-3.699266E-3,4.287146E-3],"split_indices":[7,3,3,3,4,7,4,0,0,2,3,2,2,0,7,3,2,2,4,3,7,4,1,0,0,0,0,0,0,0,0,0,0,0,0,0,0,0,0,0,0],"split_type":[0,0,0,0,0,0,0,0,0,0,0,0,0,0,0,0,0,0,0,0,0,0,0,0,0,0,0,0,0,0,0,0,0,0,0,0,0,0,0,0,0],"sum_hessian":[3.2115554E3,1.2946666E3,1.9168888E3,7.4666664E1,1.2199999E3,1.7919999E3,1.2488888E2,6.2666664E1,1.1999999E1,4.782222E2,7.417777E2,1.4137777E3,3.782222E2,1.7777777E0,1.2311111E2,4.1333332E1,4.3688885E2,2.6755554E2,4.742222E2,1.0586666E3,3.5511108E2,1.3733333E2,2.4088887E2,1.7777777E0,1.2133333E2,3.0222221E1,1.1111111E1,1.631111E2,2.7377777E2,2.3377777E2,3.3777775E1,9.911111E1,3.7511108E2,9.2533325E2,1.3333333E2,2.5466666E2,1.00444435E2,7.644444E1,6.0888885E1,4.3555553E1,1.9733333E2],"tree_param":{"num_deleted":"0","num_feature":"8","num_nodes":"41","size_leaf_vector":"1"}},{"base_weights":[-0E0,-3.6347446E-1,1.3227127E-1,-4.4417292E-1,-2.1900457E-1,2.3483297E-1,-2.5641686E-1,-4.5873287E-1,9.2918106E-4,-0E0,-3.0349705E-1,-1.22324035E-1,3.116725E-1,-1.10138066E-1,-3.722834E-1,-0E0,-6.167495E-3,3.0489975E-1,-1.8402496E-1,2.757747E-2,-3.3488163E-1,8.043114E-2,-3.2748663E-1,4.0572652E-1,1.08693235E-1,-2.2273459E-1,4.03161E-1,-2.5313726E-2,-4.451105E-1,5.1824073E-3,-0E0,-5.1011806E-3,1.0942224E-3,-0E0,3.1130195E-3,-5.036789E-3,-0E0,5.1515712E-3,-0E0,-4.8030927E-3,5.110016E-4,2.369993E-3,7.072475E-3,-1.2657449E-6,2.302484E-3,-3.728041E-3,1.0663104E-3,8.35083E-3,-0E0,-2.0875917E-3,2.2735293E-3,-6.2980605E-3,-0E0],"categories":[],"categories_nodes":[],"categories_segments":[],"categories_sizes":[],"default_left":[0,0,0,0,0,0,0,0,0,0,0,0,0,0,0,0,0,0,0,0,0,0,0,0,0,0,0,0,0,0,0,0,0,0,0,0,0,0,0,0,0,0,0,0,0,0,0,0,0,0,0,0,0],"id":3,"left_children":[1,3,5,7,9,11,13,15,-1,17,19,21,23,25,27,-1,-1,29,31,33,35,37,39,41,43,45,47,49,51,-1,-1,-1,-1,-1,-1,-1,-1,-1,-1,-1,-1,-1,-1,-1,-1,-1,-1,-1,-1,-1,-1,-1,-1],"loss_changes":[1.5583105E2,6.306816E0,9.423999E1,6.070015E0,6.664402E0,5.2715515E1,5.598833E0,2.3929596E0,0E0,5.848701E0,4.189375E0,1.4878832E1,2.6981537E1,1.3442724E1,3.8915558E0,0E0,0E0,1.4981351E0,5.036889E0,5.449566E-1,4.3406334E0,5.289829E0,4.1337185E0,2.7169739E1,4.6191044E0,4.9852123E0,2.6442108E0,1.6676049E0,4.070156E0,0E0,0E0,0E0,0E0,0E0,0E0,0E0,0E0,0E0,0E0,0E0,0E0,0E0,0E0,0E0,0E0,0E0,0E0,0E0,0E0,0E0,0E0,0E0,0E0],"parents":[2147483647,0,0,1,1,2,2,3,3,4,4,5,5,6,6,7,7,9,9,10,10,11,11,12,12,13,13,14,14,17,17,18,18,19,19,20,20,21,21,22,22,23,23,24,24,25,25,26,26,27,27,28,28],"right_children":[2,4,6,8,10,12,14,16,-1,18,20,22,24,26,28,-1,-1,30,32,34,36,38,40,42,44,46,48,50,52,-1,-1,-1,-1,-1,-1,-1,-1,-1,-1,-1,-1,-1,-1,-1,-1,-1,-1,-1,-1,-1,-1,-1,-1],"split_conditions":[-1.808817E-2,-1.7740703E3,1.7497551E2,-3.1423326E1,-4.1011013E1,-1.2410837E3,2.6677317E3,-5.9598403E3,9.2918106E-4,-6.2932947E2,-1.5230684E3,1.2677429E2,1.0150406E-2,3.362532E2,1.4339309E-2,-0E0,-6.167495E-3,-2.0900192E-2,-2.9986777E2,-3.8684104E-2,2.4656424E2,-5.020665E2,-7.905533E1,-4.674408E-3,1.3865885E-2,3.1862363E2,2.4334E3,-2.3521983E2,1.0750782E3,5.1824073E-3,-0E0,-5.1011806E-3,1.0942224E-3,-0E0,3.1130195E-3,-5.036789E-3,-0E0,5.1515712E-3,-0E0,-4.8030927E-3,5.110016E-4,2.369993E-3,7.072475E-3,-1.2657449E-6,2.302484E-3,-3.728041E-3,1.0663104E-3,8.35083E-3,-0E0,-2.0875917E-3,2.2735293E-3,-6.2980605E-3,-0E0],"split_indices":[0,2,5,5,5,2,2,2,0,3,2,4,0,4,0,0,0,0,4,0,5,3,5,0,0,5,2,4,4,0,0,0,0,0,0,0,0,0,0,0,0,0,0,0,0,0,0,0,0,0,0,0,0],"split_type":[0,0,0,0,0,0,0,0,0,0,0,0,0,0,0,0,0,0,0,0,0,0,0,0,0,0,0,0,0,0,0,0,0,0,0,0,0,0,0,0,0,0,0,0,0,0,0,0,0,0,0,0,0],"sum_hessian":[3.2162625E3,8.621008E2,2.3541616E3,5.2427045E2,3.3783044E2,1.8744106E3,4.7975085E2,5.1982666E2,4.4437723E0,9.196233E1,2.458681E2,3.198215E2,1.5545891E3,2.3543086E2,2.4431999E2,1.2424432E1,5.0740222E2,3.5537758E1,5.6424576E1,7.5470705E0,2.3832103E2,1.5012602E2,1.6969548E2,1.0420908E3,5.124984E2,2.0338737E2,3.2043484E1,5.5464504E1,1.888555E2,2.88733E1,6.6644583E0,4.131835E1,1.5106222E1,2.6633458E0,4.883724E0,2.1035178E2,2.7969255E1,3.5962563E1,1.1416345E2,1.6613948E2,3.5559967E0,4.0394598E2,6.381448E2,1.677875E2,3.4471088E2,1.8340532E2,1.9982052E1,1.6463655E1,1.5579831E1,4.8808727E1,6.655778E0,1.7998155E2,8.873937E0],"tree_param":{"num_deleted":"0","num_feature":"8","num_nodes":"53","size_leaf_vector":"1"}},{"base_weights":[1.097877E-3,7.796922E-1,-4.1060403E-2,1.1095498E0,5.346699E-1,-1.2460358E-1,1.7856309E-1,1.1521851E0,-0E0,-4.8468723E-3,7.660676E-1,4.2485845E-1,-1.5722394E-1,5.142118E-1,-4.6479966E-2,1.5727041E-2,-0E0,-0E0,7.868833E-1,-3.2393016E-6,4.9523288E-1,-0E0,-1.9981731E-1,5.6024283E-1,-4.55138E-2,-4.1313136E-1,-0E0,1.0485484E-2,-0E0,8.232939E-3,-0E0,-3.901491E-3,2.789219E-3,-4.2316695E-3,-7.135269E-4,7.677042E-3,-0E0,-1.091769E-3,-0E0,-0E0,-5.794625E-3,1.4055732E-3,-1.6607576E-3],"categories":[],"categories_nodes":[],"categories_segments":[],"categories_sizes":[],"default_left":[0,0,0,0,0,0,0,0,0,0,0,0,0,0,0,0,0,0,0,0,0,0,0,0,0,0,0,0,0,0,0,0,0,0,0,0,0,0,0,0,0,0,0],"id":4,"left_children":[1,3,5,7,9,11,13,15,-1,-1,17,19,21,23,25,-1,-1,-1,27,-1,29,31,33,35,37,39,41,-1,-1,-1,-1,-1,-1,-1,-1,-1,-1,-1,-1,-1,-1,-1,-1],"loss_changes":[1.0972738E2,2.7158432E0,5.5958405E1,4.0026093E0,2.7869225E1,3.9056786E1,6.503022E1,4.2044144E0,0E0,0E0,2.3772888E0,6.006197E0,1.3940189E1,1.1507957E1,8.962083E0,0E0,0E0,0E0,8.438492E-1,0E0,7.6603756E0,2.9668728E1,2.7593628E1,6.8881836E0,6.491109E-2,5.293293E-1,5.956852E0,0E0,0E0,0E0,0E0,0E0,0E0,0E0,0E0,0E0,0E0,0E0,0E0,0E0,0E0,0E0,0E0],"parents":[2147483647,0,0,1,1,2,2,3,3,4,4,5,5,6,6,7,7,10,10,11,11,12,12,13,13,14,14,18,18,20,20,21,21,22,22,23,23,24,24,25,25,26,26],"right_children":[2,4,6,8,10,12,14,16,-1,-1,18,20,22,24,26,-1,-1,-1,28,-1,30,32,34,36,38,40,42,-1,-1,-1,-1,-1,-1,-1,-1,-1,-1,-1,-1,-1,-1,-1,-1],"split_conditions":[-1.1790453E3,-3.5750989E3,8.514119E2,1.7041305E-1,-2.5808918E3,-3.8527598E3,8.253641E-1,-1.4596351E3,-0E0,-4.8468723E-3,1.5652172E-1,2.0291693E1,-1.8224811E3,9.570407E2,1.1582272E3,1.5727041E-2,-0E0,-0E0,-7.9569147E2,-3.2393016E-6,2.7384485E2,-5.2324347E2,-1.0834398E2,6.6722786E1,7.866575E-1,8.839E2,5.49758E2,1.0485484E-2,-0E0,8.232939E-3,-0E0,-3.901491E-3,2.789219E-3,-4.2316695E-3,-7.135269E-4,7.677042E-3,-0E0,-1.091769E-3,-0E0,-0E0,-5.794625E-3,1.4055732E-3,-1.6607576E-3],"split_indices":[4,2,2,7,2,2,7,3,0,0,7,1,2,3,2,0,0,0,3,0,4,4,2,1,7,2,3,0,0,0,0,0,0,0,0,0,0,0,0,0,0,0,0],"split_type":[0,0,0,0,0,0,0,0,0,0,0,0,0,0,0,0,0,0,0,0,0,0,0,0,0,0,0,0,0,0,0,0,0,0,0,0,0,0,0,0,0,0,0],"sum_hessian":[3.2204915E3,1.6702075E2,3.0534707E3,5.4970024E1,1.1205072E2,2.23009E3,8.2338055E2,5.362898E1,1.3410468E0,1.7836159E1,9.421456E1,1.1301693E2,2.1170732E3,3.368165E2,4.865641E2,5.229213E1,1.336851E0,1.3402982E0,9.287427E1,6.6685753E0,1.0634835E2,4.5912424E2,1.657949E3,3.194719E2,1.7344587E1,5.3730946E1,4.3283313E2,9.153867E1,1.335592E0,8.411672E1,2.2231625E1,1.9322937E2,2.6589487E2,8.7937756E2,7.7857135E2,3.1367538E2,5.796513E0,1.1114593E1,6.2299953E0,4.440353E0,4.9290592E1,2.4091121E2,1.9192192E2],"tree_param":{"num_deleted":"0","num_feature":"8","num_nodes":"43","size_leaf_vector":"1"}},{"base_weights":[1.921893E-3,2.2593248E-1,-1.475426E-1,-2.4655625E-1,2.7623975E-1,-2.2663845E-1,3.8407677E-1,2.0529324E-2,-7.2390987E-3,5.1158094E-1,1.8851513E-1,-2.6824322E-1,-0E0,1.3039593E-1,7.057085E-1,-1.5619822E-1,6.872962E-1,-2.0355268E-1,6.6091347E-1,-0E0,2.6498586E-1,-1.8946521E-1,-4.9533772E-1,-1.8052916E-1,1.4946625E-1,6.5305674E-1,-0E0,9.9524814E-1,-0E0,4.2739947E-4,-5.325112E-3,1.0443109E-2,-0E0,-0E0,-3.9141155E-3,1.2946836E-2,2.6687337E-3,-2.8638656E-3,4.6633347E-3,7.563151E-3,2.3247742E-3,-4.0884702E-3,-5.594886E-4,-7.96897E-3,-1.5979202E-3,5.8537843E-3,-3.747938E-3,-2.1148745E-3,4.987775E-3,-0E0,9.504036E-3,-3.4472882E-3,4.0893652E-3,-0E0,1.4553473E-2,-6.310926E-4,3.770889E-3],"categories":[],"categories_nodes":[],"categories_segments":[],"categories_sizes":[],"default_left":[0,0,0,0,0,0,0,0,0,0,0,0,0,0,0,0,0,0,0,0,0,0,0,0,0,0,0,0,0,0,0,0,0,0,0,0,0,0,0,0,0,0,0,0,0,0,0,0,0,0,0,0,0,0,0,0,0],"id":5,"left_children":[1,3,5,7,9,11,13,15,-1,17,19,21,23,25,27,29,31,33,35,37,39,41,43,45,47,49,51,53,55,-1,-1,-1,-1,-1,-1,-1,-1,-1,-1,-1,-1,-1,-1,-1,-1,-1,-1,-1,-1,-1,-1,-1,-1,-1,-1,-1,-1],"loss_changes":[1.08523964E2,3.1528572E1,8.054014E1,1.2356271E1,2.06288E1,1.4723312E1,1.5171627E1,1.0179726E1,0E0,3.5564354E1,1.2460041E1,2.129837E1,7.901765E0,1.3451212E1,1.8323948E1,4.0444326E0,2.2206001E0,1.5724733E0,3.1579437E1,2.131192E1,1.2928886E1,1.7278854E1,1.0230461E1,9.240269E0,1.1693066E1,2.6880016E0,9.802222E0,4.9615555E0,9.202668E-1,0E0,0E0,0E0,0E0,0E0,0E0,0E0,0E0,0E0,0E0,0E0,0E0,0E0,0E0,0E0,0E0,0E0,0E0,0E0,0E0,0E0,0E0,0E0,0E0,0E0,0E0,0E0,0E0],"parents":[2147483647,0,0,1,1,2,2,3,3,4,4,5,5,6,6,7,7,9,9,10,10,11,11,12,12,13,13,14,14,15,15,16,16,17,17,18,18,19,19,20,20,21,21,22,22,23,23,24,24,25,25,26,26,27,27,28,28],"right_children":[2,4,6,8,10,12,14,16,-1,18,20,22,24,26,28,30,32,34,36,38,40,42,44,46,48,50,52,54,56,-1,-1,-1,-1,-1,-1,-1,-1,-1,-1,-1,-1,-1,-1,-1,-1,-1,-1,-1,-1,-1,-1,-1,-1,-1,-1,-1,-1],"split_conditions":[3.1547987E-1,-5.2033838E-2,2.5383169E-2,7.983842E-2,-2.8900871E-2,8.972483E-1,1.0279826E0,-3.2249216E3,-7.2390987E-3,-3.8527598E3,-1.8649167E3,9.743289E2,1.218374E-2,8.514119E2,1.1118958E0,6.5911196E-2,3.0396059E1,2.3489244E1,-2.6291E3,5.262653E-2,-1.8697074E-2,2.8290825E-2,8.214686E-1,5.370258E1,2.8983941E-2,5.539834E1,3.7644246E3,2.6926736E3,7.5267464E-2,4.2739947E-4,-5.325112E-3,1.0443109E-2,-0E0,-0E0,-3.9141155E-3,1.2946836E-2,2.6687337E-3,-2.8638656E-3,4.6633347E-3,7.563151E-3,2.3247742E-3,-4.0884702E-3,-5.594886E-4,-7.96897E-3,-1.5979202E-3,5.8537843E-3,-3.747938E-3,-2.1148745E-3,4.987775E-3,-0E0,9.504036E-3,-3.4472882E-3,4.0893652E-3,-0E0,1.4553473E-2,-6.310926E-4,3.770889E-3],"split_indices":[7,0,0,6,0,7,7,2,0,2,2,2,0,2,7,6,1,1,2,6,7,6,7,1,6,1,2,2,0,0,0,0,0,0,0,0,0,0,0,0,0,0,0,0,0,0,0,0,0,0,0,0,0,0,0,0,0],"split_type":[0,0,0,0,0,0,0,0,0,0,0,0,0,0,0,0,0,0,0,0,0,0,0,0,0,0,0,0,0,0,0,0,0,0,0,0,0,0,0,0,0,0,0,0,0,0,0,0,0,0,0,0,0,0,0,0,0],"sum_hessian":[3.2196145E3,1.3008518E3,1.9187628E3,1.1373666E2,1.1871151E3,1.6809412E3,2.3782164E2,5.4298164E1,5.9438488E1,3.0031018E2,8.8680493E2,1.4031366E3,2.778045E2,1.4557498E2,9.224664E1,4.0020493E1,1.4277673E1,4.577967E1,2.545305E2,2.630021E2,6.2380286E2,1.0649124E3,3.3822427E2,1.3861734E2,1.3918718E2,3.2542995E1,1.13032E2,6.239413E1,2.9852512E1,1.3813968E1,2.6206526E1,1.2940538E1,1.3371341E0,9.327573E0,3.64521E1,1.3925737E2,1.1527313E2,1.6152318E2,1.01478935E2,1.1922943E2,5.045734E2,5.609141E2,5.0399823E2,2.4806721E2,9.015706E1,1.0678019E1,1.27939316E2,5.0634586E1,8.85526E1,1.783085E0,3.075991E1,7.027268E1,4.275931E1,8.905609E0,5.348852E1,2.4499592E1,5.352921E0],"tree_param":{"num_deleted":"0","num_feature":"8","num_nodes":"57","size_leaf_vector":"1"}},{"base_weights":[-0E0,8.239342E-1,-8.1606E-2,3.265224E-1,1.0445907E0,-3.6872607E-1,9.082552E-3,1.2180818E-2,9.5393896E-2,1.1419307E0,-0E0,1.5497169E-1,-3.86163E-1,6.354143E-2,-3.5137862E-1,5.4212517E-1,-0E0,1.6378928E-2,3.7202173E-1,-4.1008924E-4,2.6750988E-1,-0E0,3.500494E-1,-4.7300813E-1,-1.651907E-1,1.775528E-1,-1.5820006E-2,-1.07313186E-1,-4.5160398E-1,-0E0,9.68215E-3,2.240927E-4,-2.7794333E-3,5.7652807E-3,-0E0,4.981593E-3,-0E0,-0E0,5.063468E-3,-6.318575E-3,-0E0,8.330735E-4,-3.4488973E-3,-1.9614731E-3,3.424103E-3,1.1328738E-3,-1.032272E-3,1.2506315E-3,-2.9043087E-3,-0E0,-6.123217E-3],"categories":[],"categories_nodes":[],"categories_segments":[],"categories_sizes":[],"default_left":[0,0,0,0,0,0,0,0,0,0,0,0,0,0,0,0,0,0,0,0,0,0,0,0,0,0,0,0,0,0,0,0,0,0,0,0,0,0,0,0,0,0,0,0,0,0,0,0,0,0,0],"id":6,"left_children":[1,3,5,7,9,11,13,-1,15,17,19,21,23,25,27,29,31,-1,33,-1,35,-1,37,39,41,43,45,47,49,-1,-1,-1,-1,-1,-1,-1,-1,-1,-1,-1,-1,-1,-1,-1,-1,-1,-1,-1,-1,-1,-1],"loss_changes":[2.1886876E2,2.3670212E1,7.811039E1,8.942025E0,1.4560455E1,7.999756E0,4.222051E1,0E0,6.1879644E0,3.5336456E0,1.3276151E0,1.3367565E0,9.933495E0,1.8407925E1,3.809513E0,3.493629E0,1.1534771E0,0E0,1.1280088E0,0E0,3.024825E-1,0E0,1.7371309E-1,1.6562347E0,6.0257063E0,2.3091705E1,7.1916943E0,3.0944924E0,1.3283272E0,0E0,0E0,0E0,0E0,0E0,0E0,0E0,0E0,0E0,0E0,0E0,0E0,0E0,0E0,0E0,0E0,0E0,0E0,0E0,0E0,0E0,0E0],"parents":[2147483647,0,0,1,1,2,2,3,3,4,4,5,5,6,6,8,8,9,9,10,10,11,11,12,12,13,13,14,14,15,15,16,16,18,18,20,20,22,22,23,23,24,24,25,25,26,26,27,27,28,28],"right_children":[2,4,6,8,10,12,14,-1,16,18,20,22,24,26,28,30,32,-1,34,-1,36,-1,38,40,42,44,46,48,50,-1,-1,-1,-1,-1,-1,-1,-1,-1,-1,-1,-1,-1,-1,-1,-1,-1,-1,-1,-1,-1,-1],"split_conditions":[1.4764366E-2,4.5466553E1,-1.721309E3,7.8040203E-3,7.675E2,1.8747227E1,2.6065E3,1.2180818E-2,-2.0511717E2,2.3092201E2,-1.6145801E2,-1.6004707E3,3.6441082E1,2.8018316E-2,9.0296894E-1,-1.0790382E-1,-2.521856E2,1.6378928E-2,6.3978485E2,-4.1008924E-4,1.4899391E2,-0E0,4.052068E-2,2.4240759E-1,3.983777E-2,1.11788675E-1,-4.14E1,5.6639943E-2,2.6677317E3,-0E0,9.68215E-3,2.240927E-4,-2.7794333E-3,5.7652807E-3,-0E0,4.981593E-3,-0E0,-0E0,5.063468E-3,-6.318575E-3,-0E0,8.330735E-4,-3.4488973E-3,-1.9614731E-3,3.424103E-3,1.1328738E-3,-1.032272E-3,1.2506315E-3,-2.9043087E-3,-0E0,-6.123217E-3],"split_indices":[6,1,2,6,2,1,2,0,3,3,3,3,1,6,7,7,2,0,2,0,3,0,6,7,6,7,2,6,2,0,0,0,0,0,0,0,0,0,0,0,0,0,0,0,0,0,0,0,0,0,0],"split_type":[0,0,0,0,0,0,0,0,0,0,0,0,0,0,0,0,0,0,0,0,0,0,0,0,0,0,0,0,0,0,0,0,0,0,0,0,0,0,0,0,0,0,0,0,0,0,0,0,0,0,0],"sum_hessian":[3.2137593E3,2.886591E2,2.9251E3,9.9475784E1,1.891833E2,7.1169073E2,2.2134094E3,1.7456448E1,8.201934E1,1.6865523E2,2.0528072E1,1.2422069E1,6.992687E2,1.9385247E3,2.7488474E2,1.8749054E1,6.3270287E1,1.4009184E2,2.856338E1,7.1411767E0,1.3386896E1,3.0982053E0,9.323863E0,4.816453E2,2.1762338E2,8.189007E2,1.1196239E3,9.7557396E1,1.7732733E2,4.450242E0,1.4298812E1,4.278923E1,2.0481056E1,2.5002558E1,3.5608215E0,6.264192E0,7.122704E0,1.3283608E0,7.9955025E0,4.7324625E2,8.399057E0,5.011484E1,1.6750853E2,1.5281102E2,6.6608966E2,3.952186E2,7.2440533E2,1.9553295E1,7.80041E1,4.8941164E0,1.7243321E2],"tree_param":{"num_deleted":"0","num_feature":"8","num_nodes":"51","size_leaf_vector":"1"}},{"base_weights":[-0E0,-4.76043E-1,8.879674E-2,-5.5333966E-1,-0E0,7.834544E-1,3.993323E-2,-9.108723E-3,-2.9375565E-1,1.5624343E-1,-2.3189464E-3,-0E0,7.8969187E-1,5.9160877E-2,-4.908463E-1,-5.5331135E-1,-5.5665676E-2,-3.2271263E-3,6.288829E-1,1.0461324E-2,-0E0,-5.7279494E-2,1.5452515E-1,4.9544615E-4,-7.65512E-3,-7.7839545E-3,-0E0,8.22766E-4,-6.057942E-3,-0E0,9.341543E-3,-5.5051153E-3,-1.5779357E-5,1.1102501E-4,3.9895726E-3],"categories":[],"categories_nodes":[],"categories_segments":[],"categories_sizes":[],"default_left":[0,0,0,0,0,0,0,0,0,0,0,0,0,0,0,0,0,0,0,0,0,0,0,0,0,0,0,0,0,0,0,0,0,0,0],"id":7,"left_children":[1,3,5,7,9,11,13,-1,15,17,-1,-1,19,21,23,25,27,-1,29,-1,-1,31,33,-1,-1,-1,-1,-1,-1,-1,-1,-1,-1,-1,-1],"loss_changes":[1.3590671E2,1.6801193E1,8.8106255E1,9.5941925E0,2.446008E0,8.497925E-1,2.405923E1,0E0,7.3800154E0,9.548953E0,0E0,0E0,8.4950256E-1,2.8057405E1,6.743614E0,3.8959503E-1,7.163289E0,0E0,1.929719E0,0E0,0E0,2.0124798E1,2.8638496E1,0E0,0E0,0E0,0E0,0E0,0E0,0E0,0E0,0E0,0E0,0E0,0E0],"parents":[2147483647,0,0,1,1,2,2,3,3,4,4,5,5,6,6,8,8,9,9,12,12,13,13,14,14,15,15,16,16,18,18,21,21,22,22],"right_children":[2,4,6,8,10,12,14,-1,16,18,-1,-1,20,22,24,26,28,-1,30,-1,-1,32,34,-1,-1,-1,-1,-1,-1,-1,-1,-1,-1,-1,-1],"split_conditions":[1.8310765E-2,1.0150406E-2,-1.1790453E3,1.4764366E-2,2.819051E2,4.510967E-2,9.5441943E2,-9.108723E-3,3.4562254E-1,1.974162E2,-2.3189464E-3,-0E0,-7.9569147E2,3.5381716E-2,5.796422E-5,1.3395798E2,8.949181E1,-3.2271263E-3,1.1190717E-2,1.0461324E-2,-0E0,-4.391283E2,-2.0015282E2,4.9544615E-4,-7.65512E-3,-7.7839545E-3,-0E0,8.22766E-4,-6.057942E-3,-0E0,9.341543E-3,-5.5051153E-3,-1.5779357E-5,1.1102501E-4,3.9895726E-3],"split_indices":[6,0,4,6,3,6,4,0,7,3,0,0,3,6,0,3,3,0,6,0,0,4,3,0,0,0,0,0,0,0,0,0,0,0,0],"split_type":[0,0,0,0,0,0,0,0,0,0,0,0,0,0,0,0,0,0,0,0,0,0,0,0,0,0,0,0,0,0,0,0,0,0,0],"sum_hessian":[3.2166033E3,5.0002603E2,2.7165771E3,4.2365823E2,7.63678E1,1.668662E2,2.549711E3,2.57472E2,1.6618625E2,3.1125275E1,4.5242527E1,1.341601E0,1.655246E2,2.473954E3,7.575691E1,6.62945E1,9.989175E1,1.2404194E1,1.872108E1,1.6418748E2,1.3371093E0,1.0911812E3,1.382773E3,3.5625584E0,7.219436E1,5.833761E1,7.9568954E0,7.1047905E1,2.884384E1,1.330918E0,1.7390162E1,1.3019601E2,9.6098517E2,7.1790967E2,6.648632E2],"tree_param":{"num_deleted":"0","num_feature":"8","num_nodes":"35","size_leaf_vector":"1"}},{"base_weights":[-0E0,2.2196542E-1,-1.4854126E-1,-4.7707096E-1,2.6870936E-1,-2.3788649E-1,3.33663E-1,-5.3591204E-1,-0E0,4.8974457E-1,1.9359885E-1,-8.6592734E-2,-3.138197E-1,7.746938E-2,5.763366E-1,-7.5526047E-3,-0E0,3.6218796E-2,6.723214E-1,2.944527E-1,5.499351E-2,-1.7162114E-1,2.7482286E-1,-6.2603796E-1,-2.729049E-1,-1.4443576E-1,4.0148085E-1,7.5185764E-1,-0E0,2.5081832E-3,-2.3974536E-3,3.3219617E-3,1.0616557E-2,-4.2907456E-3,4.410763E-3,1.0050539E-2,6.230167E-5,-1.0560828E-3,-5.0572148E-3,6.1157267E-3,-0E0,-0E0,-8.442778E-3,-1.9037373E-4,-4.136121E-3,3.589314E-3,-3.514065E-3,-0E0,7.3705027E-3,1.1168945E-2,-0E0,-8.0337626E-4,4.989871E-3],"categories":[],"categories_nodes":[],"categories_segments":[],"categories_sizes":[],"default_left":[0,0,0,0,0,0,0,0,0,0,0,0,0,0,0,0,0,0,0,0,0,0,0,0,0,0,0,0,0,0,0,0,0,0,0,0,0,0,0,0,0,0,0,0,0,0,0,0,0,0,0,0,0],"id":8,"left_children":[1,3,5,7,9,11,13,15,-1,17,19,21,23,25,27,-1,-1,29,31,33,35,37,39,41,43,45,47,49,51,-1,-1,-1,-1,-1,-1,-1,-1,-1,-1,-1,-1,-1,-1,-1,-1,-1,-1,-1,-1,-1,-1,-1,-1],"loss_changes":[1.0692E2,4.2327896E1,8.288948E1,1.276844E0,1.6622757E1,1.6662315E1,1.4810169E1,1.9399357E0,0E0,2.0615921E1,1.141502E1,1.7413824E1,8.264694E0,1.3007477E1,1.2567741E1,0E0,0E0,3.5057251E0,5.0953217E0,1.404092E1,1.132947E1,6.865798E0,7.530152E0,1.090908E0,8.757484E0,4.8992295E0,5.0602694E0,6.4133873E0,1.7516655E0,0E0,0E0,0E0,0E0,0E0,0E0,0E0,0E0,0E0,0E0,0E0,0E0,0E0,0E0,0E0,0E0,0E0,0E0,0E0,0E0,0E0,0E0,0E0,0E0],"parents":[2147483647,0,0,1,1,2,2,3,3,4,4,5,5,6,6,7,7,9,9,10,10,11,11,12,12,13,13,14,14,17,17,18,18,19,19,20,20,21,21,22,22,23,23,24,24,25,25,26,26,27,27,28,28],"right_children":[2,4,6,8,10,12,14,16,-1,18,20,22,24,26,28,-1,-1,30,32,34,36,38,40,42,44,46,48,50,52,-1,-1,-1,-1,-1,-1,-1,-1,-1,-1,-1,-1,-1,-1,-1,-1,-1,-1,-1,-1,-1,-1,-1,-1],"split_conditions":[3.1547987E-1,-1.557112E3,2.3875574E-2,-1.6004707E3,-7.9569147E2,-8.2881096E1,9.8471373E-1,-4.6310633E-2,-0E0,-4.6310633E-2,3.226021E-2,7.6394993E-1,1.3022429E-2,9.570407E2,1.1511133E0,-7.5526047E-3,-0E0,8.479022E-2,4.875608E-2,8.612639E-3,-4.225422E-2,5.061426E-2,-1.6145801E2,4.7358578E1,4.9256772E-1,3.610739E-2,6.872408E-2,6.9329605E-2,7.5267464E-2,2.5081832E-3,-2.3974536E-3,3.3219617E-3,1.0616557E-2,-4.2907456E-3,4.410763E-3,1.0050539E-2,6.230167E-5,-1.0560828E-3,-5.0572148E-3,6.1157267E-3,-0E0,-0E0,-8.442778E-3,-1.9037373E-4,-4.136121E-3,3.589314E-3,-3.514065E-3,-0E0,7.3705027E-3,1.1168945E-2,-0E0,-8.0337626E-4,4.989871E-3],"split_indices":[7,3,0,3,3,3,7,0,0,0,6,7,6,3,7,0,0,6,6,6,0,6,3,1,7,6,6,6,0,0,0,0,0,0,0,0,0,0,0,0,0,0,0,0,0,0,0,0,0,0,0,0,0],"split_type":[0,0,0,0,0,0,0,0,0,0,0,0,0,0,0,0,0,0,0,0,0,0,0,0,0,0,0,0,0,0,0,0,0,0,0,0,0,0,0,0,0,0,0,0,0,0,0,0,0,0,0,0,0],"sum_hessian":[3.2235286E3,1.3026609E3,1.9208677E3,7.205856E1,1.2306023E3,1.631481E3,2.8938666E2,6.0511856E1,1.1546706E1,2.882296E2,9.423727E2,5.7077826E2,1.0607028E3,1.5400334E2,1.353833E2,5.7851257E1,2.6605968E0,9.230903E1,1.959206E2,5.213358E2,4.2103683E2,4.7539478E2,9.538351E1,1.0045174E2,9.60251E2,8.38896E1,7.011374E1,9.972152E1,3.566179E1,6.783801E1,2.4471016E1,6.032161E1,1.3559898E2,2.2693928E1,4.986419E2,1.6561357E1,4.044755E2,3.5411847E2,1.2127628E2,6.4792046E1,3.0591467E1,2.6541963E0,9.779754E1,1.5128467E2,8.089664E2,8.441458E0,7.544814E1,2.0525452E1,4.9588287E1,8.585285E1,1.3868666E1,2.9401287E1,6.2605023E0],"tree_param":{"num_deleted":"0","num_feature":"8","num_nodes":"53","size_leaf_vector":"1"}},{"base_weights":[-0E0,8.194966E-1,-8.42071E-2,3.1241974E-1,1.038003E0,-3.581713E-1,2.931333E-2,1.1575551E-2,9.767165E-2,1.724168E-2,5.9094346E-1,1.5486024E-1,-3.7234655E-1,1.1829013E-1,-2.5111282E-1,2.1193561E-1,-6.555857E-2,6.3874733E-1,-0E0,-0E0,3.088763E-1,-4.011489E-1,-7.8160234E-2,-8.2009554E-2,1.8130623E-1,-1.4679897E-1,-4.747823E-1,-0E0,4.8482516E-3,-1.5632061E-3,-0E0,8.7997615E-3,-0E0,4.5163264E-3,-0E0,-0E0,-5.3875796E-3,2.2437046E-3,-2.214265E-3,2.0276152E-3,-2.6054045E-3,2.651811E-3,-1.8298028E-3,-5.163525E-3,-4.7124457E-4,-0E0,-6.440161E-3],"categories":[],"categories_nodes":[],"categories_segments":[],"categories_sizes":[],"default_left":[0,0,0,0,0,0,0,0,0,0,0,0,0,0,0,0,0,0,0,0,0,0,0,0,0,0,0,0,0,0,0,0,0,0,0,0,0,0,0,0,0,0,0,0,0,0,0],"id":9,"left_children":[1,3,5,7,9,11,13,-1,15,-1,17,19,21,23,25,27,29,31,-1,-1,33,35,37,39,41,43,45,-1,-1,-1,-1,-1,-1,-1,-1,-1,-1,-1,-1,-1,-1,-1,-1,-1,-1,-1,-1],"loss_changes":[2.1885869E2,2.4316132E1,9.257908E1,7.235469E0,1.07460785E1,7.6982803E0,5.0829815E1,0E0,2.4181309E0,0E0,4.070589E0,8.216009E-1,4.7080154E0,2.0502281E1,7.8297825E0,3.1209164E0,1.9271332E-1,1.7391472E0,0E0,0E0,1.3761032E-1,3.796936E0,2.3378735E0,1.0324002E1,8.465752E0,7.405549E0,1.1498909E0,0E0,0E0,0E0,0E0,0E0,0E0,0E0,0E0,0E0,0E0,0E0,0E0,0E0,0E0,0E0,0E0,0E0,0E0,0E0,0E0],"parents":[2147483647,0,0,1,1,2,2,3,3,4,4,5,5,6,6,8,8,10,10,11,11,12,12,13,13,14,14,15,15,16,16,17,17,20,20,21,21,22,22,23,23,24,24,25,25,26,26],"right_children":[2,4,6,8,10,12,14,-1,16,-1,18,20,22,24,26,28,30,32,-1,-1,34,36,38,40,42,44,46,-1,-1,-1,-1,-1,-1,-1,-1,-1,-1,-1,-1,-1,-1,-1,-1,-1,-1,-1,-1],"split_conditions":[1.4764366E-2,4.5466553E1,-1.808817E-2,7.8040203E-3,1.2070316E-2,1.8747227E1,1.7497551E2,1.1575551E-2,4.4772068E1,1.724168E-2,1.352615E2,-5.990803E-2,4.1603397E1,-1.2905013E2,1.0168582E0,-5.357306E-2,-3.3131028E-3,1.1118958E0,-0E0,-0E0,-3.021199E2,2.1101892E-2,-1.7433353E1,2.8018316E-2,1.0377249E0,5.4220707E1,2.8141115E-2,-0E0,4.8482516E-3,-1.5632061E-3,-0E0,8.7997615E-3,-0E0,4.5163264E-3,-0E0,-0E0,-5.3875796E-3,2.2437046E-3,-2.214265E-3,2.0276152E-3,-2.6054045E-3,2.651811E-3,-1.8298028E-3,-5.163525E-3,-4.7124457E-4,-0E0,-6.440161E-3],"split_indices":[6,1,0,6,6,1,5,0,1,0,5,0,1,5,7,7,0,7,0,0,5,6,5,6,7,1,6,0,0,0,0,0,0,0,0,0,0,0,0,0,0,0,0,0,0,0,0],"split_type":[0,0,0,0,0,0,0,0,0,0,0,0,0,0,0,0,0,0,0,0,0,0,0,0,0,0,0,0,0,0,0,0,0,0,0,0,0,0,0,0,0,0,0,0,0,0,0],"sum_hessian":[3.2072444E3,2.9003467E2,2.9172097E3,9.789239E1,1.9214227E2,8.6439465E2,2.0528152E3,1.6208231E1,8.168416E1,1.0621889E2,8.5923386E1,1.2423188E1,8.519715E2,1.5740907E3,4.787245E2,6.518982E1,1.6494337E1,8.280021E1,3.1231742E0,4.4317946E0,7.9913936E0,7.588612E2,9.31103E1,3.5735837E2,1.2167323E3,3.4736032E2,1.3136415E2,2.4086634E1,4.1103188E1,1.5153001E1,1.3413359E0,7.878848E1,4.0117254E0,6.6617126E0,1.3296809E0,9.752637E0,7.491086E2,8.866133E0,8.424417E1,1.0310151E2,2.5425685E2,1.1601272E3,5.6605114E1,8.998869E1,2.5737164E2,3.5546436E0,1.2780951E2],"tree_param":{"num_deleted":"0","num_feature":"8","num_nodes":"47","size_leaf_vector":"1"}},{"base_weights":[-0E0,7.582921E-1,-4.3291897E-2,1.0130736E0,5.020062E-1,-1.0240657E-1,2.2032386E-1,1.5065908E-2,-0E0,-1.08285E-1,8.372918E-3,2.5030777E-2,-1.5194966E-1,4.189135E-1,-7.4744195E-2,-0E0,4.5667388E-2,-0E0,-2.3850142E-3,1.7600763E-1,-1.6775909E-1,-2.4101932E-1,8.327856E-2,-0E0,4.7880152E-1,3.5299006E-1,-1.6414584E-1,2.3979477E-3,-0E0,-4.048534E-3,4.024631E-3,-7.225522E-3,-4.3521152E-4,-1.4698753E-3,-5.3491537E-3,-3.9827544E-3,2.76596E-3,6.593338E-5,-2.3534375E-3,8.921765E-3,2.6009076E-3,5.898295E-3,-0E0,-4.6912893E-3,-0E0],"categories":[],"categories_nodes":[],"categories_segments":[],"categories_sizes":[],"default_left":[0,0,0,0,0,0,0,0,0,0,0,0,0,0,0,0,0,0,0,0,0,0,0,0,0,0,0,0,0,0,0,0,0,0,0,0,0,0,0,0,0,0,0,0,0],"id":10,"left_children":[1,3,5,7,9,11,13,-1,15,17,-1,19,21,23,25,-1,27,-1,-1,29,31,33,35,37,39,41,43,-1,-1,-1,-1,-1,-1,-1,-1,-1,-1,-1,-1,-1,-1,-1,-1,-1,-1],"loss_changes":[1.0442474E2,1.0925598E0,4.693499E1,6.3872604E0,1.1667246E1,1.646326E1,3.3717823E1,0E0,2.540722E-2,3.084461E-1,0E0,1.9894547E1,3.9273293E1,9.654888E0,7.479347E0,0E0,3.2078794E-1,0E0,0E0,2.5463945E1,1.1671573E1,2.6029053E1,2.4001518E1,4.9029347E-1,1.1748833E1,1.5749848E0,7.4467072E0,0E0,0E0,0E0,0E0,0E0,0E0,0E0,0E0,0E0,0E0,0E0,0E0,0E0,0E0,0E0,0E0,0E0,0E0],"parents":[2147483647,0,0,1,1,2,2,3,3,4,4,5,5,6,6,8,8,9,9,11,11,12,12,13,13,14,14,16,16,19,19,20,20,21,21,22,22,23,23,24,24,25,25,26,26],"right_children":[2,4,6,8,10,12,14,-1,16,18,-1,20,22,24,26,-1,28,-1,-1,30,32,34,36,38,40,42,44,-1,-1,-1,-1,-1,-1,-1,-1,-1,-1,-1,-1,-1,-1,-1,-1,-1,-1],"split_conditions":[-1.1790453E3,-2.4465968E2,1.665762E2,-5.0404113E-2,1.6021627E-1,-1.4190897E2,1.893343E-2,1.5065908E-2,-3.07212E2,-2.3949167E2,8.372918E-3,1.0690306E-1,9.6334545E-3,4.7503296E1,6.3654907E1,-0E0,-1.2022667E3,-0E0,-2.3850142E-3,2.5565693E1,-5.2324347E2,-4.535294E-3,-3.351887E1,-2.1642454E-2,8.253641E-1,9.28173E-1,3.656187E-2,2.3979477E-3,-0E0,-4.048534E-3,4.024631E-3,-7.225522E-3,-4.3521152E-4,-1.4698753E-3,-5.3491537E-3,-3.9827544E-3,2.76596E-3,6.593338E-5,-2.3534375E-3,8.921765E-3,2.6009076E-3,5.898295E-3,-0E0,-4.6912893E-3,-0E0],"split_indices":[4,5,5,0,7,5,0,0,5,5,0,7,0,1,1,0,4,0,0,1,4,0,5,0,7,7,0,0,0,0,0,0,0,0,0,0,0,0,0,0,0,0,0,0,0],"split_type":[0,0,0,0,0,0,0,0,0,0,0,0,0,0,0,0,0,0,0,0,0,0,0,0,0,0,0,0,0,0,0,0,0,0,0,0,0,0,0,0,0,0,0,0,0],"sum_hessian":[3.2041116E3,1.6668956E2,3.037422E3,6.640268E1,1.0028688E2,2.4990466E3,5.383755E2,5.5629353E1,1.0773331E1,1.1643754E1,8.864313E1,6.7201245E2,1.8270342E3,3.306708E2,2.077047E2,3.590595E0,7.1827354E0,1.3507934E0,1.029296E1,3.9166415E2,2.803483E2,1.3405608E3,4.8647333E2,3.660431E1,2.940665E2,2.3690485E1,1.8401422E2,5.3998055E0,1.7829297E0,7.343894E1,3.1822522E2,5.936686E1,2.2098143E2,7.754913E2,5.650696E2,1.0903384E2,3.774395E2,2.6337961E1,1.026635E1,1.5722751E2,1.3683897E2,2.0569807E1,3.1206794E0,9.341894E1,9.0595276E1],"tree_param":{"num_deleted":"0","num_feature":"8","num_nodes":"45","size_leaf_vector":"1"}},{"base_weights":[-4.0843748E-4,2.1756487E-1,-1.5012546E-1,-6.71036E-3,2.6587048E-1,-2.0774657E-1,5.940634E-1,5.127201E-1,1.8694526E-1,-2.8486884E-1,6.738262E-2,6.7587477E-1,-7.80739E-4,-2.5811595E-1,6.8933386E-1,1.18429884E-1,5.5881107E-1,-2.0154874E-1,-5.1234925E-1,-1.3596106E-1,2.0380592E-1,-0E0,9.154333E-3,-5.6134174E-3,-0E0,1.3574372E-2,1.7256736E-3,4.665818E-3,6.935302E-5,-2.7090728E-3,8.879623E-3,-3.693845E-3,5.729093E-4,-7.906756E-3,-2.9507047E-3,1.0333318E-3,-6.501923E-3,-1.5589944E-3,5.0465995E-3],"categories":[],"categories_nodes":[],"categories_segments":[],"categories_sizes":[],"default_left":[0,0,0,0,0,0,0,0,0,0,0,0,0,0,0,0,0,0,0,0,0,0,0,0,0,0,0,0,0,0,0,0,0,0,0,0,0,0,0],"id":11,"left_children":[1,3,5,-1,7,9,11,13,15,17,19,21,-1,23,25,27,29,31,33,35,37,-1,-1,-1,-1,-1,-1,-1,-1,-1,-1,-1,-1,-1,-1,-1,-1,-1,-1],"loss_changes":[1.04686386E2,4.506741E1,8.107672E1,0E0,1.9905167E1,3.9233727E1,1.0400818E1,4.09972E1,2.054044E1,2.2748611E1,1.1087692E1,2.6901016E0,0E0,3.306266E0,3.8247734E1,2.018426E1,1.514447E1,2.1918465E1,4.4479523E0,1.3194821E1,1.5822819E1,0E0,0E0,0E0,0E0,0E0,0E0,0E0,0E0,0E0,0E0,0E0,0E0,0E0,0E0,0E0,0E0,0E0,0E0],"parents":[2147483647,0,0,1,1,2,2,4,4,5,5,6,6,7,7,8,8,9,9,10,10,11,11,13,13,14,14,15,15,16,16,17,17,18,18,19,19,20,20],"right_children":[2,4,6,-1,8,10,12,14,16,18,20,22,-1,24,26,28,30,32,34,36,38,-1,-1,-1,-1,-1,-1,-1,-1,-1,-1,-1,-1,-1,-1,-1,-1,-1,-1],"split_conditions":[3.1547987E-1,-1.557112E3,9.570407E2,-6.71036E-3,-8.058891E2,8.9091635E-1,7.046805E2,-3.934051E3,-2.0662521E1,9.743289E2,1.4117008E3,4.641703E-1,-7.80739E-4,-1.1202697E3,-2.6997427E3,-3.103252E-2,8.612639E-3,8.539403E1,8.214686E-1,2.0444432E2,2.819051E2,-0E0,9.154333E-3,-5.6134174E-3,-0E0,1.3574372E-2,1.7256736E-3,4.665818E-3,6.935302E-5,-2.7090728E-3,8.879623E-3,-3.693845E-3,5.729093E-4,-7.906756E-3,-2.9507047E-3,1.0333318E-3,-6.501923E-3,-1.5589944E-3,5.0465995E-3],"split_indices":[7,3,3,0,3,7,5,2,5,2,2,7,0,3,2,7,6,5,7,3,3,0,0,0,0,0,0,0,0,0,0,0,0,0,0,0,0,0,0],"split_type":[0,0,0,0,0,0,0,0,0,0,0,0,0,0,0,0,0,0,0,0,0,0,0,0,0,0,0,0,0,0,0,0,0,0,0,0,0,0,0],"sum_hessian":[3.2081907E3,1.2917976E3,1.916393E3,7.0951836E1,1.2208458E3,1.7882548E3,1.2813821E2,2.737675E2,9.470783E2,1.4107888E3,3.77466E2,1.20528564E2,7.60964E0,4.5325443E1,2.2844203E2,8.166506E2,1.304278E2,1.0555709E3,3.552179E2,1.3685106E2,2.4061493E2,1.7869169E0,1.1874165E2,3.1504557E1,1.3820888E1,1.3322311E2,9.521892E1,2.4646835E2,5.701822E2,1.1101406E1,1.19326385E2,8.119154E2,2.4365547E2,2.5372562E2,1.0149226E2,7.935314E1,5.7497913E1,7.6920456E1,1.6369447E2],"tree_param":{"num_deleted":"0","num_feature":"8","num_nodes":"39","size_leaf_vector":"1"}},{"base_weights":[-7.952697E-4,8.0636257E-1,-8.383768E-2,3.0575383E-1,1.0231875E0,-3.5183802E-1,2.6497513E-2,1.1774817E-2,7.8315705E-2,1.700093E-2,5.797663E-1,1.6494101E-1,-3.66686E-1,1.13244236E-1,-2.4928635E-1,2.0475763E-1,-1.3192555E-1,-0E0,6.6202766E-1,-0E0,3.8289297E-1,-3.9795604E-1,-5.057928E-2,-9.770556E-2,1.8010661E-1,-1.7964287E-1,-4.5120952E-1,3.8505208E-3,-0E0,-0E0,-2.3326953E-3,1.2211591E-2,2.7623042E-3,5.560358E-3,-0E0,-0E0,-5.3608525E-3,2.2281606E-3,-1.8261299E-3,2.3233115E-3,-3.4156323E-3,3.5774868E-3,1.3414633E-3,-4.230006E-3,-3.3914053E-4,-7.0588854E-3,-0E0],"categories":[],"categories_nodes":[],"categories_segments":[],"categories_sizes":[],"default_left":[0,0,0,0,0,0,0,0,0,0,0,0,0,0,0,0,0,0,0,0,0,0,0,0,0,0,0,0,0,0,0,0,0,0,0,0,0,0,0,0,0,0,0,0,0,0,0],"id":12,"left_children":[1,3,5,7,9,11,13,-1,15,-1,17,19,21,23,25,27,29,-1,31,-1,33,35,37,39,41,43,45,-1,-1,-1,-1,-1,-1,-1,-1,-1,-1,-1,-1,-1,-1,-1,-1,-1,-1,-1,-1],"loss_changes":[2.1285367E2,2.388176E1,8.842497E1,8.663594E0,1.0523651E1,7.980278E0,4.8973434E1,0E0,2.7924976E0,0E0,5.7310314E0,1.5390148E0,6.1163483E0,2.2949408E1,3.2326183E0,1.608154E0,1.7760935E-1,0E0,3.3061104E0,0E0,2.1188045E-1,3.9175415E0,1.8546519E0,1.7040403E1,6.8174973E0,6.66123E0,5.605398E0,0E0,0E0,0E0,0E0,0E0,0E0,0E0,0E0,0E0,0E0,0E0,0E0,0E0,0E0,0E0,0E0,0E0,0E0,0E0,0E0],"parents":[2147483647,0,0,1,1,2,2,3,3,4,4,5,5,6,6,8,8,10,10,11,11,12,12,13,13,14,14,15,15,16,16,18,18,20,20,21,21,22,22,23,23,24,24,25,25,26,26],"right_children":[2,4,6,8,10,12,14,-1,16,-1,18,20,22,24,26,28,30,-1,32,-1,34,36,38,40,42,44,46,-1,-1,-1,-1,-1,-1,-1,-1,-1,-1,-1,-1,-1,-1,-1,-1,-1,-1,-1,-1],"split_conditions":[1.4764366E-2,4.5466553E1,-1.808817E-2,7.8040203E-3,1.2070316E-2,1.8747227E1,1.7497551E2,1.1774817E-2,4.4772068E1,1.700093E-2,-2.3901144E2,-1.1525596E3,4.1603397E1,-1.2905013E2,3.5382576E-2,5.260355E1,2.088863E1,-0E0,1.1981608E2,-0E0,-2.740744E2,-1.5389778E3,-1.7433353E1,1.2677429E2,7.0632153E0,-1.5623111E2,1.0750782E3,3.8505208E-3,-0E0,-0E0,-2.3326953E-3,1.2211591E-2,2.7623042E-3,5.560358E-3,-0E0,-0E0,-5.3608525E-3,2.2281606E-3,-1.8261299E-3,2.3233115E-3,-3.4156323E-3,3.5774868E-3,1.3414633E-3,-4.230006E-3,-3.3914053E-4,-7.0588854E-3,-0E0],"split_indices":[6,1,0,6,6,1,5,0,1,0,4,4,1,5,0,4,5,0,4,0,5,4,5,4,5,4,4,0,0,0,0,0,0,0,0,0,0,0,0,0,0,0,0,0,0,0,0],"split_type":[0,0,0,0,0,0,0,0,0,0,0,0,0,0,0,0,0,0,0,0,0,0,0,0,0,0,0,0,0,0,0,0,0,0,0,0,0,0,0,0,0,0,0,0,0,0,0],"sum_hessian":[3.2194316E3,2.9064557E2,2.928786E3,9.845107E1,1.921945E2,8.6415533E2,2.0646306E3,1.718366E1,8.126741E1,1.0643736E2,8.575714E1,1.3318525E1,8.508368E2,1.5866372E3,4.7799344E2,6.567949E1,1.5587919E1,8.076947E0,7.768019E1,4.421644E0,8.896881E0,7.5867474E2,9.216208E1,3.6331067E2,1.2233265E3,3.8084857E2,9.7144844E1,4.8259586E1,1.7419909E1,3.5751643E0,1.2012754E1,3.8546608E1,3.9133587E1,7.5666013E0,1.3302798E0,1.3194753E1,7.4548E2,8.875974E0,8.32861E1,1.23319145E2,2.3999152E2,5.260442E2,6.972824E2,1.7818121E2,2.0266737E2,8.652356E1,1.0621284E1],"tree_param":{"num_deleted":"0","num_feature":"8","num_nodes":"47","size_leaf_vector":"1"}},{"base_weights":[-0E0,-4.7059235E-1,8.883884E-2,-6.11931E-1,-2.5059545E-1,8.7071425E-1,6.2064063E-2,-6.8561566E-1,-2.3171674E-2,-7.714581E-3,-0E0,9.854786E-1,-0E0,-3.869672E-2,1.766202E-1,-0E0,-9.156072E-3,-4.867581E-3,9.841361E-2,2.3575227E-1,-4.7139174E-1,-0E0,1.0176746E0,4.499212E-1,-8.479836E-2,-1.8112345E-2,3.2239273E-1,4.001849E-3,-0E0,4.8990194E-3,-0E0,-0E0,-6.721412E-3,1.4401324E-2,-0E0,7.368528E-3,-0E0,-0E0,-4.490167E-3,6.390924E-3,-1.5423442E-3,5.474741E-3,-2.781255E-3],"categories":[],"categories_nodes":[],"categories_segments":[],"categories_sizes":[],"default_left":[0,0,0,0,0,0,0,0,0,0,0,0,0,0,0,0,0,0,0,0,0,0,0,0,0,0,0,0,0,0,0,0,0,0,0,0,0,0,0,0,0,0,0],"id":13,"left_children":[1,3,5,7,9,11,13,15,17,-1,19,21,-1,23,25,-1,-1,-1,27,29,31,-1,33,35,37,39,41,-1,-1,-1,-1,-1,-1,-1,-1,-1,-1,-1,-1,-1,-1,-1,-1],"loss_changes":[1.3413045E2,1.0737846E1,5.2035606E1,9.061989E0,1.848568E1,8.582428E0,3.1228878E1,1.5028687E0,3.4519842E0,0E0,1.5325241E1,3.3838043E0,0E0,2.960738E1,3.7341984E1,0E0,0E0,0E0,1.6499394E0,3.7024322E0,5.4128075E-1,0E0,5.875702E-1,5.4121685E0,2.6841656E1,2.4960825E1,3.847502E1,0E0,0E0,0E0,0E0,0E0,0E0,0E0,0E0,0E0,0E0,0E0,0E0,0E0,0E0,0E0,0E0],"parents":[2147483647,0,0,1,1,2,2,3,3,4,4,5,5,6,6,7,7,8,8,10,10,11,11,13,13,14,14,18,18,19,19,20,20,22,22,23,23,24,24,25,25,26,26],"right_children":[2,4,6,8,10,12,14,16,18,-1,20,22,-1,24,26,-1,-1,-1,28,30,32,-1,34,36,38,40,42,-1,-1,-1,-1,-1,-1,-1,-1,-1,-1,-1,-1,-1,-1,-1,-1],"split_conditions":[1.8310765E-2,1.4764366E-2,-1.557112E3,2.0444432E2,-1.0834398E2,2.1884316E-1,1.00971775E1,-1.26610596E2,7.16E1,-7.714581E-3,5.5986427E1,-5.9598403E3,-0E0,-3.934051E3,3.6694217E-2,-0E0,-9.156072E-3,-4.867581E-3,3.8300876E2,4.612E2,3.605E2,-0E0,-2.4465968E2,-2.900604E2,5.2297734E-2,3.2887543E1,9.570407E2,4.001849E-3,-0E0,4.8990194E-3,-0E0,-0E0,-6.721412E-3,1.4401324E-2,-0E0,7.368528E-3,-0E0,-0E0,-4.490167E-3,6.390924E-3,-1.5423442E-3,5.474741E-3,-2.781255E-3],"split_indices":[6,6,3,3,2,7,5,5,2,0,5,2,0,2,6,0,0,0,3,2,2,0,5,3,6,5,3,0,0,0,0,0,0,0,0,0,0,0,0,0,0,0,0],"split_type":[0,0,0,0,0,0,0,0,0,0,0,0,0,0,0,0,0,0,0,0,0,0,0,0,0,0,0,0,0,0,0,0,0,0,0,0,0,0,0,0,0,0,0],"sum_hessian":[3.2200146E3,5.0368903E2,2.7163257E3,2.8740692E2,2.162821E2,7.853744E1,2.637788E3,2.4715935E2,4.024756E1,8.898519E1,1.2729691E2,6.90508E1,9.486638E0,1.3819355E3,1.2558525E3,4.8311486E0,2.423282E2,1.8451744E1,2.1795815E1,8.612065E1,4.117626E1,1.3440431E0,6.770676E1,1.0601894E2,1.2759166E3,5.2482947E2,7.310231E2,1.5595559E1,6.200256E0,5.809694E1,2.8023716E1,4.8742275E0,3.6302032E1,5.8204353E1,9.502399E0,8.371614E1,2.2302797E1,9.720343E2,3.0388235E2,7.479702E1,4.5003244E2,6.303385E2,1.0068459E2],"tree_param":{"num_deleted":"0","num_feature":"8","num_nodes":"43","size_leaf_vector":"1"}},{"base_weights":[-0E0,2.1214654E-1,-1.0019567E-1,-3.5186556E-1,2.793821E-1,-1.2774858E-1,6.286824E-1,-5.5317235E-1,-0E0,4.9392444E-1,1.22803524E-1,4.6067018E-2,-1.8079895E-1,6.718615E-1,-0E0,-7.660793E-3,-0E0,5.848199E-1,-4.1132176E-1,-2.5842232E-1,6.0532004E-1,-1.2112101E-2,4.500945E-1,1.9427265E-1,-2.3890482E-1,-2.3440863E-1,1.472171E-1,-0E0,6.9915193E-1,8.484517E-3,-0E0,-0E0,-6.598782E-3,-5.094809E-3,-0E0,1.121334E-2,4.3623145E-3,-1.3227295E-3,6.7345067E-3,1.2719323E-3,7.982257E-3,-3.8969133E-3,3.3645704E-3,1.7579892E-3,-3.9701173E-3,-0E0,-3.96843E-3,-6.3261366E-3,5.7655447E-3,1.2198847E-2,3.3413647E-3],"categories":[],"categories_nodes":[],"categories_segments":[],"categories_sizes":[],"default_left":[0,0,0,0,0,0,0,0,0,0,0,0,0,0,0,0,0,0,0,0,0,0,0,0,0,0,0,0,0,0,0,0,0,0,0,0,0,0,0,0,0,0,0,0,0,0,0,0,0,0,0],"id":14,"left_children":[1,3,5,7,9,11,13,15,17,19,21,23,25,27,-1,-1,-1,29,31,33,35,37,39,41,43,45,47,-1,49,-1,-1,-1,-1,-1,-1,-1,-1,-1,-1,-1,-1,-1,-1,-1,-1,-1,-1,-1,-1,-1,-1],"loss_changes":[6.827339E1,3.9100964E1,4.1948174E1,4.650403E0,2.781871E1,2.0303993E1,3.151413E0,1.3247948E0,1.2763112E1,3.4095444E1,2.6818638E1,2.022678E1,2.9634987E1,2.0315819E0,0E0,0E0,0E0,4.4996214E-1,2.6018834E0,1.7929311E0,1.5393936E1,1.624227E1,5.8291054E0,1.0150386E1,4.680172E0,2.2984207E1,4.1485107E1,0E0,9.6191406E-2,0E0,0E0,0E0,0E0,0E0,0E0,0E0,0E0,0E0,0E0,0E0,0E0,0E0,0E0,0E0,0E0,0E0,0E0,0E0,0E0,0E0,0E0],"parents":[2147483647,0,0,1,1,2,2,3,3,4,4,5,5,6,6,7,7,8,8,9,9,10,10,11,11,12,12,13,13,17,17,18,18,19,19,20,20,21,21,22,22,23,23,24,24,25,25,26,26,28,28],"right_children":[2,4,6,8,10,12,14,16,18,20,22,24,26,28,-1,-1,-1,30,32,34,36,38,40,42,44,46,48,-1,50,-1,-1,-1,-1,-1,-1,-1,-1,-1,-1,-1,-1,-1,-1,-1,-1,-1,-1,-1,-1,-1,-1],"split_conditions":[-1.00616016E3,-1.2022667E3,9.142488E2,-3.5750989E3,-4.1461798E2,4.5466553E1,7.046805E2,-2.2600075E2,-2.8032693E3,-3.934051E3,2.1697676E2,3.8638636E-2,2.737371E3,-3.021199E2,-0E0,-7.660793E-3,-0E0,8.551169E-2,-3.1897858E2,-4.6124E3,-2.6291E3,-7.132219E1,-2.059E3,3.624381E1,3.4856922E1,-1.9082336E2,6.164586E1,-0E0,8.514119E2,8.484517E-3,-0E0,-0E0,-6.598782E-3,-5.094809E-3,-0E0,1.121334E-2,4.3623145E-3,-1.3227295E-3,6.7345067E-3,1.2719323E-3,7.982257E-3,-3.8969133E-3,3.3645704E-3,1.7579892E-3,-3.9701173E-3,-0E0,-3.96843E-3,-6.3261366E-3,5.7655447E-3,1.2198847E-2,3.3413647E-3],"split_indices":[2,4,4,2,4,1,5,5,2,2,4,6,2,5,0,0,0,6,5,2,2,5,2,1,1,4,1,0,2,0,0,0,0,0,0,0,0,0,0,0,0,0,0,0,0,0,0,0,0,0,0],"split_type":[0,0,0,0,0,0,0,0,0,0,0,0,0,0,0,0,0,0,0,0,0,0,0,0,0,0,0,0,0,0,0,0,0,0,0,0,0,0,0,0,0,0,0,0,0,0,0,0,0,0,0],"sum_hessian":[3.2111863E3,1.02269366E3,2.1884927E3,9.8754005E1,9.239397E2,2.1193606E3,6.913213E1,5.217692E1,4.657708E1,3.717991E2,5.5214056E2,4.7370602E2,1.6456545E3,6.689115E1,2.2409832E0,5.0395798E1,1.7811232E0,1.3463859E1,3.3113224E1,4.1310524E1,3.304886E2,3.8356552E2,1.6857504E2,3.2422363E2,1.494824E2,1.428806E3,2.1684851E2,1.3466516E0,6.55445E1,1.1232619E1,2.2312388E0,2.2120178E0,3.0901205E1,2.7512444E1,1.37980795E1,1.5818785E2,1.7230074E2,3.3978812E2,4.37774E1,6.41999E1,1.0437514E2,2.5048191E1,2.9917545E2,9.383274E0,1.4009912E2,3.1756534E2,1.1112406E3,6.2231705E1,1.546168E2,3.2266777E1,3.3277725E1],"tree_param":{"num_deleted":"0","num_feature":"8","num_nodes":"51","size_leaf_vector":"1"}},{"base_weights":[8.7043183E-4,8.000059E-1,-8.010572E-2,3.172119E-1,1.009647E0,-3.4939143E-1,3.0316757E-2,1.1661412E-2,9.977451E-2,1.678295E-2,5.6557095E-1,1.3176394E-1,-3.6335063E-1,2.1762377E-1,-7.991837E-2,2.2528146E-1,-1.12122856E-1,-0E0,6.5362203E-1,-0E0,3.4517184E-1,-3.9396268E-1,-9.396193E-2,-3.7894253E-2,2.7237418E-1,-1.41664315E-2,-3.9684808E-1,-0E0,5.035991E-3,-2.2135696E-3,-0E0,-0E0,-9.610994E-5,9.090828E-3,-0E0,-0E0,5.0248005E-3,-0E0,-5.298043E-3,-0E0,-1.9739645E-3,1.062595E-3,-3.9672283E-3,4.035258E-3,-1.3536415E-3,4.5872945E-4,-3.0413035E-3,-0E0,-5.3752707E-3],"categories":[],"categories_nodes":[],"categories_segments":[],"categories_sizes":[],"default_left":[0,0,0,0,0,0,0,0,0,0,0,0,0,0,0,0,0,0,0,0,0,0,0,0,0,0,0,0,0,0,0,0,0,0,0,0,0,0,0,0,0,0,0,0,0,0,0,0,0],"id":15,"left_children":[1,3,5,7,9,11,13,-1,15,-1,17,19,21,23,25,27,29,31,33,-1,35,37,39,41,43,45,47,-1,-1,-1,-1,-1,-1,-1,-1,-1,-1,-1,-1,-1,-1,-1,-1,-1,-1,-1,-1,-1,-1],"loss_changes":[2.1192377E2,2.2318497E1,8.840007E1,7.7497635E0,1.1032761E1,7.186943E0,4.3319923E1,0E0,3.0496562E0,0E0,6.177206E0,1.2931498E0,4.3776016E0,1.2157345E1,2.4672829E1,3.5228066E0,3.0138022E-1,6.26878E-4,2.5416222E0,0E0,1.695919E-1,3.9166183E0,1.1382477E0,5.1820583E0,9.768261E0,1.2552374E1,1.2899361E0,0E0,0E0,0E0,0E0,0E0,0E0,0E0,0E0,0E0,0E0,0E0,0E0,0E0,0E0,0E0,0E0,0E0,0E0,0E0,0E0,0E0,0E0],"parents":[2147483647,0,0,1,1,2,2,3,3,4,4,5,5,6,6,8,8,10,10,11,11,12,12,13,13,14,14,15,15,16,16,17,17,18,18,20,20,21,21,22,22,23,23,24,24,25,25,26,26],"right_children":[2,4,6,8,10,12,14,-1,16,-1,18,20,22,24,26,28,30,32,34,-1,36,38,40,42,44,46,48,-1,-1,-1,-1,-1,-1,-1,-1,-1,-1,-1,-1,-1,-1,-1,-1,-1,-1,-1,-1,-1,-1],"split_conditions":[1.4764366E-2,4.5466553E1,-1.808817E-2,7.8040203E-3,1.2070316E-2,1.8747227E1,2.8290825E-2,1.1661412E-2,4.4772068E1,1.678295E-2,-2.3901144E2,-1.1525596E3,4.1148716E1,1.16922535E-1,9.6514267E-1,-5.357306E-2,-3.3131028E-3,-4.120052E-3,1.1118958E0,-0E0,4.052068E-2,2.1101892E-2,3.409658E-2,2.095726E2,1.0661044E0,6.2309183E-2,5.6066654E1,-0E0,5.035991E-3,-2.2135696E-3,-0E0,-0E0,-9.610994E-5,9.090828E-3,-0E0,-0E0,5.0248005E-3,-0E0,-5.298043E-3,-0E0,-1.9739645E-3,1.062595E-3,-3.9672283E-3,4.035258E-3,-1.3536415E-3,4.5872945E-4,-3.0413035E-3,-0E0,-5.3752707E-3],"split_indices":[6,1,0,6,6,1,6,0,1,0,4,4,1,7,7,7,0,0,7,0,6,6,6,4,7,6,1,0,0,0,0,0,0,0,0,0,0,0,0,0,0,0,0,0,0,0,0,0,0],"split_type":[0,0,0,0,0,0,0,0,0,0,0,0,0,0,0,0,0,0,0,0,0,0,0,0,0,0,0,0,0,0,0,0,0,0,0,0,0,0,0,0,0,0,0,0,0,0,0,0,0],"sum_hessian":[3.209355E3,2.9687836E2,2.9124766E3,1.0090792E2,1.9597043E2,8.5699506E2,2.0554817E3,1.7259567E1,8.364835E1,1.0945015E2,8.652027E1,1.2873632E1,8.441214E2,7.765264E2,1.2789552E3,6.715369E1,1.6494663E1,8.5379925E0,7.798228E1,4.4153585E0,8.458274E0,7.3924445E2,1.04876976E2,1.2118353E2,6.553429E2,1.0765983E3,2.0235698E2,2.3218164E1,4.3935524E1,1.5150713E1,1.3439507E0,1.81523E0,6.722762E0,7.441192E1,3.5703645E0,1.3280413E0,7.1302323E0,9.291152E0,7.299533E2,1.6412962E1,8.846402E1,7.291046E1,4.8273075E1,6.1298145E2,4.236143E1,8.628717E2,2.1372655E2,4.413678E0,1.979433E2],"tree_param":{"num_deleted":"0","num_feature":"8","num_nodes":"49","size_leaf_vector":"1"}},{"base_weights":[3.993713E-3,-4.4513026E-1,9.848102E-2,-6.041782E-1,-2.4633862E-1,6.9552714E-1,6.806291E-2,-8.989252E-3,-0E0,-5.1694727E-1,-1.2314078E-2,8.702414E-1,-0E0,-1.07192295E-2,2.3080267E-1,1.457577E-1,-1.1296447E-3,-0E0,-7.830155E-3,2.82859E-1,-3.8656676E-1,9.76956E-1,-0E0,-4.5909914E-3,8.988596E-3,1.35118505E-2,-5.3603673E-1,3.4221226E-1,-1.0289231E-1,-0E0,4.0613175E-3,-5.579589E-4,1.6334972E-3,4.9594175E-3,-0E0,-0E0,-6.3468656E-3,-0E0,1.3807983E-2,5.5742864E-3,-1.18690645E-4,1.1226027E-6,-8.211131E-3,-1.8722952E-3,6.6694394E-3,-2.8190692E-3,1.8898358E-3],"categories":[],"categories_nodes":[],"categories_segments":[],"categories_sizes":[],"default_left":[0,0,0,0,0,0,0,0,0,0,0,0,0,0,0,0,0,0,0,0,0,0,0,0,0,0,0,0,0,0,0,0,0,0,0,0,0,0,0,0,0,0,0,0,0,0,0],"id":16,"left_children":[1,3,5,7,9,11,13,-1,15,17,19,21,23,25,27,29,-1,31,-1,33,35,37,-1,-1,-1,39,41,43,45,-1,-1,-1,-1,-1,-1,-1,-1,-1,-1,-1,-1,-1,-1,-1,-1,-1,-1],"loss_changes":[1.3517946E2,1.244297E1,4.4517784E1,1.5598892E1,1.4267235E1,1.1152771E1,3.3913982E1,0E0,6.4879435E-1,5.160528E0,1.8576595E1,1.218692E1,1.0697259E1,2.4389341E1,3.317554E1,1.5096405E0,0E0,1.9521973E-1,0E0,3.7300577E0,3.7515545E0,3.4491959E0,0E0,0E0,0E0,1.7167906E1,7.1442604E0,5.454152E1,6.1990194E0,0E0,0E0,0E0,0E0,0E0,0E0,0E0,0E0,0E0,0E0,0E0,0E0,0E0,0E0,0E0,0E0,0E0,0E0],"parents":[2147483647,0,0,1,1,2,2,3,3,4,4,5,5,6,6,8,8,9,9,10,10,11,11,12,12,13,13,14,14,15,15,17,17,19,19,20,20,21,21,25,25,26,26,27,27,28,28],"right_children":[2,4,6,8,10,12,14,-1,16,18,20,22,24,26,28,30,-1,32,-1,34,36,38,-1,-1,-1,40,42,44,46,-1,-1,-1,-1,-1,-1,-1,-1,-1,-1,-1,-1,-1,-1,-1,-1,-1,-1],"split_conditions":[1.9088158E-2,1.4764366E-2,-5.2033838E-2,1.0150406E-2,-1.0834398E2,-3.5259E3,7.817537E2,-8.989252E-3,1.33215785E-2,3.610988E1,4.612E2,-2.3326164E2,-2.6291E3,1.8022293E-2,6.6722786E1,7.16E1,-1.1296447E-3,3.4488384E1,-7.830155E-3,5.7787785E1,8.660341E0,6.538373E-2,-0E0,-4.5909914E-3,8.988596E-3,-3.8527598E3,2.0193899E-2,3.2023042E-2,4.506603E3,-0E0,4.0613175E-3,-5.579589E-4,1.6334972E-3,4.9594175E-3,-0E0,-0E0,-6.3468656E-3,-0E0,1.3807983E-2,5.5742864E-3,-1.18690645E-4,1.1226027E-6,-8.211131E-3,-1.8722952E-3,6.6694394E-3,-2.8190692E-3,1.8898358E-3],"split_indices":[6,6,0,0,2,2,2,0,0,1,2,5,2,0,1,2,0,1,0,5,5,6,0,0,0,2,6,6,2,0,0,0,0,0,0,0,0,0,0,0,0,0,0,0,0,0,0],"split_type":[0,0,0,0,0,0,0,0,0,0,0,0,0,0,0,0,0,0,0,0,0,0,0,0,0,0,0,0,0,0,0,0,0,0,0,0,0,0,0,0,0,0,0,0,0,0,0],"sum_hessian":[3.2161294E3,5.465858E2,2.6695437E3,2.8400925E2,2.6257657E2,1.1614517E2,2.5533984E3,2.5386145E2,3.0147806E1,1.09058914E2,1.5351764E2,8.7111275E1,2.9033897E1,1.7029493E3,8.504491E2,2.0415398E1,9.732409E0,1.36452675E1,9.541364E1,7.903992E1,7.447772E1,8.085597E1,6.255306E0,1.686846E1,1.2165439E1,1.6234199E3,7.952941E1,6.487195E2,2.0172963E2,3.9510088E0,1.6464388E1,7.4613953E0,6.183872E0,6.841855E1,1.0621368E1,1.2462351E1,6.2015373E1,8.490068E0,7.2365906E1,9.1394104E1,1.5320259E3,3.9994857E0,7.552992E1,1.5742155E2,4.9129794E2,1.5329802E2,4.84316E1],"tree_param":{"num_deleted":"0","num_feature":"8","num_nodes":"47","size_leaf_vector":"1"}},{"base_weights":[-0E0,2.1490918E-1,-1.4767075E-1,-4.8544613E-1,2.6225808E-1,-2.2314784E-1,3.5594454E-1,-5.460656E-1,-0E0,4.6411115E-1,1.7591748E-1,-2.634876E-1,-7.8064497E-3,1.06258415E-1,6.55384E-1,-7.497568E-3,-0E0,-2.910918E-1,6.578163E-1,1.0607242E-1,5.401846E-1,-1.8379043E-1,-4.9890512E-1,-1.6545291E-1,1.2068305E-1,6.5217716E-1,-0E0,9.25578E-1,-0E0,-5.289821E-3,-0E0,1.1872924E-2,2.908826E-3,4.213488E-3,2.7544113E-4,8.230677E-3,-6.0815766E-4,-3.5332195E-3,9.2952745E-4,-7.814346E-3,-1.6930434E-3,1.8758381E-3,-3.5910115E-3,-2.717621E-3,4.0579033E-3,-0E0,9.756927E-3,-5.6612934E-3,4.088185E-3,-0E0,1.36626335E-2,-8.483849E-4,4.265641E-3],"categories":[],"categories_nodes":[],"categories_segments":[],"categories_sizes":[],"default_left":[0,0,0,0,0,0,0,0,0,0,0,0,0,0,0,0,0,0,0,0,0,0,0,0,0,0,0,0,0,0,0,0,0,0,0,0,0,0,0,0,0,0,0,0,0,0,0,0,0,0,0,0,0],"id":17,"left_children":[1,3,5,7,9,11,13,15,-1,17,19,21,23,25,27,-1,-1,29,31,33,35,37,39,41,43,45,47,49,51,-1,-1,-1,-1,-1,-1,-1,-1,-1,-1,-1,-1,-1,-1,-1,-1,-1,-1,-1,-1,-1,-1,-1,-1],"loss_changes":[1.0189194E2,4.276471E1,7.235566E1,1.4302177E0,1.7852867E1,1.31683655E1,1.3959877E1,1.0839252E0,0E0,5.3775032E1,1.9072252E1,2.2198677E1,6.1715927E0,1.1212755E1,1.6258167E1,0E0,0E0,2.9058695E0,2.3835922E1,1.2185997E1,9.611713E0,2.4069061E1,7.7770386E0,5.8038325E0,9.7266445E0,2.0717373E0,1.749815E1,5.3285904E0,1.270075E0,0E0,0E0,0E0,0E0,0E0,0E0,0E0,0E0,0E0,0E0,0E0,0E0,0E0,0E0,0E0,0E0,0E0,0E0,0E0,0E0,0E0,0E0,0E0,0E0],"parents":[2147483647,0,0,1,1,2,2,3,3,4,4,5,5,6,6,7,7,9,9,10,10,11,11,12,12,13,13,14,14,17,17,18,18,19,19,20,20,21,21,22,22,23,23,24,24,25,25,26,26,27,27,28,28],"right_children":[2,4,6,8,10,12,14,16,-1,18,20,22,24,26,28,-1,-1,30,32,34,36,38,40,42,44,46,48,50,52,-1,-1,-1,-1,-1,-1,-1,-1,-1,-1,-1,-1,-1,-1,-1,-1,-1,-1,-1,-1,-1,-1,-1,-1],"split_conditions":[3.1547987E-1,-1.557112E3,2.5383169E-2,-1.6004707E3,-2.8900871E-2,8.9091635E-1,1.0279826E0,-4.461684E-2,-0E0,-3.934051E3,-1.8819555E1,9.743289E2,1.218374E-2,-2.5393373E1,1.1118958E0,-7.497568E-3,-0E0,-3.660788E-2,-2.6291E3,-3.103252E-2,-5.847039E-3,8.358288E1,8.214686E-1,-1.4013968E2,1.4117008E3,4.751403E-1,2.4656424E2,2.6926736E3,7.5267464E-2,-5.289821E-3,-0E0,1.1872924E-2,2.908826E-3,4.213488E-3,2.7544113E-4,8.230677E-3,-6.0815766E-4,-3.5332195E-3,9.2952745E-4,-7.814346E-3,-1.6930434E-3,1.8758381E-3,-3.5910115E-3,-2.717621E-3,4.0579033E-3,-0E0,9.756927E-3,-5.6612934E-3,4.088185E-3,-0E0,1.36626335E-2,-8.483849E-4,4.265641E-3],"split_indices":[7,3,0,3,0,7,7,0,0,2,5,2,0,5,7,0,0,0,2,7,0,5,7,3,2,7,5,2,0,0,0,0,0,0,0,0,0,0,0,0,0,0,0,0,0,0,0,0,0,0,0,0,0],"split_type":[0,0,0,0,0,0,0,0,0,0,0,0,0,0,0,0,0,0,0,0,0,0,0,0,0,0,0,0,0,0,0,0,0,0,0,0,0,0,0,0,0,0,0,0,0,0,0,0,0,0,0,0,0],"sum_hessian":[3.2046067E3,1.2990623E3,1.9055444E3,7.264731E1,1.2264149E3,1.6682375E3,2.373069E2,6.1161087E1,1.1486219E1,3.4352094E2,8.8289404E2,1.3845364E3,2.837012E2,1.4220341E2,9.510348E1,5.8953426E1,2.2076616E0,6.434219E1,2.791787E2,7.5777875E2,1.2511533E2,1.0568855E3,3.2765085E2,1.4422449E2,1.3947673E2,2.52698E1,1.1693362E2,6.416751E1,3.0935968E1,4.9209133E1,1.513306E1,1.6791396E2,1.1126477E2,1.9464166E2,5.63137E2,1.1624371E2,8.871618E0,8.067072E2,2.501783E2,2.4720819E2,8.044266E1,2.4928314E1,1.19296165E2,4.10022E1,9.847453E1,3.1492593E0,2.212054E1,5.3752857E1,6.3180763E1,9.403478E0,5.476403E1,2.5068216E1,5.867752E0],"tree_param":{"num_deleted":"0","num_feature":"8","num_nodes":"53","size_leaf_vector":"1"}},{"base_weights":[-0E0,7.8214794E-1,-8.113401E-2,3.132741E-1,9.849995E-1,-3.495532E-1,2.8088853E-2,1.12388935E-2,1.0854304E-1,1.077696E0,-0E0,-4.386033E-1,-1.9426697E-1,8.569832E-2,-3.2809338E-1,5.4620683E-1,-0E0,1.5420774E-2,3.48462E-1,-4.714351E-4,1.891368E-1,1.3211153E-1,-4.641151E-1,9.633769E-2,-2.4388778E-1,2.0970134E-1,-7.1506207E-3,-2.0654347E-2,-3.932619E-1,-0E0,8.298013E-3,-1.4968925E-3,4.344308E-3,5.4343403E-3,-0E0,4.126252E-3,-0E0,-0E0,4.56345E-3,-6.317145E-3,-0E0,5.146965E-3,-0E0,9.719998E-5,-3.7492123E-3,-2.6912795E-4,3.2489467E-3,3.0709202E-3,-6.223324E-4,-4.068925E-3,1.3841833E-3,-5.801461E-3,-0E0],"categories":[],"categories_nodes":[],"categories_segments":[],"categories_sizes":[],"default_left":[0,0,0,0,0,0,0,0,0,0,0,0,0,0,0,0,0,0,0,0,0,0,0,0,0,0,0,0,0,0,0,0,0,0,0,0,0,0,0,0,0,0,0,0,0,0,0,0,0,0,0,0,0],"id":18,"left_children":[1,3,5,7,9,11,13,-1,15,17,19,21,23,25,27,29,31,-1,33,-1,35,37,39,41,43,45,47,49,51,-1,-1,-1,-1,-1,-1,-1,-1,-1,-1,-1,-1,-1,-1,-1,-1,-1,-1,-1,-1,-1,-1,-1,-1],"loss_changes":[2.0247775E2,2.044777E1,8.753475E1,6.3887005E0,1.5065506E1,8.313255E0,4.1474323E1,0E0,6.2181196E0,2.8574677E0,6.471384E-1,9.576332E0,5.8037615E0,2.1753956E1,3.4520607E0,1.5551801E0,2.008662E0,0E0,1.0688539E0,0E0,4.4551998E-1,1.4176037E0,5.719345E0,2.4354866E0,4.615095E0,8.014816E0,8.916053E0,3.632219E0,4.369316E0,0E0,0E0,0E0,0E0,0E0,0E0,0E0,0E0,0E0,0E0,0E0,0E0,0E0,0E0,0E0,0E0,0E0,0E0,0E0,0E0,0E0,0E0,0E0,0E0],"parents":[2147483647,0,0,1,1,2,2,3,3,4,4,5,5,6,6,8,8,9,9,10,10,11,11,12,12,13,13,14,14,15,15,16,16,18,18,20,20,21,21,22,22,23,23,24,24,25,25,26,26,27,27,28,28],"right_children":[2,4,6,8,10,12,14,-1,16,18,20,22,24,26,28,30,32,-1,34,-1,36,38,40,42,44,46,48,50,52,-1,-1,-1,-1,-1,-1,-1,-1,-1,-1,-1,-1,-1,-1,-1,-1,-1,-1,-1,-1,-1,-1,-1,-1],"split_conditions":[1.4764366E-2,4.5466553E1,-1.808817E-2,7.8040203E-3,7.675E2,-1.7740703E3,2.6065E3,1.12388935E-2,-1.9545085E2,2.3092201E2,-1.1967546E-4,1.8747227E1,3.2270687E1,2.8474126E-2,1.3865885E-2,-1.0501E3,-3.5790677E-4,1.5420774E-2,6.3978485E2,-4.714351E-4,1.6117665E2,-1.6004707E3,4.0359024E1,-2.4684904E-2,-1.4964371E3,-1.1805E3,-4.572822E2,5.6625847E1,1.08293556E-1,-0E0,8.298013E-3,-1.4968925E-3,4.344308E-3,5.4343403E-3,-0E0,4.126252E-3,-0E0,-0E0,4.56345E-3,-6.317145E-3,-0E0,5.146965E-3,-0E0,9.719998E-5,-3.7492123E-3,-2.6912795E-4,3.2489467E-3,3.0709202E-3,-6.223324E-4,-4.068925E-3,1.3841833E-3,-5.801461E-3,-0E0],"split_indices":[6,1,0,6,2,2,2,0,3,3,0,1,1,6,0,2,0,0,2,0,3,3,1,0,2,2,3,1,6,0,0,0,0,0,0,0,0,0,0,0,0,0,0,0,0,0,0,0,0,0,0,0,0],"split_type":[0,0,0,0,0,0,0,0,0,0,0,0,0,0,0,0,0,0,0,0,0,0,0,0,0,0,0,0,0,0,0,0,0,0,0,0,0,0,0,0,0,0,0,0,0,0,0,0,0,0,0,0,0],"sum_hessian":[3.218709E3,2.9445837E2,2.9242507E3,1.0020754E2,1.9425084E2,8.5581934E2,2.0684314E3,1.642624E1,8.37813E1,1.7441992E2,1.9830923E1,5.176486E2,3.3817065E2,1.7958092E3,2.7262222E2,1.9348255E1,6.4433044E1,1.4544728E2,2.8972637E1,7.178686E0,1.2652237E1,1.2869524E1,5.047791E2,3.3938427E1,3.0423224E2,7.8926984E2,1.0065393E3,6.2251835E1,2.1037039E2,2.223997E0,1.7124258E1,5.859946E1,5.833585E0,2.5380325E1,3.5923111E0,5.9265556E0,6.725682E0,3.524056E0,9.345468E0,4.950647E2,9.714422E0,1.3237019E1,2.0701406E1,2.6509012E1,2.7772324E2,9.2210365E1,6.970595E2,1.22759E2,8.8378033E2,2.8738638E1,3.3513195E1,1.8837033E2,2.2000065E1],"tree_param":{"num_deleted":"0","num_feature":"8","num_nodes":"53","size_leaf_vector":"1"}},{"base_weights":[-0E0,7.3776835E-1,-4.0523063E-2,1.037885E0,5.004757E-1,-1.1773902E-1,1.6081703E-1,1.4915343E-2,-0E0,-4.9563507E-3,7.3901117E-1,9.386608E-2,-1.9464968E-1,8.071111E-1,1.13532715E-1,-0E0,7.604973E-1,-1.9715986E-1,3.0990565E-1,-3.106203E-1,-5.6876194E-2,1.20420875E-2,-0E0,1.9303787E-1,-8.025806E-2,1.0143064E-2,-0E0,6.3175433E-3,-3.990561E-3,4.911559E-3,-5.1452112E-3,-2.3085969E-3,-7.55868E-3,1.7064497E-3,-1.8116765E-3,1.2247722E-3,9.2342375E-3,-2.3791122E-3,9.258732E-4],"categories":[],"categories_nodes":[],"categories_segments":[],"categories_sizes":[],"default_left":[0,0,0,0,0,0,0,0,0,0,0,0,0,0,0,0,0,0,0,0,0,0,0,0,0,0,0,0,0,0,0,0,0,0,0,0,0,0,0],"id":19,"left_children":[1,3,5,7,9,11,13,-1,-1,-1,15,17,19,21,23,-1,25,27,29,31,33,-1,-1,35,37,-1,-1,-1,-1,-1,-1,-1,-1,-1,-1,-1,-1,-1,-1],"loss_changes":[9.809656E1,1.8929672E0,4.711682E1,8.915146E0,2.716929E1,3.667649E1,2.019366E1,0E0,0E0,0E0,2.314766E0,3.7149574E1,2.4357052E1,6.4443455E0,1.2706977E1,0E0,8.3130264E-1,1.7096243E1,1.599057E1,2.6881584E1,1.1885809E1,0E0,0E0,2.4952185E1,3.8518295E0,0E0,0E0,0E0,0E0,0E0,0E0,0E0,0E0,0E0,0E0,0E0,0E0,0E0,0E0],"parents":[2147483647,0,0,1,1,2,2,3,3,4,4,5,5,6,6,10,10,11,11,12,12,13,13,14,14,16,16,17,17,18,18,19,19,20,20,23,23,24,24],"right_children":[2,4,6,8,10,12,14,-1,-1,-1,16,18,20,22,24,-1,26,28,30,32,34,-1,-1,36,38,-1,-1,-1,-1,-1,-1,-1,-1,-1,-1,-1,-1,-1,-1],"split_conditions":[-1.1790453E3,-3.5750989E3,8.514119E2,-2.3949167E2,-2.5808918E3,-1.8224811E3,-1.5466892E-2,1.4915343E-2,-0E0,-4.9563507E-3,-3.1164294E2,-4.9910367E2,-1.0834398E2,-3.9004153E2,2.5383169E-2,-0E0,-7.9569147E2,-4.6124E3,7.116709E-3,-5.786E2,-5.682054E-3,1.20420875E-2,-0E0,6.938494E2,4.506603E3,1.0143064E-2,-0E0,6.3175433E-3,-3.990561E-3,4.911559E-3,-5.1452112E-3,-2.3085969E-3,-7.55868E-3,1.7064497E-3,-1.8116765E-3,1.2247722E-3,9.2342375E-3,-2.3791122E-3,9.258732E-4],"split_indices":[4,2,2,5,2,2,0,0,0,0,5,4,2,3,0,0,3,2,0,2,0,0,0,3,2,0,0,0,0,0,0,0,0,0,0,0,0,0,0],"split_type":[0,0,0,0,0,0,0,0,0,0,0,0,0,0,0,0,0,0,0,0,0,0,0,0,0,0,0,0,0,0,0,0,0,0,0,0,0,0,0],"sum_hessian":[3.1994924E3,1.6605771E2,3.0334348E3,5.6570137E1,1.0948757E2,2.2120144E3,8.2142017E2,5.3419674E1,3.150466E0,1.829887E1,9.1188705E1,5.720406E2,1.6399739E3,4.331328E1,7.7810693E2,1.3560909E0,8.983261E1,2.3404826E2,3.3799234E2,8.673332E2,7.7264075E2,4.016623E1,3.1470497E0,5.70055E2,2.0805194E2,8.848275E1,1.3498639E0,2.3010933E1,2.1103734E2,3.184874E2,1.9504934E1,5.92311E2,2.750222E2,2.1411548E2,5.5852527E2,4.8980444E2,8.0250534E1,1.4396754E2,6.40844E1],"tree_param":{"num_deleted":"0","num_feature":"8","num_nodes":"39","size_leaf_vector":"1"}},{"base_weights":[-3.0442656E-3,2.0863092E-1,-1.4978261E-1,-4.73044E-1,2.5506446E-1,-2.0411699E-1,5.4949486E-1,-6.959306E-3,-0E0,4.408865E-1,1.2469181E-1,-2.7712217E-1,6.4333834E-2,6.2914467E-1,-8.3384785E-4,-2.4609922E-1,5.1972103E-1,3.0425316E-2,3.3038288E-1,-1.9541273E-1,-4.9292433E-1,-1.385477E-1,1.98491E-1,-0E0,8.532928E-3,-5.7724398E-3,-0E0,1.0904242E-2,4.0284772E-3,-2.057363E-3,4.347559E-3,-0E0,5.243597E-3,-3.5903316E-3,6.0065486E-4,-7.5251353E-3,-1.9647276E-3,1.240354E-3,-6.6404413E-3,-1.4121268E-3,4.8808474E-3],"categories":[],"categories_nodes":[],"categories_segments":[],"categories_sizes":[],"default_left":[0,0,0,0,0,0,0,0,0,0,0,0,0,0,0,0,0,0,0,0,0,0,0,0,0,0,0,0,0,0,0,0,0,0,0,0,0,0,0,0,0],"id":20,"left_children":[1,3,5,7,9,11,13,-1,-1,15,17,19,21,23,-1,25,27,29,31,33,35,37,39,-1,-1,-1,-1,-1,-1,-1,-1,-1,-1,-1,-1,-1,-1,-1,-1,-1,-1],"loss_changes":[1.0000712E2,4.0919502E1,7.182243E1,1.0889301E0,2.6812492E1,3.628875E1,9.53204E0,0E0,0E0,2.8618782E1,1.2658471E1,2.1205032E1,1.058201E1,2.4699402E0,0E0,3.277594E0,2.2713104E1,3.1198542E1,4.149851E0,2.105167E1,6.116806E0,1.3949136E1,1.4278688E1,0E0,0E0,0E0,0E0,0E0,0E0,0E0,0E0,0E0,0E0,0E0,0E0,0E0,0E0,0E0,0E0,0E0,0E0],"parents":[2147483647,0,0,1,1,2,2,3,3,4,4,5,5,6,6,9,9,10,10,11,11,12,12,13,13,15,15,16,16,17,17,18,18,19,19,20,20,21,21,22,22],"right_children":[2,4,6,8,10,12,14,-1,-1,16,18,20,22,24,-1,26,28,30,32,34,36,38,40,-1,-1,-1,-1,-1,-1,-1,-1,-1,-1,-1,-1,-1,-1,-1,-1,-1,-1],"split_conditions":[3.1547987E-1,-1.557112E3,9.570407E2,-1.6004707E3,-4.1461798E2,8.972483E-1,7.046805E2,-6.959306E-3,-0E0,-3.934051E3,-8.282703E1,9.652E2,1.4117008E3,4.641703E-1,-8.3384785E-4,-1.1813278E3,-2.6291E3,1.57447E2,-2.5079227E2,8.539403E1,8.4158415E-1,9.878181E1,2.819051E2,-0E0,8.532928E-3,-5.7724398E-3,-0E0,1.0904242E-2,4.0284772E-3,-2.057363E-3,4.347559E-3,-0E0,5.243597E-3,-3.5903316E-3,6.0065486E-4,-7.5251353E-3,-1.9647276E-3,1.240354E-3,-6.6404413E-3,-1.4121268E-3,4.8808474E-3],"split_indices":[7,3,3,3,4,7,5,0,0,2,5,2,2,7,0,3,2,4,4,5,7,4,3,0,0,0,0,0,0,0,0,0,0,0,0,0,0,0,0,0,0],"split_type":[0,0,0,0,0,0,0,0,0,0,0,0,0,0,0,0,0,0,0,0,0,0,0,0,0,0,0,0,0,0,0,0,0,0,0,0,0,0,0,0,0],"sum_hessian":[3.2191567E3,1.3031436E3,1.9160132E3,7.330847E1,1.2298351E3,1.7877913E3,1.2822192E2,6.138139E1,1.192708E1,4.8635953E2,7.434755E2,1.4200677E3,3.6772345E2,1.2057833E2,7.643597E0,4.2445488E1,4.4391403E2,5.304313E2,2.130443E2,1.0537732E3,3.6629456E2,1.3147092E2,2.3625255E2,1.7943885E0,1.1878394E2,2.6887405E1,1.55580845E1,1.6546515E2,2.7844888E2,3.1814764E2,2.1228363E2,4.2451412E1,1.7059288E2,8.1197125E2,2.4180202E2,2.8281842E2,8.347616E1,7.43336E1,5.7137302E1,7.55404E1,1.6071214E2],"tree_param":{"num_deleted":"0","num_feature":"8","num_nodes":"41","size_leaf_vector":"1"}},{"base_weights":[-0E0,7.793144E-1,-7.977791E-2,1.0132604E0,4.1640133E-1,-3.5848552E-1,6.8161734E-3,-0E0,1.4677898E-2,4.8188537E-1,-0E0,-3.7676838E-1,3.5515106E-1,8.569247E-2,-2.2955272E-1,-0E0,-7.604676E-5,-0E0,6.110906E-1,-4.6865773E-4,6.518157E-3,-1.6131191E-1,-4.2500904E-1,-0E0,5.154598E-3,-1.431561E-1,1.1946989E-1,-1.462622E-1,-4.6885175E-1,4.47538E-3,-1.0281258E-3,9.425245E-3,2.1730157E-4,-0E0,2.0218543E-3,-3.860801E-3,3.7050236E-4,-0E0,-5.732842E-3,-2.655253E-3,2.9353627E-3,3.256369E-3,6.397124E-5,1.8447388E-3,-2.4688E-3,-0E0,-6.3393246E-3],"categories":[],"categories_nodes":[],"categories_segments":[],"categories_sizes":[],"default_left":[0,0,0,0,0,0,0,0,0,0,0,0,0,0,0,0,0,0,0,0,0,0,0,0,0,0,0,0,0,0,0,0,0,0,0,0,0,0,0,0,0,0,0,0,0,0,0],"id":21,"left_children":[1,3,5,7,9,11,13,15,-1,17,19,21,23,25,27,-1,-1,29,31,-1,33,35,37,-1,-1,39,41,43,45,-1,-1,-1,-1,-1,-1,-1,-1,-1,-1,-1,-1,-1,-1,-1,-1,-1,-1],"loss_changes":[2.0044633E2,1.6164368E1,7.22744E1,1.8495117E1,3.821125E0,9.992035E0,4.0769043E1,4.8169552E-4,0E0,5.2630157E0,1.6136471E-2,3.9792404E0,1.6770661E-1,1.298476E1,7.363682E0,0E0,0E0,1.9256034E0,1.7357025E0,0E0,2.7825227E-1,5.2516975E0,2.8601685E0,0E0,0E0,4.430762E0,2.0627108E1,5.423091E0,1.2537937E0,0E0,0E0,0E0,0E0,0E0,0E0,0E0,0E0,0E0,0E0,0E0,0E0,0E0,0E0,0E0,0E0,0E0,0E0],"parents":[2147483647,0,0,1,1,2,2,3,3,4,4,5,5,6,6,7,7,9,9,10,10,11,11,12,12,13,13,14,14,17,17,18,18,20,20,21,21,22,22,25,25,26,26,27,27,28,28],"right_children":[2,4,6,8,10,12,14,16,-1,18,20,22,24,26,28,-1,-1,30,32,-1,34,36,38,-1,-1,40,42,44,46,-1,-1,-1,-1,-1,-1,-1,-1,-1,-1,-1,-1,-1,-1,-1,-1,-1,-1],"split_conditions":[1.4764366E-2,1.2070316E-2,-1.721309E3,-5.357306E-2,7.675E2,-3.351887E1,1.7497551E2,9.379923E-3,1.4677898E-2,2.0030516E-1,-1.6145801E2,3.983777E-2,-1.5121235E3,1.11788675E-1,1.0377249E0,-0E0,-7.604676E-5,-7.483E2,1.974162E2,-4.6865773E-4,8.194E2,1.6800184E-2,-5.9598403E3,-0E0,5.154598E-3,3.2771688E-2,2.8474126E-2,3.5153E-2,1.3338E3,4.47538E-3,-1.0281258E-3,9.425245E-3,2.1730157E-4,-0E0,2.0218543E-3,-3.860801E-3,3.7050236E-4,-0E0,-5.732842E-3,-2.655253E-3,2.9353627E-3,3.256369E-3,6.397124E-5,1.8447388E-3,-2.4688E-3,-0E0,-6.3393246E-3],"split_indices":[6,6,2,7,2,5,5,6,0,7,3,6,3,7,7,0,0,2,3,0,2,7,2,0,0,6,6,6,2,0,0,0,0,0,0,0,0,0,0,0,0,0,0,0,0,0,0],"split_type":[0,0,0,0,0,0,0,0,0,0,0,0,0,0,0,0,0,0,0,0,0,0,0,0,0,0,0,0,0,0,0,0,0,0,0,0,0,0,0,0,0,0,0,0,0,0,0],"sum_hessian":[3.2107275E3,2.9443097E2,2.9162966E3,1.6520001E2,1.2923097E2,7.012685E2,2.215028E3,1.5264706E1,1.499353E2,1.11683304E2,1.754766E1,6.928839E2,8.384591E0,1.679065E3,5.3596326E2,5.876892E0,9.387814E0,3.0031702E1,8.16516E1,7.176965E0,1.0370696E1,1.4969048E2,5.431934E2,1.3187695E0,7.065821E0,1.948306E2,1.4842343E3,4.190566E2,1.1690662E2,1.0301848E1,1.9729853E1,6.1281124E1,2.037048E1,3.585395E0,6.785301E0,1.0202164E2,4.7668842E1,1.2716933E1,5.304765E2,1.8155293E2,1.3277666E1,6.769538E2,8.072805E2,3.6351482E1,3.8270514E2,1.332399E0,1.1557422E2],"tree_param":{"num_deleted":"0","num_feature":"8","num_nodes":"47","size_leaf_vector":"1"}},{"base_weights":[-4.3944365E-4,8.5380447E-1,-2.4693847E-2,1.0366958E0,-0E0,-8.549302E-2,2.4013518E-1,1.3936061E-2,-0E0,-0E0,1.9264379E-1,3.4447614E-4,-1.6093229E-1,3.8420206E-1,-1.3071151E-1,5.6701773E-3,-0E0,-5.1785927E-2,2.2969209E-1,-2.881289E-1,2.6988642E-2,-1.7980032E-2,4.4963852E-1,-3.7342292E-1,1.4863163E-2,5.4767815E-4,-3.7950363E-3,7.6299044E-3,3.437322E-4,1.314519E-4,-4.609256E-3,-4.249905E-3,2.6885092E-3,-0E0,-3.712677E-3,8.683046E-3,2.5269531E-3,-0E0,-5.8100587E-3,7.4125803E-3,-2.4524757E-3],"categories":[],"categories_nodes":[],"categories_segments":[],"categories_sizes":[],"default_left":[0,0,0,0,0,0,0,0,0,0,0,0,0,0,0,0,0,0,0,0,0,0,0,0,0,0,0,0,0,0,0,0,0,0,0,0,0,0,0,0,0],"id":22,"left_children":[1,3,5,7,9,11,13,-1,-1,-1,15,17,19,21,23,-1,-1,25,27,29,31,33,35,37,39,-1,-1,-1,-1,-1,-1,-1,-1,-1,-1,-1,-1,-1,-1,-1,-1],"loss_changes":[6.2971176E1,7.936287E0,5.013771E1,1.6404266E0,7.2647214E-1,1.7544928E1,3.2246193E1,0E0,0E0,0E0,1.5680633E0,1.5096925E1,3.4977203E1,1.3388844E1,7.294877E0,0E0,0E0,2.234527E1,1.3874723E1,1.7678528E1,3.4367485E1,1.456844E0,1.5553139E1,3.284711E0,1.22350025E1,0E0,0E0,0E0,0E0,0E0,0E0,0E0,0E0,0E0,0E0,0E0,0E0,0E0,0E0,0E0,0E0],"parents":[2147483647,0,0,1,1,2,2,3,3,4,4,5,5,6,6,10,10,11,11,12,12,13,13,14,14,17,17,18,18,19,19,20,20,21,21,22,22,23,23,24,24],"right_children":[2,4,6,8,10,12,14,-1,-1,-1,16,18,20,22,24,-1,-1,26,28,30,32,34,36,38,40,-1,-1,-1,-1,-1,-1,-1,-1,-1,-1,-1,-1,-1,-1,-1,-1],"split_conditions":[-1.557112E3,-5.2033838E-2,1.665762E2,2.0376629E-1,-3.07212E2,-7.5091682E-3,6.6722786E1,1.3936061E-2,-0E0,-0E0,-1.9447342E2,3.1547987E-1,9.6334545E-3,4.7503296E1,3.656187E-2,5.6701773E-3,-0E0,-7.337852E1,-6.18981E2,-1.5023282E2,-3.351887E1,-2.1642454E-2,8.253641E-1,2.3092201E2,1.0296758E3,5.4767815E-4,-3.7950363E-3,7.6299044E-3,3.437322E-4,1.314519E-4,-4.609256E-3,-4.249905E-3,2.6885092E-3,-0E0,-3.712677E-3,8.683046E-3,2.5269531E-3,-0E0,-5.8100587E-3,7.4125803E-3,-2.4524757E-3],"split_indices":[3,0,5,7,5,0,1,0,0,0,5,7,0,1,0,0,0,5,3,5,5,0,7,3,3,0,0,0,0,0,0,0,0,0,0,0,0,0,0,0,0],"split_type":[0,0,0,0,0,0,0,0,0,0,0,0,0,0,0,0,0,0,0,0,0,0,0,0,0,0,0,0,0,0,0,0,0,0,0,0,0,0,0,0,0],"sum_hessian":[3.2292651E3,7.874364E1,3.1505215E3,5.9186684E1,1.955695E1,2.5803853E3,5.7013617E2,5.78142E1,1.3724837E0,4.981626E0,1.4575322E1,1.1783337E3,1.4020515E3,4.2019934E2,1.4993686E2,7.327786E0,7.247536E0,9.4549426E2,2.3283952E2,8.503931E2,5.516584E2,4.8615772E1,3.7158356E2,6.615681E1,8.3780045E1,6.658931E2,2.7960117E2,7.306697E1,1.5977255E2,1.343902E2,7.160029E2,1.7470348E2,3.7695493E2,3.514186E1,1.3473912E1,1.8919553E2,1.8238805E2,3.5747168E0,6.258209E1,2.6733288E1,5.7046757E1],"tree_param":{"num_deleted":"0","num_feature":"8","num_nodes":"41","size_leaf_vector":"1"}},{"base_weights":[2.9698159E-3,2.1485674E-1,-9.4408825E-2,-4.8550662E-1,2.766278E-1,-1.3690399E-1,5.718966E-1,-5.289933E-1,-0E0,-1.2372411E-1,3.3329633E-1,8.264914E-4,-2.2298709E-1,6.5815604E-1,-8.279503E-4,-7.417404E-3,-0E0,-3.4432858E-1,1.855609E-1,6.8531096E-1,2.0089287E-1,6.2184934E-2,-3.7143594E-1,5.7492156E-2,-3.0139402E-1,-0E0,7.4655133E-1,-4.750037E-3,-0E0,5.0873915E-3,-3.8187797E-4,1.3011751E-2,7.750265E-4,1.3649939E-3,6.1588176E-3,-2.8782005E-3,2.5813088E-3,-7.008354E-3,2.8803453E-3,-0E0,5.453561E-3,-5.1733484E-3,6.9635024E-4,3.870155E-3,-4.0150053E-4,2.218246E-3,1.2178984E-2],"categories":[],"categories_nodes":[],"categories_segments":[],"categories_sizes":[],"default_left":[0,0,0,0,0,0,0,0,0,0,0,0,0,0,0,0,0,0,0,0,0,0,0,0,0,0,0,0,0,0,0,0,0,0,0,0,0,0,0,0,0,0,0,0,0,0,0],"id":23,"left_children":[1,3,5,7,9,11,13,15,-1,17,19,21,23,25,-1,-1,-1,27,29,31,33,35,37,39,41,43,45,-1,-1,-1,-1,-1,-1,-1,-1,-1,-1,-1,-1,-1,-1,-1,-1,-1,-1,-1,-1],"loss_changes":[6.717893E1,4.4279297E1,6.035676E1,1.4857483E-1,2.2993523E1,2.5703243E1,1.0055473E1,1.469204E0,0E0,8.722354E0,3.4576576E1,1.639459E1,2.9867447E1,4.1128235E0,0E0,0E0,0E0,6.868992E-1,3.5868187E0,3.652604E1,1.3423836E1,2.5982864E1,1.1673996E1,7.650298E0,3.546295E1,1.2295551E0,4.039837E0,0E0,0E0,0E0,0E0,0E0,0E0,0E0,0E0,0E0,0E0,0E0,0E0,0E0,0E0,0E0,0E0,0E0,0E0,0E0,0E0],"parents":[2147483647,0,0,1,1,2,2,3,3,4,4,5,5,6,6,7,7,9,9,10,10,11,11,12,12,13,13,17,17,18,18,19,19,20,20,21,21,22,22,23,23,24,24,25,25,26,26],"right_children":[2,4,6,8,10,12,14,16,-1,18,20,22,24,26,-1,-1,-1,28,30,32,34,36,38,40,42,44,46,-1,-1,-1,-1,-1,-1,-1,-1,-1,-1,-1,-1,-1,-1,-1,-1,-1,-1,-1,-1],"split_conditions":[-1.00616016E3,-1.557112E3,9.570407E2,-1.6004707E3,-3.934051E3,-8.2881096E1,7.046805E2,-4.6310633E-2,-0E0,3.3243725E1,-8.058891E2,1.0875E3,-4.6053196E1,3.0780625E-2,-8.279503E-4,-7.417404E-3,-0E0,-2.3949167E2,-3.8744528E2,-2.6997427E3,2.095726E2,-8.672985E0,5.341206E2,1.6811518E-2,2.2533936E-2,5.124953E2,2.7947546E3,-4.750037E-3,-0E0,5.0873915E-3,-3.8187797E-4,1.3011751E-2,7.750265E-4,1.3649939E-3,6.1588176E-3,-2.8782005E-3,2.5813088E-3,-7.008354E-3,2.8803453E-3,-0E0,5.453561E-3,-5.1733484E-3,6.9635024E-4,3.870155E-3,-4.0150053E-4,2.218246E-3,1.2178984E-2],"split_indices":[2,3,3,3,2,3,5,0,0,4,3,2,5,0,0,0,0,5,5,2,4,5,5,0,0,2,2,0,0,0,0,0,0,0,0,0,0,0,0,0,0,0,0,0,0,0,0],"split_type":[0,0,0,0,0,0,0,0,0,0,0,0,0,0,0,0,0,0,0,0,0,0,0,0,0,0,0,0,0,0,0,0,0,0,0,0,0,0,0,0,0,0,0,0,0,0,0],"sum_hessian":[3.216753E3,1.027129E3,2.189624E3,7.390847E1,9.532206E2,2.0691367E3,1.2048723E2,6.1999096E1,1.1909371E1,1.06521095E2,8.4669946E2,7.753953E2,1.2937415E3,1.12847404E2,7.6398287E0,5.8476658E1,3.522438E0,7.127932E1,3.524178E1,2.1539537E2,6.313041E2,6.807812E2,9.461413E1,2.6900693E2,1.0247345E3,1.8875834E1,9.3971565E1,6.9496445E1,1.7828746E0,2.811842E1,7.12336E0,1.3757867E2,7.781669E1,4.8215686E2,1.4914725E2,2.0690948E2,4.738717E2,8.129354E1,1.3320592E1,2.2431415E2,4.4692783E1,8.238728E2,2.0086174E2,9.020071E0,9.855763E0,3.1230967E1,6.27406E1],"tree_param":{"num_deleted":"0","num_feature":"8","num_nodes":"47","size_leaf_vector":"1"}},{"base_weights":[-0E0,7.781099E-1,-7.9782516E-2,3.1510666E-1,9.759991E-1,-3.4054333E-1,2.61209E-2,1.13400165E-2,1.00887984E-1,1.6159851E-2,5.4703474E-1,1.6758573E-1,-3.5541525E-1,1.1284355E-1,-2.5173658E-1,7.125816E-3,-0E0,-0E0,6.3394743E-1,-0E0,3.826192E-1,-3.88901E-1,-7.0573464E-2,-7.925897E-2,1.73351E-1,-2.714352E-1,-0E0,1.8953731E-3,-3.4929218E-3,-0E0,-1.09737244E-4,1.1435775E-2,2.631813E-3,5.543832E-3,-0E0,-0E0,-5.228789E-3,3.2483921E-3,-2.3104432E-3,2.4554252E-3,-3.3602763E-3,3.413866E-3,1.3132644E-3,-2.5439458E-3,-6.721391E-3,1.9174579E-3,-0E0],"categories":[],"categories_nodes":[],"categories_segments":[],"categories_sizes":[],"default_left":[0,0,0,0,0,0,0,0,0,0,0,0,0,0,0,0,0,0,0,0,0,0,0,0,0,0,0,0,0,0,0,0,0,0,0,0,0,0,0,0,0,0,0,0,0,0,0],"id":24,"left_children":[1,3,5,7,9,11,13,-1,15,-1,17,19,21,23,25,-1,27,29,31,-1,33,35,37,39,41,43,45,-1,-1,-1,-1,-1,-1,-1,-1,-1,-1,-1,-1,-1,-1,-1,-1,-1,-1,-1,-1],"loss_changes":[2.0198409E2,1.9752014E1,8.2489914E1,7.1389103E0,9.745743E0,7.734688E0,4.9416744E1,0E0,3.107324E0,0E0,5.944998E0,1.5210814E0,5.639984E0,1.9109102E1,3.1485233E0,0E0,3.0564356E0,8.177929E-4,2.2664452E0,0E0,2.0262694E-1,3.6714172E0,3.5669231E0,1.7777908E1,5.9151154E0,4.5120544E0,3.7708512E-1,0E0,0E0,0E0,0E0,0E0,0E0,0E0,0E0,0E0,0E0,0E0,0E0,0E0,0E0,0E0,0E0,0E0,0E0,0E0,0E0],"parents":[2147483647,0,0,1,1,2,2,3,3,4,4,5,5,6,6,8,8,10,10,11,11,12,12,13,13,14,14,16,16,17,17,18,18,20,20,21,21,22,22,23,23,24,24,25,25,26,26],"right_children":[2,4,6,8,10,12,14,-1,16,-1,18,20,22,24,26,-1,28,30,32,-1,34,36,38,40,42,44,46,-1,-1,-1,-1,-1,-1,-1,-1,-1,-1,-1,-1,-1,-1,-1,-1,-1,-1,-1,-1],"split_conditions":[1.4764366E-2,4.5466553E1,-1.808817E-2,7.8040203E-3,1.2070316E-2,1.8747227E1,1.7497551E2,1.13400165E-2,-2.9986777E2,1.6159851E-2,-2.3901144E2,-1.1525596E3,4.1148716E1,-1.2905013E2,1.08293556E-1,7.125816E-3,2.088863E1,-4.120052E-3,1.1981608E2,-0E0,-2.740744E2,2.1101892E-2,-1.7433353E1,1.6296364E2,7.0632153E0,3.34943E-2,7.0979614E1,1.8953731E-3,-3.4929218E-3,-0E0,-1.09737244E-4,1.1435775E-2,2.631813E-3,5.543832E-3,-0E0,-0E0,-5.228789E-3,3.2483921E-3,-2.3104432E-3,2.4554252E-3,-3.3602763E-3,3.413866E-3,1.3132644E-3,-2.5439458E-3,-6.721391E-3,1.9174579E-3,-0E0],"split_indices":[6,1,0,6,6,1,5,0,4,0,4,4,1,5,6,0,5,0,4,0,5,6,5,4,5,0,1,0,0,0,0,0,0,0,0,0,0,0,0,0,0,0,0,0,0,0,0],"split_type":[0,0,0,0,0,0,0,0,0,0,0,0,0,0,0,0,0,0,0,0,0,0,0,0,0,0,0,0,0,0,0,0,0,0,0,0,0,0,0,0,0,0,0,0,0,0,0],"sum_hessian":[3.2213713E3,2.9781873E2,2.9235525E3,1.0062166E2,1.9719707E2,8.548448E2,2.0687078E3,1.7471321E1,8.315034E1,1.1074886E2,8.64482E1,1.328797E1,8.415568E2,1.5926019E3,4.761059E2,8.622864E0,7.452747E1,8.563189E0,7.788501E1,4.389513E0,8.898457E0,7.356896E2,1.0586723E2,3.6131012E2,1.2312917E3,4.5154416E2,2.4561731E1,5.34708E1,2.1056677E1,1.8326248E0,6.7305636E0,3.9704838E1,3.8180172E1,7.574557E0,1.3239E0,9.71763E0,7.259719E2,1.2837574E1,9.3029655E1,1.3262862E2,2.2868152E2,5.285766E2,7.0271515E2,3.6346317E2,8.8081E1,1.2716232E1,1.1845498E1],"tree_param":{"num_deleted":"0","num_feature":"8","num_nodes":"47","size_leaf_vector":"1"}},{"base_weights":[-0E0,-4.6770176E-1,8.528069E-2,-5.430264E-1,-0E0,7.003402E-1,5.4285068E-2,-8.89518E-3,-2.9210714E-1,1.5635583E-1,-1.8972929E-1,8.0862623E-1,-0E0,-4.777823E-2,1.6625787E-1,-0E0,-4.115288E-1,-3.161925E-3,6.2298375E-1,-0E0,-3.9632698E-3,-0E0,8.228657E-1,-6.9721885E-2,-0E0,-2.401756E-3,-5.3652346E-1,-2.9255597E-2,3.1226742E-1,1.9203771E-3,-2.7041347E-3,-0E0,-5.694566E-3,-0E0,9.603687E-3,-3.5324802E-3,1.3961514E-3,1.0960795E-2,-0E0,-0E0,-9.97911E-4,-2.219229E-3,6.0778804E-4,-0E0,-8.283501E-3,6.3454215E-3,-1.6997295E-3,5.9788274E-3,-5.289283E-4],"categories":[],"categories_nodes":[],"categories_segments":[],"categories_sizes":[],"default_left":[0,0,0,0,0,0,0,0,0,0,0,0,0,0,0,0,0,0,0,0,0,0,0,0,0,0,0,0,0,0,0,0,0,0,0,0,0,0,0,0,0,0,0,0,0,0,0,0,0],"id":25,"left_children":[1,3,5,7,9,11,13,-1,15,17,19,21,23,25,27,29,31,-1,33,35,-1,-1,37,39,-1,41,43,45,47,-1,-1,-1,-1,-1,-1,-1,-1,-1,-1,-1,-1,-1,-1,-1,-1,-1,-1,-1,-1],"loss_changes":[1.2869798E2,1.5449814E1,4.803496E1,8.317863E0,2.6820126E0,1.2793179E1,3.0458164E1,0E0,6.546789E0,9.351036E0,1.8624353E-1,1.0613403E0,6.966839E-2,2.7146744E1,3.768611E1,1.5528364E0,8.655815E-1,0E0,2.536416E0,1.5602609E0,0E0,0E0,1.0551987E0,5.2201226E-3,0E0,1.07404995E1,7.5995407E0,2.582877E1,3.945092E1,0E0,0E0,0E0,0E0,0E0,0E0,0E0,0E0,0E0,0E0,0E0,0E0,0E0,0E0,0E0,0E0,0E0,0E0,0E0,0E0],"parents":[2147483647,0,0,1,1,2,2,3,3,4,4,5,5,6,6,8,8,9,9,10,10,11,11,12,12,13,13,14,14,15,15,16,16,18,18,19,19,22,22,23,23,25,25,26,26,27,27,28,28],"right_children":[2,4,6,8,10,12,14,-1,16,18,20,22,24,26,28,30,32,-1,34,36,-1,-1,38,40,-1,42,44,46,48,-1,-1,-1,-1,-1,-1,-1,-1,-1,-1,-1,-1,-1,-1,-1,-1,-1,-1,-1,-1],"split_conditions":[1.8310765E-2,1.0150406E-2,-5.2033838E-2,1.4764366E-2,2.819051E2,-1.0566553E3,1.00971775E1,-8.89518E-3,1.549233E-2,1.974162E2,7.2883916E-1,-1.5835345E-1,-6.0792223E-2,1.5993934E-2,3.6694217E-2,8.949181E1,-3.0135074E2,-3.161925E-3,1.1190717E-2,5.076529E-1,-3.9632698E-3,-0E0,2.0376629E-1,-3.07212E2,-0E0,2.7463393E-2,2.0193899E-2,3.2887543E1,2.5080575E-2,1.9203771E-3,-2.7041347E-3,-0E0,-5.694566E-3,-0E0,9.603687E-3,-3.5324802E-3,1.3961514E-3,1.0960795E-2,-0E0,-0E0,-9.97911E-4,-2.219229E-3,6.0778804E-4,-0E0,-8.283501E-3,6.3454215E-3,-1.6997295E-3,5.9788274E-3,-5.289283E-4],"split_indices":[6,0,0,6,3,3,5,0,6,3,7,7,7,0,6,3,3,0,6,7,0,0,7,5,0,6,6,5,0,0,0,0,0,0,0,0,0,0,0,0,0,0,0,0,0,0,0,0,0],"split_type":[0,0,0,0,0,0,0,0,0,0,0,0,0,0,0,0,0,0,0,0,0,0,0,0,0,0,0,0,0,0,0,0,0,0,0,0,0,0,0,0,0,0,0,0,0,0,0,0,0],"sum_hessian":[3.2151997E3,4.9266257E2,2.722537E3,4.1656793E2,7.609462E1,1.1769892E2,2.6048384E3,2.5317464E2,1.633933E2,3.1116943E1,4.4977673E1,1.066023E2,1.1096618E1,1.340858E3,1.2639803E3,4.489475E1,1.1849855E2,1.23329315E1,1.8784012E1,2.8145226E1,1.6832447E1,2.2616253E0,1.04340675E2,9.331692E0,1.7649261E0,1.2409038E3,9.995414E1,5.274519E2,7.365284E2,3.17439E1,1.315085E1,7.4776826E0,1.1102087E2,1.7455771E0,1.7038435E1,1.353512E1,1.4610105E1,1.02965576E2,1.3751001E0,1.3415091E0,7.990183E0,3.01092E2,9.398118E2,9.767019E0,9.018712E1,7.493367E1,4.5251825E2,5.334168E2,2.0311157E2],"tree_param":{"num_deleted":"0","num_feature":"8","num_nodes":"49","size_leaf_vector":"1"}},{"base_weights":[-0E0,2.0429048E-1,-9.756684E-2,-4.601349E-1,2.61119E-1,-1.3997567E-1,5.668127E-1,-5.151437E-1,-0E0,-1.3205664E-1,3.162338E-1,-0E0,-2.2518365E-1,6.472192E-1,-4.9361825E-4,-7.233993E-3,-0E0,-3.0432045E-1,2.5930724E-1,1.6393688E-1,6.5425146E-1,1.061907E-1,-2.1266618E-1,5.0645377E-2,-3.0267194E-1,-0E0,7.362131E-1,-4.8745503E-3,-0E0,7.697943E-3,-2.4980318E-5,7.6442654E-4,7.299023E-3,9.653758E-3,-0E0,-1.8582061E-3,3.7763375E-3,-3.887119E-3,9.324124E-4,-7.304617E-5,5.266457E-3,-5.107272E-3,4.723169E-4,4.7799065E-3,-9.2175533E-4,2.2008072E-3,1.1999183E-2],"categories":[],"categories_nodes":[],"categories_segments":[],"categories_sizes":[],"default_left":[0,0,0,0,0,0,0,0,0,0,0,0,0,0,0,0,0,0,0,0,0,0,0,0,0,0,0,0,0,0,0,0,0,0,0,0,0,0,0,0,0,0,0,0,0,0,0],"id":26,"left_children":[1,3,5,7,9,11,13,15,-1,17,19,21,23,25,-1,-1,-1,27,29,31,33,35,37,39,41,43,45,-1,-1,-1,-1,-1,-1,-1,-1,-1,-1,-1,-1,-1,-1,-1,-1,-1,-1,-1,-1],"loss_changes":[6.371646E1,3.8326015E1,6.0177956E1,7.819977E-1,2.1820076E1,2.487614E1,9.281681E0,1.1782074E0,0E0,8.019496E0,3.9132072E1,1.7873783E1,2.8973E1,3.8843727E0,0E0,0E0,0E0,2.0376558E0,5.25861E0,2.1731426E1,1.5024849E1,2.4739586E1,7.4230022E0,7.372019E0,3.163446E1,1.9337753E0,3.767437E0,0E0,0E0,0E0,0E0,0E0,0E0,0E0,0E0,0E0,0E0,0E0,0E0,0E0,0E0,0E0,0E0,0E0,0E0,0E0,0E0],"parents":[2147483647,0,0,1,1,2,2,3,3,4,4,5,5,6,6,7,7,9,9,10,10,11,11,12,12,13,13,17,17,18,18,19,19,20,20,21,21,22,22,23,23,24,24,25,25,26,26],"right_children":[2,4,6,8,10,12,14,16,-1,18,20,22,24,26,-1,-1,-1,28,30,32,34,36,38,40,42,44,46,-1,-1,-1,-1,-1,-1,-1,-1,-1,-1,-1,-1,-1,-1,-1,-1,-1,-1,-1,-1],"split_conditions":[-1.00616016E3,-1.557112E3,9.570407E2,-1.6004707E3,-3.934051E3,-8.2881096E1,7.046805E2,-4.6310633E-2,-0E0,-2.9588675E2,5.6076083E-2,3.959215E-2,-4.6053196E1,3.0780625E-2,-4.9361825E-4,-7.233993E-3,-0E0,8.927146E-2,-3.8744528E2,-7.132219E1,-1.01522835E2,1.7973173E1,-4.343998E-3,1.6811518E-2,2.2533936E-2,5.124953E2,2.7947546E3,-4.8745503E-3,-0E0,7.697943E-3,-2.4980318E-5,7.6442654E-4,7.299023E-3,9.653758E-3,-0E0,-1.8582061E-3,3.7763375E-3,-3.887119E-3,9.324124E-4,-7.304617E-5,5.266457E-3,-5.107272E-3,4.723169E-4,4.7799065E-3,-9.2175533E-4,2.2008072E-3,1.1999183E-2],"split_indices":[2,3,3,3,2,3,5,0,0,3,6,6,5,0,0,0,0,6,5,5,5,5,0,0,0,2,2,0,0,0,0,0,0,0,0,0,0,0,0,0,0,0,0,0,0,0,0],"split_type":[0,0,0,0,0,0,0,0,0,0,0,0,0,0,0,0,0,0,0,0,0,0,0,0,0,0,0,0,0,0,0,0,0,0,0,0,0,0,0,0,0,0,0,0,0,0,0],"sum_hessian":[3.2129668E3,1.0204787E3,2.192488E3,7.067658E1,9.498021E2,2.071718E3,1.2076997E2,5.8324276E1,1.2352308E1,1.0476125E2,8.450409E2,7.8370557E2,1.2880125E3,1.1357794E2,7.1920314E0,5.4358627E1,3.9656491E0,8.238592E1,2.2375332E1,5.978784E2,2.4716249E2,5.258639E2,2.578416E2,2.6871057E2,1.01930194E3,1.9768261E1,9.3809685E1,6.864571E1,1.3740205E1,1.5694229E1,6.6811037E0,4.8526224E2,1.12616165E2,2.229086E2,2.4253883E1,2.1098647E2,3.1487744E2,2.1288632E2,4.4955296E1,2.234694E2,4.524115E1,8.241896E2,1.9511235E2,9.035044E0,1.0733216E1,3.1257504E1,6.255218E1],"tree_param":{"num_deleted":"0","num_feature":"8","num_nodes":"47","size_leaf_vector":"1"}},{"base_weights":[-0E0,-3.4699476E-1,1.2683995E-1,-4.313026E-1,-1.9727929E-1,1.9055438E-1,-3.0498433E-1,9.9324696E-2,-4.5497116E-1,1.39232E-1,-2.438911E-1,-1.1374611E-1,2.4874745E-1,-1.0070808E-1,-4.001705E-1,-0E0,4.083782E-3,-4.7312486E-1,-0E0,4.9616048E-1,-0E0,-0E0,-2.9646736E-1,4.1851613E-1,-2.0293477E-1,4.0273154E-1,1.1850689E-1,-2.0856217E-1,1.5095583E-1,-0E0,-4.4458157E-1,-0E0,-6.346233E-3,1.2417885E-3,-0E0,7.1709463E-3,-0E0,-3.218806E-4,-0E0,2.407286E-3,-1.6750593E-3,-4.301007E-3,-0E0,-0E0,9.51441E-3,6.019102E-5,-3.1149643E-3,4.5220843E-3,1.1734707E-2,-1.6415577E-3,2.2082077E-3,-4.165185E-3,-0E0,5.559865E-3,-0E0,-0E0,9.029286E-4,-0E0,-6.116511E-3],"categories":[],"categories_nodes":[],"categories_segments":[],"categories_sizes":[],"default_left":[0,0,0,0,0,0,0,0,0,0,0,0,0,0,0,0,0,0,0,0,0,0,0,0,0,0,0,0,0,0,0,0,0,0,0,0,0,0,0,0,0,0,0,0,0,0,0,0,0,0,0,0,0,0,0,0,0,0,0],"id":27,"left_children":[1,3,5,7,9,11,13,15,17,19,21,23,25,27,29,-1,-1,31,33,35,37,39,41,43,45,47,49,51,53,55,57,-1,-1,-1,-1,-1,-1,-1,-1,-1,-1,-1,-1,-1,-1,-1,-1,-1,-1,-1,-1,-1,-1,-1,-1,-1,-1,-1,-1],"loss_changes":[1.4135876E2,7.2481766E0,6.500834E1,8.568192E0,6.015111E0,3.7668472E1,3.0680122E0,1.1701291E0,6.3296432E0,2.9056623E0,3.8133068E0,1.4714478E1,3.249903E1,3.6419277E0,4.3847504E0,0E0,0E0,1.8013763E0,1.0356324E-1,3.4175777E-1,1.0634447E-2,1.5441885E0,3.0591354E0,7.4774876E0,3.2086487E0,1.4932144E1,1.2123654E1,1.5313182E0,2.4697185E0,5.0642293E-2,2.108017E0,0E0,0E0,0E0,0E0,0E0,0E0,0E0,0E0,0E0,0E0,0E0,0E0,0E0,0E0,0E0,0E0,0E0,0E0,0E0,0E0,0E0,0E0,0E0,0E0,0E0,0E0,0E0,0E0],"parents":[2147483647,0,0,1,1,2,2,3,3,4,4,5,5,6,6,7,7,8,8,9,9,10,10,11,11,12,12,13,13,14,14,17,17,18,18,19,19,20,20,21,21,22,22,23,23,24,24,25,25,26,26,27,27,28,28,29,29,30,30],"right_children":[2,4,6,8,10,12,14,16,18,20,22,24,26,28,30,-1,-1,32,34,36,38,40,42,44,46,48,50,52,54,56,58,-1,-1,-1,-1,-1,-1,-1,-1,-1,-1,-1,-1,-1,-1,-1,-1,-1,-1,-1,-1,-1,-1,-1,-1,-1,-1,-1,-1],"split_conditions":[-1.808817E-2,-1.7740703E3,2.4334E3,1.8747227E1,3.118988E1,-1.2410837E3,9.0296894E-1,-1.6004707E3,4.0359024E1,-2.4684904E-2,-3.183574E-2,-5.020665E2,2.27E2,6.572283E1,2.6677317E3,-0E0,4.083782E-3,-5.9598403E3,-2.059E3,-7.483E2,-1.3478E3,-3.2223965E2,6.040054E-1,-6.8276056E2,3.300592E1,6.5496325E-1,-4.674408E-3,8.0845684E-1,7.171514E3,6.917191E1,5.4431134E-3,-0E0,-6.346233E-3,1.2417885E-3,-0E0,7.1709463E-3,-0E0,-3.218806E-4,-0E0,2.407286E-3,-1.6750593E-3,-4.301007E-3,-0E0,-0E0,9.51441E-3,6.019102E-5,-3.1149643E-3,4.5220843E-3,1.1734707E-2,-1.6415577E-3,2.2082077E-3,-4.165185E-3,-0E0,5.559865E-3,-0E0,-0E0,9.029286E-4,-0E0,-6.116511E-3],"split_indices":[0,2,2,1,1,2,7,3,1,0,0,3,2,1,2,0,0,2,2,2,2,2,7,3,1,7,0,7,2,1,0,0,0,0,0,0,0,0,0,0,0,0,0,0,0,0,0,0,0,0,0,0,0,0,0,0,0,0,0],"split_type":[0,0,0,0,0,0,0,0,0,0,0,0,0,0,0,0,0,0,0,0,0,0,0,0,0,0,0,0,0,0,0,0,0,0,0,0,0,0,0,0,0,0,0,0,0,0,0,0,0,0,0,0,0,0,0,0,0,0,0],"sum_hessian":[3.2199634E3,8.519449E2,2.3680186E3,5.176467E2,3.342982E2,2.0760723E3,2.9194617E2,1.24007225E1,5.05246E2,2.6412247E1,3.0788593E2,3.1872357E2,1.7573488E3,1.1276443E2,1.7918173E2,3.5029762E0,8.897747E0,4.9511783E2,1.012818E1,9.276847E0,1.71354E1,5.7749737E1,2.501362E2,3.5046844E1,2.8367673E2,7.828865E2,9.744623E2,9.344246E1,1.932197E1,1.2775273E1,1.6640646E2,1.2243484E1,4.8287436E2,6.6009617E0,3.5272179E0,7.954145E0,1.3227022E0,1.2730007E1,4.405393E0,2.0640156E1,3.710958E1,2.3296193E2,1.7174273E1,1.2393613E1,2.265323E1,1.992234E1,2.637544E2,7.1591235E2,6.6974144E1,1.4634541E2,8.281169E2,5.2882072E1,4.0560387E1,1.1897837E1,7.4241333E0,7.045509E0,5.7297645E0,5.2483664E0,1.611581E2],"tree_param":{"num_deleted":"0","num_feature":"8","num_nodes":"59","size_leaf_vector":"1"}},{"base_weights":[1.2768348E-3,-4.6035317E-1,8.625029E-2,-5.4206717E-1,-0E0,7.350656E-1,4.0094852E-2,-8.892266E-3,-2.9279315E-1,-4.5526894E-3,1.0690475E-1,-0E0,7.411607E-1,-2.884582E-2,1.8821791E-1,-7.584791E-3,-0E0,-2.981217E-3,3.0551118E-1,9.821686E-3,-0E0,-0E0,-4.930374E-1,-3.3514287E-2,3.034441E-1,3.7644126E-3,-6.4568208E-3,9.9261515E-3,-0E0,-2.870642E-3,1.1122421E-3,-0E0,-7.449495E-3,1.5637852E-3,-1.8315248E-3,6.335878E-3,-4.67498E-4],"categories":[],"categories_nodes":[],"categories_segments":[],"categories_sizes":[],"default_left":[0,0,0,0,0,0,0,0,0,0,0,0,0,0,0,0,0,0,0,0,0,0,0,0,0,0,0,0,0,0,0,0,0,0,0,0,0],"id":28,"left_children":[1,3,5,7,9,11,13,-1,15,-1,17,-1,19,21,23,-1,25,-1,27,-1,-1,29,31,33,35,-1,-1,-1,-1,-1,-1,-1,-1,-1,-1,-1,-1],"loss_changes":[1.2434372E2,1.7471497E1,7.762492E1,8.031906E0,3.67971E0,8.129425E-1,2.6944387E1,0E0,1.2427722E1,0E0,4.898313E0,0E0,8.1427765E-1,2.3693054E1,2.2762272E1,0E0,1.4104929E1,0E0,8.360428E0,0E0,0E0,3.0036808E1,5.6588326E0,4.632656E0,3.656551E1,0E0,0E0,0E0,0E0,0E0,0E0,0E0,0E0,0E0,0E0,0E0,0E0],"parents":[2147483647,0,0,1,1,2,2,3,3,4,4,5,5,6,6,8,8,10,10,12,12,13,13,14,14,16,16,18,18,21,21,22,22,23,23,24,24],"right_children":[2,4,6,8,10,12,14,-1,16,-1,18,-1,20,22,24,-1,26,-1,28,-1,-1,30,32,34,36,-1,-1,-1,-1,-1,-1,-1,-1,-1,-1,-1,-1],"split_conditions":[1.8310765E-2,1.0150406E-2,-1.1790453E3,1.4764366E-2,1.0566882E2,4.510967E-2,8.0223627E2,-8.892266E-3,-1.0834398E2,-4.5526894E-3,1.974162E2,-0E0,-7.9569147E2,1.6811518E-2,3.6297202E-2,-7.584791E-3,4.612E2,-2.981217E-3,2.819051E2,9.821686E-3,-0E0,-4.9910367E2,2.0193899E-2,-2.9383173E1,2.6006851E-2,3.7644126E-3,-6.4568208E-3,9.9261515E-3,-0E0,-2.870642E-3,1.1122421E-3,-0E0,-7.449495E-3,1.5637852E-3,-1.8315248E-3,6.335878E-3,-4.67498E-4],"split_indices":[6,0,4,6,2,6,2,0,2,0,3,0,3,0,6,0,2,0,3,0,0,4,6,4,0,0,0,0,0,0,0,0,0,0,0,0,0],"split_type":[0,0,0,0,0,0,0,0,0,0,0,0,0,0,0,0,0,0,0,0,0,0,0,0,0,0,0,0,0,0,0,0,0,0,0,0,0],"sum_hessian":[3.2075312E3,4.8605273E2,2.7214783E3,4.0862375E2,7.7429016E1,1.6859195E2,2.5528865E3,2.4680925E2,1.6181448E2,1.9690796E1,5.7738216E1,1.3634669E0,1.6722849E2,1.721788E3,8.310984E2,7.525437E1,8.656011E1,1.1883452E1,4.5854767E1,1.6586891E2,1.3595693E0,1.6234094E3,9.837862E1,2.7057602E2,5.605224E2,5.2747997E1,3.381211E1,1.7978794E1,2.787597E1,4.4731424E2,1.1760952E3,7.5442123E0,9.0834404E1,9.124535E1,1.7933064E2,3.7537228E2,1.8515012E2],"tree_param":{"num_deleted":"0","num_feature":"8","num_nodes":"37","size_leaf_vector":"1"}},{"base_weights":[-0E0,2.0392153E-1,-1.4164239E-1,-4.6506038E-1,2.490192E-1,-1.9626532E-1,5.490056E-1,-6.844976E-3,-0E0,4.3980065E-1,1.1559599E-1,-2.6992327E-1,7.600763E-2,6.2759125E-1,-8.290026E-4,-0E0,4.766912E-1,2.714599E-1,-0E0,-1.07651666E-1,-3.623905E-1,-7.475114E-2,2.15715E-1,-0E0,6.674134E-1,-3.8268806E-3,2.3263423E-3,-1.6049322E-4,6.5097283E-3,-4.1119917E-3,4.4222423E-3,-1.1236087E-3,2.8073117E-3,-4.942403E-3,-0E0,-0E0,-6.294745E-3,5.3050676E-3,-2.0047862E-3,-6.4671924E-4,4.194399E-3,-0E0,8.991469E-3],"categories":[],"categories_nodes":[],"categories_segments":[],"categories_sizes":[],"default_left":[0,0,0,0,0,0,0,0,0,0,0,0,0,0,0,0,0,0,0,0,0,0,0,0,0,0,0,0,0,0,0,0,0,0,0,0,0,0,0,0,0,0,0],"id":29,"left_children":[1,3,5,7,9,11,13,-1,-1,15,17,19,21,23,-1,25,27,29,31,33,35,37,39,-1,41,-1,-1,-1,-1,-1,-1,-1,-1,-1,-1,-1,-1,-1,-1,-1,-1,-1,-1],"loss_changes":[9.29335E1,3.908387E1,7.092842E1,1.0332813E0,2.8519379E1,3.6826637E1,9.503899E0,0E0,0E0,8.336151E0,1.3654959E1,1.8742928E1,8.558559E0,2.5058289E0,0E0,2.4856045E0,6.5972137E0,1.2861267E1,7.9812975E0,1.47909565E1,3.8310303E1,5.155452E0,7.1832952E0,0E0,2.030449E0,0E0,0E0,0E0,0E0,0E0,0E0,0E0,0E0,0E0,0E0,0E0,0E0,0E0,0E0,0E0,0E0,0E0,0E0],"parents":[2147483647,0,0,1,1,2,2,3,3,4,4,5,5,6,6,9,9,10,10,11,11,12,12,13,13,15,15,16,16,17,17,18,18,19,19,20,20,21,21,22,22,24,24],"right_children":[2,4,6,8,10,12,14,-1,-1,16,18,20,22,24,-1,26,28,30,32,34,36,38,40,-1,42,-1,-1,-1,-1,-1,-1,-1,-1,-1,-1,-1,-1,-1,-1,-1,-1,-1,-1],"split_conditions":[3.1547987E-1,-1.557112E3,9.570407E2,-1.6004707E3,-4.1461798E2,8.972483E-1,7.046805E2,-6.844976E-3,-0E0,-3.8744528E2,2.5587771E-2,-8.2881096E1,3.0697497E-2,4.76365E-2,-8.290026E-4,8.510382E-3,2.0193899E-2,8.612639E-3,1.57447E2,1.9408272E1,-4.4610245E1,-3.5579993E2,1.5610072E2,-0E0,-3.8744528E2,-3.8268806E-3,2.3263423E-3,-1.6049322E-4,6.5097283E-3,-4.1119917E-3,4.4222423E-3,-1.1236087E-3,2.8073117E-3,-4.942403E-3,-0E0,-0E0,-6.294745E-3,5.3050676E-3,-2.0047862E-3,-6.4671924E-4,4.194399E-3,-0E0,8.991469E-3],"split_indices":[7,3,3,3,4,7,5,0,0,5,6,3,6,6,0,7,6,6,4,5,5,4,3,0,5,0,0,0,0,0,0,0,0,0,0,0,0,0,0,0,0,0,0],"split_type":[0,0,0,0,0,0,0,0,0,0,0,0,0,0,0,0,0,0,0,0,0,0,0,0,0,0,0,0,0,0,0,0,0,0,0,0,0,0,0,0,0,0,0],"sum_hessian":[3.2146892E3,1.3070863E3,1.907603E3,7.2606415E1,1.2344799E3,1.7778153E3,1.2978763E2,6.0690235E1,1.1916178E1,4.8789056E2,7.4658936E2,1.4137587E3,3.6405676E2,1.2214721E2,7.640429E0,3.6651203E1,4.5123935E2,3.1658862E2,4.300007E2,5.3673376E2,8.7702484E2,1.5900716E2,2.0504959E2,9.094665E0,1.1305254E2,1.4157491E1,2.2493713E1,6.759287E0,4.4448007E2,2.208895E1,2.9449966E2,3.106281E2,1.1937259E2,1.4398827E2,3.9274548E2,2.1004906E2,6.669758E2,1.0319065E1,1.486881E2,4.473487E1,1.6031473E2,1.3605624E0,1.1169198E2],"tree_param":{"num_deleted":"0","num_feature":"8","num_nodes":"43","size_leaf_vector":"1"}},{"base_weights":[-2.4103723E-4,7.602931E-1,-8.1607595E-2,2.935708E-1,9.598672E-1,-3.411199E-1,2.3543091E-2,1.0850747E-2,9.318333E-2,1.0415283E0,-0E0,1.3304827E-1,-3.5504407E-1,7.836629E-2,-3.2388657E-1,5.298359E-1,-0E0,1.4487913E-2,1.4770369E-1,-1.3785597E-4,2.6775515E-1,-0E0,3.4560043E-1,-4.4776255E-1,-1.9773464E-1,1.9623278E-1,-7.581824E-3,-5.2894126E-3,-3.9267322E-1,-0E0,8.058896E-3,-1.6573655E-3,4.2129057E-3,-0E0,5.103302E-3,5.0763194E-3,-0E0,4.988961E-3,-0E0,-6.0998397E-3,-0E0,-0E0,-3.4711557E-3,-2.1372015E-4,3.057453E-3,3.2258388E-3,-6.398287E-4,-3.8475913E-3,1.4466458E-3,-5.751215E-3,-0E0],"categories":[],"categories_nodes":[],"categories_segments":[],"categories_sizes":[],"default_left":[0,0,0,0,0,0,0,0,0,0,0,0,0,0,0,0,0,0,0,0,0,0,0,0,0,0,0,0,0,0,0,0,0,0,0,0,0,0,0,0,0,0,0,0,0,0,0,0,0,0,0],"id":30,"left_children":[1,3,5,7,9,11,13,-1,15,17,19,21,23,25,27,29,31,-1,33,-1,35,-1,37,39,41,43,45,47,49,-1,-1,-1,-1,-1,-1,-1,-1,-1,-1,-1,-1,-1,-1,-1,-1,-1,-1,-1,-1,-1,-1],"loss_changes":[1.9659503E2,2.0863678E1,8.145485E1,6.3736525E0,1.0859589E1,7.008133E0,3.838025E1,0E0,6.1069865E0,2.9393463E0,1.3717705E0,1.3987211E0,8.650253E0,1.9253784E1,3.9398403E0,1.4986558E0,2.1428456E0,0E0,1.5647331E0,0E0,4.0644133E-1,0E0,1.6322315E-1,5.4824753E0,5.621791E0,7.1848316E0,9.736737E0,3.2666247E0,3.6447144E0,0E0,0E0,0E0,0E0,0E0,0E0,0E0,0E0,0E0,0E0,0E0,0E0,0E0,0E0,0E0,0E0,0E0,0E0,0E0,0E0,0E0,0E0],"parents":[2147483647,0,0,1,1,2,2,3,3,4,4,5,5,6,6,8,8,9,9,10,10,11,11,12,12,13,13,14,14,15,15,16,16,18,18,20,20,22,22,23,23,24,24,25,25,26,26,27,27,28,28],"right_children":[2,4,6,8,10,12,14,-1,16,18,20,22,24,26,28,30,32,-1,34,-1,36,-1,38,40,42,44,46,48,50,-1,-1,-1,-1,-1,-1,-1,-1,-1,-1,-1,-1,-1,-1,-1,-1,-1,-1,-1,-1,-1,-1],"split_conditions":[1.4764366E-2,4.5466553E1,-1.808817E-2,7.8040203E-3,7.675E2,1.8747227E1,2.6065E3,1.0850747E-2,-1.9545085E2,1.1589052E-2,-1.1967546E-4,-1.6004707E3,-1.7740703E3,2.8290825E-2,1.3865885E-2,-1.0501E3,-3.5790677E-4,1.4487913E-2,5.782649E1,-1.3785597E-4,1.6117665E2,-0E0,-7.6728503E2,4.0359024E1,3.541153E1,-1.1805E3,-4.572822E2,5.6625847E1,1.08293556E-1,-0E0,8.058896E-3,-1.6573655E-3,4.2129057E-3,-0E0,5.103302E-3,5.0763194E-3,-0E0,4.988961E-3,-0E0,-6.0998397E-3,-0E0,-0E0,-3.4711557E-3,-2.1372015E-4,3.057453E-3,3.2258388E-3,-6.398287E-4,-3.8475913E-3,1.4466458E-3,-5.751215E-3,-0E0],"split_indices":[6,1,0,6,2,1,2,0,3,0,0,3,2,6,0,2,0,0,1,0,3,0,3,1,1,2,3,1,6,0,0,0,0,0,0,0,0,0,0,0,0,0,0,0,0,0,0,0,0,0,0],"split_type":[0,0,0,0,0,0,0,0,0,0,0,0,0,0,0,0,0,0,0,0,0,0,0,0,0,0,0,0,0,0,0,0,0,0,0,0,0,0,0,0,0,0,0,0,0,0,0,0,0,0,0],"sum_hessian":[3.2217556E3,3.013996E2,2.920356E3,1.0148226E2,1.9991733E2,8.5256146E2,2.0677944E3,1.6670547E1,8.4811714E1,1.7905473E2,2.0862597E1,1.2857439E1,8.3970404E2,1.8017484E3,2.6604605E2,1.9532223E1,6.5279495E1,1.6131967E2,1.7735054E1,6.7466216E0,1.4115974E1,3.5001416E0,9.357298E0,5.025083E2,3.371957E2,7.8161945E2,1.020129E3,6.110425E1,2.049418E2,2.2293432E0,1.730288E1,5.938974E1,5.8897524E0,9.067146E0,8.667908E0,6.9111433E0,7.204831E0,8.0338125E0,1.3234851E0,4.9282553E2,9.682751E0,6.978843E1,2.674073E2,9.4620865E1,6.869986E2,1.22077705E2,8.980513E2,2.7709663E1,3.339459E1,1.8308809E2,2.185373E1],"tree_param":{"num_deleted":"0","num_feature":"8","num_nodes":"51","size_leaf_vector":"1"}},{"base_weights":[-4.7458914E-5,7.0707405E-1,-4.272208E-2,9.9390465E-1,4.826524E-1,-1.1755743E-1,1.5169601E-1,1.4283124E-2,-0E0,-4.99538E-3,7.079571E-1,3.930285E-1,-1.4859004E-1,7.627178E-1,1.0674949E-1,-0E0,7.3523045E-1,4.9442795E-1,-0E0,-0E0,-1.8969546E-1,1.1419028E-2,-0E0,1.8041117E-1,-7.540858E-2,9.803058E-3,-0E0,7.909948E-3,-0E0,-2.7650374E-3,4.355034E-3,-3.718065E-3,2.7154014E-3,-4.034471E-3,-6.6617783E-4,1.1498217E-3,8.49813E-3,-2.4394277E-3,1.1843215E-3],"categories":[],"categories_nodes":[],"categories_segments":[],"categories_sizes":[],"default_left":[0,0,0,0,0,0,0,0,0,0,0,0,0,0,0,0,0,0,0,0,0,0,0,0,0,0,0,0,0,0,0,0,0,0,0,0,0,0,0],"id":31,"left_children":[1,3,5,7,9,11,13,-1,-1,-1,15,17,19,21,23,-1,25,27,29,31,33,-1,-1,35,37,-1,-1,-1,-1,-1,-1,-1,-1,-1,-1,-1,-1,-1,-1],"loss_changes":[9.449368E1,1.6651382E0,4.4492676E1,8.52317E0,2.6167032E1,3.445986E1,1.8180584E1,0E0,0E0,0E0,2.9849129E0,5.108385E0,1.2885277E1,6.0546265E0,1.1211152E1,0E0,8.066559E-1,6.2180424E0,2.2440083E0,2.7523624E1,2.5160858E1,0E0,0E0,2.1366928E1,4.4250884E0,0E0,0E0,0E0,0E0,0E0,0E0,0E0,0E0,0E0,0E0,0E0,0E0,0E0,0E0],"parents":[2147483647,0,0,1,1,2,2,3,3,4,4,5,5,6,6,10,10,11,11,12,12,13,13,14,14,16,16,17,17,18,18,19,19,20,20,23,23,24,24],"right_children":[2,4,6,8,10,12,14,-1,-1,-1,16,18,20,22,24,-1,26,28,30,32,34,-1,-1,36,38,-1,-1,-1,-1,-1,-1,-1,-1,-1,-1,-1,-1,-1,-1],"split_conditions":[-1.1790453E3,-3.5750989E3,8.514119E2,-2.3949167E2,-2.5808918E3,-3.8527598E3,-1.5466892E-2,1.4283124E-2,-0E0,-4.99538E-3,-3.1164294E2,2.7384485E2,-1.8224811E3,-3.9004153E2,2.5383169E-2,-0E0,-7.9569147E2,-2.9320465E2,-3.7693103E2,-5.2324347E2,-1.0834398E2,1.1419028E-2,-0E0,6.938494E2,4.506603E3,9.803058E-3,-0E0,7.909948E-3,-0E0,-2.7650374E-3,4.355034E-3,-3.718065E-3,2.7154014E-3,-4.034471E-3,-6.6617783E-4,1.1498217E-3,8.49813E-3,-2.4394277E-3,1.1843215E-3],"split_indices":[4,2,2,5,2,2,0,0,0,0,5,4,2,3,0,0,3,5,5,4,2,0,0,3,2,0,0,0,0,0,0,0,0,0,0,0,0,0,0],"split_type":[0,0,0,0,0,0,0,0,0,0,0,0,0,0,0,0,0,0,0,0,0,0,0,0,0,0,0,0,0,0,0,0,0,0,0,0,0,0,0],"sum_hessian":[3.2314775E3,1.7282042E2,3.058657E3,5.8556675E1,1.1426374E2,2.228542E3,8.301152E2,5.5377033E1,3.1796415E0,1.8354382E1,9.5909355E1,1.1511329E2,2.1134287E3,4.378555E1,7.8632965E2,1.8257409E0,9.408362E1,9.179518E1,2.3318113E1,4.605403E2,1.6528883E3,4.061694E1,3.1686106E0,5.794902E2,2.0683948E2,9.2724E1,1.3596151E0,7.749433E1,1.4300846E1,1.6579601E1,6.738513E0,1.9418219E2,2.6635812E2,8.7374567E2,